tree
version=v4
num_class=1
num_tree_per_iteration=1
label_index=0
max_feature_idx=40
objective=binary sigmoid:1
feature_names=BOP PF_K_UpShadow Bitbo_Sharpe vol_current vol_fear_interaction AROON_osc_14 divergence_rank_diff Close_to_Low_Ratio Vol_ROC ADXR_14 next_day_of_month momentum_ppo_hist HT_SINE_leadsine PF_K_Body momentum_pvo_hist next_halving_pos_angle trend_stc MACD_Signal next_weekday MACDFIX_Hist FastD_RSI_14 ADI fng_norm Close_to_Open_Ratio emd_energy_imf2 CCI_14 daily_range_pct trend_kst TRIX_30 SlowK_5 PF_Open_Gap CHOP_14 fng_lag_2 trend_mass_index volume_obv DX_14 volume_nvi FastK_5 pattern_sentiment_score Close_to_High_Ratio HT_DCPERIOD
feature_infos=[-0.99905232300000002:1] [0:0.133423705] [5:95] [0.0062361459999999997:0.16898508700000001] [0.0035490309999999998:0.74712394699999995] [-100:100] [1.140915729:22.644265749999999] [1:1.3994094420000001] [-0.661532711:2.6598134] [12.545391800000001:57.33581255] [1:31] [-7.3373252170000001:7.0136178930000002] [-0.99998176900000002:0.99999998400000001] [-0.423088507:0.25951294600000002] [-11.93819315:18.919650399999998] [-3.1415926540000001:3.137289102] [9.6300000000000006e-11:100] [-288.6906224:391.71936959999999] [0:6] [-216.0690592:98.803199090000007] [-2.37e-13:100] [-113000000000:280000000000] [0.050000000000000003:0.94999999999999996] [0.576911493:1.2595129460000001] [0:299721401.89999998] [-412.7571342:343.92259139999999] [0.001646631:0.27797235999999997] [-440.27100330000002:827.42919900000004] [-1.245818029:1.750968576] [0.55531300400000005:99.03479609] [-0.025305867999999999:0.057890219] [14.789547260000001:73.426798849999997] [0.050000000000000003:0.94999999999999996] [19.693238439999998:30.76154833] [-39702432399:1790000000000] [0.024246117000000001:91.811549439999993] [127.0442688:1610.499585] [0:100] [-6:9] [0.57570233999999998:1] [12.72634965:42.703761229999998]
tree_sizes=1597 1700 1414 1712 1708 1728 1617 1404 1519 1411 1694 1613 1639 1725 1404 1607 1620 1485 1514 1631 1411 1686 1617 1319 1406 1648 1617 1643 1519 1536 1310 1403 1305 1752 1296 1209 1525 1300 1419 1520 1724 1315 1594 1603 1309 1431 1223 1625 1392 1316 1205 1518 1414 1404 996 1090 991 1329 1423 1507 1435 1305 1106 1508 1094 1381 1304 1214 1300 1107 981 1204 1111 1704 1003 1005 1107 1325 1497

Tree=0
num_leaves=14
num_cat=0
split_feature=39 22 9 27 15 36 18 40 2 40 1 2 1
split_gain=27.0319 26.0474 8.81074 7.87687 8.9999 6.96216 6.82977 5.47934 5.33148 3.13344 2.72121 6.14522 1.58719
threshold=0.97611351950000014 0.41500000000000004 37.721012695000006 -23.858599764999997 -0.91450471099999986 635.91557965000015 4.5000000000000009 17.316063410000002 43.500000000000007 18.528758395000004 0.0025133250000000003 24.500000000000004 0.0053245800000000015
decision_type=2 2 2 2 2 2 2 2 2 2 2 2 2
left_child=5 2 6 9 -5 10 -2 -7 -9 -3 -1 -12 -4
right_child=1 3 12 4 -6 7 -8 8 -10 -11 11 -13 -14
leaf_value=0.036737028497294259 0.020617382078893149 0.04845542725668002 0.040303521783581681 0.029216661192061476 0.038937910626079472 0.028652947844710251 0.032192513169012199 0.036804236087399786 0.048120658648069442 0.037509625588605738 0.036235848454045025 0.050179033295885911 0.031948872374978871
leaf_weight=15.494913160800932 78.474237620830536 28.240728825330734 14.995077252387999 59.730391055345535 94.71890464425087 16.744502931833267 36.737939268350601 60.979980826377869 23.492287695407867 23.742205649614334 16.994420886039734 64.228914231061935 17.244338840246201
leaf_count=62 314 113 60 239 379 67 147 244 94 95 68 257 69
internal_value=0.0362358 0.0329299 0.0265546 0.037437 0.0352646 0.0421204 0.0240058 0.0381409 0.0403848 0.044059 0.0459594 0.0474241 0.0362358
internal_weight=551.819 353.884 147.452 206.432 154.449 197.935 115.212 101.217 84.4723 51.9829 96.7182 81.2233 32.2394
internal_count=2208 1416 590 826 618 792 461 405 338 208 387 325 129
is_linear=0
shrinkage=1


Tree=1
num_leaves=15
num_cat=0
split_feature=39 32 26 18 40 26 31 35 19 1 31 4 40 24
split_gain=26.0133 27.0534 11.1328 9.89758 9.71136 8.60045 7.62264 11.5968 10.305 7.13607 5.80749 4.24641 3.08944 3.04546
threshold=0.97611351950000014 0.42500000000000004 0.012575731000000001 3.5000000000000004 21.241479280000004 0.021665499000000001 43.833165505000004 40.419961810000011 5.3423245165000006 0.0017747995 40.225292580000009 0.052969360500000007 20.077884490000002 1284652.5520000004
decision_type=2 2 2 2 2 2 2 2 2 2 2 2 2 2
left_child=6 2 9 -4 10 -6 7 12 11 -2 -3 -8 -1 -9
right_child=1 4 3 -5 5 -7 8 13 -10 -11 -12 -13 -14 -15
leaf_value=0.0079994726681837554 -0.0010727250873800479 0.01431821642618605 -0.009420632221302825 0.004737885714907024 -0.012008548433601622 0.0008087194346467491 0.0005882354379901165 0 -0.0095507828167245134 -0.017979488983374866 0.0027142828350904262 0.0099219812717933949 0.024282669598821943 0.0093016967049915199
leaf_weight=15.243726089596747 15.246771544218062 21.992033824324608 46.241149216890335 29.741763696074486 28.741823270916939 57.230400085449219 47.227168262004852 33.984296903014183 21.741718664765358 60.988416329026222 93.71570397913456 38.981609687209129 20.740230947732925 19.992324352264404
leaf_count=61 61 88 185 119 115 229 189 136 87 244 375 156 83 80
internal_value=0 -0.00323973 -0.00956486 -0.00364276 0.00148301 -0.00342453 0.00577617 0.0100684 0.00189925 -0.0149677 0.00529551 0.00516475 0.0186956 0.00349722
internal_weight=551.809 353.898 152.218 75.9829 201.68 85.9722 197.911 89.9606 107.95 76.2352 115.708 86.2088 35.984 53.9766
internal_count=2208 1416 609 304 807 344 792 360 432 305 463 345 144 216
is_linear=0
shrinkage=0.02


Tree=2
num_leaves=12
num_cat=0
split_feature=23 22 17 9 40 0 5 28 24 29 28
split_gain=23.9347 21.0892 11.7485 11.2539 10.3408 10.2001 7.80855 8.18154 6.92338 2.88211 2.76656
threshold=0.98311297800000019 0.67500000000000016 26.078132180000001 37.721012695000006 22.683485790000002 -0.41134989149999995 -82.142857139999975 -0.41445678999999996 18862410.175000004 79.894910065000019 0.60786923450000019
decision_type=2 2 2 2 2 2 2 2 2 2 2
left_child=5 3 9 8 -5 6 -1 -8 -2 -3 -4
right_child=1 2 10 4 -6 -7 7 -9 -10 -11 -12
leaf_value=-0.0070820201916957726 -0.0089419001972766213 0.007092665015354797 0.0026270429936334728 0.012344691473078427 -0.0035830452311108808 0.020103788746722057 -0.0029896219083504812 0.0093132871940043091 -0.00056804221469208306 0.020011033970766839 -0.0064121742257297869
leaf_weight=16.991966634988785 185.95330668985844 30.985818430781364 27.487944528460503 23.239971533417702 41.737665414810181 18.988551184535027 24.489566639065742 87.948084354400635 56.983546033501625 15.740855798125265 21.239047020673752
leaf_count=68 744 124 110 93 167 76 98 352 228 63 85
internal_value=0 -0.00252086 0.00551466 -0.00509592 0.00201359 0.00682076 0.00444357 0.00645346 -0.00708005 0.0124977 -0.00101616
internal_weight=551.786 403.368 95.4537 307.914 64.9776 148.418 129.43 112.438 242.937 46.7267 48.727
internal_count=2208 1614 382 1232 260 594 518 450 972 187 195
is_linear=0
shrinkage=0.02


Tree=3
num_leaves=15
num_cat=0
split_feature=39 32 27 26 32 18 31 35 12 39 35 40 40 24
split_gain=24.3939 25.6272 11.1766 10.6586 9.94259 9.52896 7.41149 11.1141 9.55819 6.48529 5.13434 3.9895 2.95731 2.89968
threshold=0.97611351950000014 0.42500000000000004 -23.858599764999997 0.012575731000000001 0.66500000000000015 3.5000000000000004 43.833165505000004 40.419961810000011 1.0000000180025095e-35 0.99578484050000016 28.598222925000005 23.206753425000002 20.077884490000002 1284652.5520000004
decision_type=2 2 2 2 2 2 2 2 2 2 2 2 2 2
left_child=6 3 -3 9 -4 -5 7 12 11 -2 -10 -8 -1 -9
right_child=1 2 4 5 -6 -7 8 13 10 -11 -12 -13 -14 -15
leaf_value=0.0077819743326755187 -0.017898921606543369 0.0095155733549240739 -0.0060712992219427043 -0.0091635871660018867 0.0039887108330880277 0.0047273709317049457 0.011440139491799322 0 -0.010538042064004277 -0.0026618849721376527 0.002003550539099566 0.00060932054443633727 0.0237608292795598 0.0090582162073092037
leaf_weight=15.238964304327963 57.497704714536667 49.971185624599457 79.232264012098312 46.246134117245674 72.463279008865356 29.741047993302345 33.476317539811134 33.982805192470551 25.736420795321465 18.748129218816757 19.489835679531097 29.228429421782494 20.72206050157547 19.985621348023415
leaf_count=61 230 200 317 185 290 119 134 136 103 75 78 117 83 80
internal_value=0 -0.00312972 0.00146496 -0.00928614 -0.00114625 -0.00348847 0.00560172 0.00983266 0.00177976 -0.0145717 -0.0048539 0.00687557 0.0182832 0.00339232
internal_weight=551.76 353.9 201.667 152.233 151.696 75.9872 197.86 89.9295 107.931 76.2458 45.2263 62.7047 35.961 53.9684
internal_count=2208 1416 807 609 607 304 792 360 432 305 181 251 144 216
is_linear=0
shrinkage=0.02


Tree=4
num_leaves=15
num_cat=0
split_feature=39 32 17 26 26 18 1 36 24 19 18 10 29 21
split_gain=23.5293 24.6678 11.5826 10.9365 10.2568 9.17601 6.68027 6.58875 6.23846 6.20284 4.10306 3.31204 4.08015 3.18555
threshold=0.97611351950000014 0.42500000000000004 -4.5665879019999993 0.019977669500000003 0.012575731000000001 3.5000000000000004 0.0017747995 635.91557965000015 2747996.9435000005 5.6609366285000009 3.5000000000000004 9.5000000000000018 71.150926620000021 -5487897578.499999
decision_type=2 2 2 2 2 2 2 2 2 2 2 2 2 2
left_child=7 4 10 -4 6 -6 -2 11 9 -9 -3 -1 -13 -10
right_child=1 2 3 -5 5 -7 -8 8 13 -11 -12 12 -14 -15
leaf_value=0.015940976358703753 -0.00084886463993765859 0.0027252634384556276 -0.0092185685141003299 0.0021993373118709757 -0.0089875727895717631 0.0046391535621031826 -0.017206835132655057 0.0014891470099259985 0 -0.011929330491724762 0.015026426589541751 0.0089452542479164978 -0.001098325271133878 0.011749551009721691
leaf_weight=24.974515348672867 15.248355627059935 27.72837407886982 46.742206066846848 101.70306554436684 46.24793666601181 29.73852550983429 60.995400831103325 44.22209532558918 14.988119050860403 16.740454003214836 25.480404898524284 54.191955745220184 17.482111632823944 25.224961191415787
leaf_count=100 61 111 187 407 185 119 244 177 60 67 102 217 70 101
internal_value=0 -0.00306923 0.00143721 -0.00133773 -0.00910966 -0.00341587 -0.0142963 0.00550662 0.00163898 -0.00213984 0.00930921 0.00923737 0.00626073 0.00767138
internal_weight=551.708 353.884 201.654 148.445 152.23 75.9865 76.2438 197.824 101.176 60.9625 53.2088 96.6486 71.6741 40.2131
internal_count=2208 1416 807 594 609 304 305 792 405 244 213 387 287 161
is_linear=0
shrinkage=0.02


Tree=5
num_leaves=15
num_cat=0
split_feature=39 22 38 17 4 31 35 12 9 37 35 40 40 12
split_gain=22.6421 22.2016 10.8756 7.65062 9.94043 7.17504 10.7214 9.12704 7.04798 5.13948 4.95308 4.03904 2.82309 2.66008
threshold=0.97611351950000014 0.41500000000000004 3.5000000000000004 -4.5665879019999993 0.03138042550000001 43.833165505000004 40.419961810000011 1.0000000180025095e-35 37.721012695000006 17.235223830000002 28.598222925000005 18.528758395000004 20.077884490000002 0.54715989350000005
decision_type=2 2 2 2 2 2 2 2 2 2 2 2 2 2
left_child=5 2 8 11 -5 6 12 9 -2 -7 -9 -3 -1 -8
right_child=1 3 -4 4 -6 7 13 10 -10 -11 -12 -13 -14 -15
leaf_value=0.0075670783504867894 -0.013605377195031661 0.011932625841260392 0.0027981742895879257 -0.0093055470551036829 0.0019296471524247289 0.014064141123894862 0.0062199017686936373 -0.010411753105431219 -0.00073045481068077702 0.0016094871034532385 0.0018906115706471033 0.00026991044705806336 0.023235875020976203 -0.0025086229609145787
leaf_weight=15.232992470264433 99.47863981127739 31.463243916630745 23.244654551148415 41.243451818823814 109.44963075220585 22.224569842219353 37.716174021363258 25.738732472062111 24.74236473441124 40.454979956150055 19.48627607524395 24.233265608549118 20.694109231233597 16.239502295851707
leaf_count=61 398 126 93 165 438 89 151 103 99 162 78 97 83 65
internal_value=0 -0.00300828 -0.00889536 0.00114708 -0.00109596 0.00540493 0.00956649 0.00164544 -0.0112516 0.00663314 -0.0048319 0.00739014 0.017869 0.00323961
internal_weight=551.643 353.855 147.466 206.39 150.693 197.787 89.8828 107.905 124.221 62.6795 45.225 55.6965 35.9271 53.9557
internal_count=2208 1416 590 826 603 792 360 432 497 251 181 223 144 216
is_linear=0
shrinkage=0.02


Tree=6
num_leaves=14
num_cat=0
split_feature=13 26 1 9 6 6 3 6 17 16 33 20 4
split_gain=21.1325 19.3952 10.4829 9.02385 7.32042 5.4982 6.39708 5.05143 5.85707 5.34693 3.76952 3.7172 3.44195
threshold=-0.016887021999999998 0.017711184000000005 0.0054398140000000003 37.721012695000006 9.9819447560000025 13.229451710000001 0.043691817500000008 6.310166928000001 42.282428310000007 52.532282155000011 24.377836725000005 57.948825485000008 0.036571729000000004
decision_type=2 2 2 2 2 2 2 2 2 2 2 2 2
left_child=2 3 5 4 -2 -1 -7 9 -9 -3 -4 -12 -5
right_child=1 7 10 12 -6 6 -8 8 -10 -11 11 -13 -14
leaf_value=0.0070759046099997808 0.0019623895043199917 0.013553023212946195 0.0030527649645274157 0.0085125871836527218 -0.01059999551650306 -0.010833935612398185 0.0039909285743910542 0.0021604364156143294 -0.0064679675234399778 0.00080267361502025277 0.017939012628288911 0.0043769956211221345 -0.0031372164522314072
leaf_weight=28.957561433315277 17.738913863897324 23.977608934044838 23.213837042450905 15.489814952015875 137.94504801928997 22.734032869338989 17.980423986911774 112.67970503866673 41.22886848449707 34.71736067533493 37.685839161276817 17.727145686745644 19.492109850049019
leaf_count=116 71 96 93 62 552 91 72 451 165 139 151 71 78
internal_value=0 -0.00235281 0.00642765 -0.00697178 -0.00903504 0.000430102 -0.0039384 0.00172272 -7.59721e-05 0.00661582 0.0113516 0.0142524 0.00166184
internal_weight=551.568 403.269 148.299 190.666 155.684 69.672 40.7145 212.604 153.909 58.695 78.6268 55.413 34.9819
internal_count=2208 1614 594 763 623 279 163 851 616 235 315 222 140
is_linear=0
shrinkage=0.02


Tree=7
num_leaves=12
num_cat=0
split_feature=13 26 1 9 30 30 6 7 19 36 26
split_gain=20.3533 18.7359 10.1055 9.65997 9.53992 9.52011 9.11137 9.10499 6.49322 5.74121 3.05575
threshold=-0.016887021999999998 0.014253725000000002 0.0054398140000000003 37.721012695000006 -0.00084638699999999988 -0.00022767699999999997 12.279676510000002 1.0098943785000001 5.3423245165000006 746.53972240000019 0.010547756500000002
decision_type=2 2 2 2 2 2 2 2 2 2 2
left_child=2 3 5 7 -3 -1 -7 -2 10 -6 -4
right_child=1 4 8 -5 9 6 -8 -9 -10 -11 -12
leaf_value=0.013300826400298791 -0.00071225130432880826 -0.010807147712508305 0.0045347448446138592 0.0024390994896553242 0.0049293480663496446 0.0068266318347552073 -0.009475677314000128 -0.013689316695336498 0 -0.0012233693332538145 0.017359027221544324
leaf_weight=15.976160049438475 33.233867421746254 22.734197318553925 16.72341400384903 25.485794633626938 132.65885481238365 18.719625622034073 34.970747083425522 87.453504547476768 19.210082352161407 101.68068321049213 42.659085363149643
leaf_count=64 133 91 67 102 531 75 140 350 77 407 171
internal_value=0 -0.00230225 0.00631561 -0.00798128 0.000886367 0.000421678 -0.00339157 -0.0103487 0.0111519 0.00218728 0.0143387
internal_weight=551.506 403.247 148.259 146.173 257.074 69.6665 53.6904 120.687 78.5926 234.34 59.3825
internal_count=2208 1614 594 585 1029 279 215 483 315 938 238
is_linear=0
shrinkage=0.02


Tree=8
num_leaves=13
num_cat=0
split_feature=32 0 38 1 0 37 30 38 26 0 21 37
split_gain=17.238 14.7007 10.4762 8.32615 7.50247 7.0494 6.03916 12.491 5.68995 5.20345 4.84026 4.00633
threshold=0.63500000000000012 0.31673296850000004 1.5000000000000002 0.0063764610000000008 -0.65076770899999981 34.567224335000006 2.1450000000000002e-06 1.0000000180025095e-35 0.009058832000000001 0.61426838750000012 -7715908098.999999 93.075487835000018
decision_type=2 2 2 2 2 2 2 2 2 2 2 2
left_child=1 3 8 4 -1 -2 9 -8 -3 -7 -5 -4
right_child=5 2 11 10 -6 6 7 -9 -10 -11 -12 -13
leaf_value=0.0024047898910951964 0.014397315353973443 -0.020384376692775329 0.0039975613849886852 0.0098158876870395508 -0.0075317285756621903 -0.0048176467651623468 0.017450918959351049 -0.00076709272821262966 -0.007530200231104082 0.007693027994340346 0.0014012008316860538 -0.0072887909464171034
leaf_weight=48.197965636849403 30.430622950196266 22.23141011595726 33.482168018817902 38.200094655156136 68.202527597546577 42.447620064020157 26.212333798408508 27.722801834344864 67.217359930276871 16.485350787639618 113.11486068367958 17.491402164101601
leaf_count=193 122 89 134 153 273 170 105 111 269 66 453 70
internal_value=0 -0.00206643 -0.00726985 0.000622389 -0.00327727 0.00594995 0.0032873 0.00803665 -0.0113196 -0.00085216 0.00375631 0
internal_weight=551.437 408.138 140.422 267.715 116.4 143.299 112.868 53.9351 89.4488 58.933 151.315 50.9736
internal_count=2208 1634 562 1072 466 574 452 216 358 236 606 204
is_linear=0
shrinkage=0.02


Tree=9
num_leaves=12
num_cat=0
split_feature=13 26 0 2 30 30 7 35 33 37 32
split_gain=19.1795 17.6981 9.83222 7.85381 7.48556 6.88378 6.80645 6.12886 6.09377 4.40776 3.9905
threshold=-0.016887021999999998 0.017711184000000005 -0.41134989149999995 42.500000000000007 -0.00022767699999999997 -0.00084638699999999988 1.0098943785000001 30.836703460000006 23.384086710000002 36.132077665000004 0.38500000000000006
decision_type=2 2 2 2 2 2 2 2 2 2 2
left_child=2 6 3 4 -1 -3 10 -8 -7 -5 -2
right_child=1 5 -4 9 -6 8 7 -9 -10 -11 -12
leaf_value=0.0098004934584000336 -0.0063255670486571016 -0.0088855311931241385 0.019148266463059307 0.014099085190382245 -0.0039705100583504269 0.011173345461390394 -0.012357562542877756 -0.0032911822266952638 0.0012238058052914664 0.0010533997305292202 0.0048873900279927966
leaf_weight=19.46390800178051 20.73740342259407 19.489932239055634 18.9418635815382 32.149268001317978 57.175135463476181 28.722852051258087 83.189373373985291 59.958109781146049 164.35945501923561 20.454840824007988 26.736267298460007
leaf_count=78 83 78 76 129 229 115 333 240 658 82 107
internal_value=0 -0.00223131 0.00613596 0.00381375 -5.84771e-05 0.00165874 -0.00664532 -0.00879553 0.00290579 0.00961699 0
internal_weight=551.378 403.193 148.185 129.243 76.639 212.572 190.621 143.147 193.082 52.6041 47.4737
internal_count=2208 1614 594 518 307 851 763 573 773 211 190
is_linear=0
shrinkage=0.02


Tree=10
num_leaves=15
num_cat=0
split_feature=39 22 17 26 9 31 35 19 26 22 18 40 5 11
split_gain=19.5904 19.774 7.39377 9.58053 7.25265 7.1983 10.2497 9.05654 6.19482 5.32894 5.061 2.73908 2.44214 1.49523
threshold=0.97611351950000014 0.41500000000000004 -4.5665879019999993 0.015480577000000002 37.721012695000006 43.833165505000004 40.419961810000011 5.3423245165000006 0.012975113500000001 0.24500000000000002 3.5000000000000004 20.077884490000002 75.000000000000014 0.69207417750000011
decision_type=2 2 2 2 2 2 2 2 2 2 2 2 2 2
left_child=5 4 10 -4 8 6 11 9 -2 -7 -3 -1 -8 -6
right_child=1 2 3 -5 13 7 12 -9 -10 -11 -12 -13 -14 -15
leaf_value=0.0072206834324316394 -0.014823135430553545 0.00079088135442082668 -0.010552519360088121 0.0014336419669937531 -0.0038698230193052819 -0.003894476112056441 0 -0.009432765052238971 -0.0045158317687635429 0.0071451602526518554 0.013509996968276433 0.022604380174784448 0.0090358216297013322 0.0042592286324900494
leaf_weight=15.217603757977484 64.911344543099403 29.964615151286125 31.739419668912888 118.91460002958775 16.744613885879517 19.474925503134727 37.703944176435471 21.73553378880024 50.235256388783455 66.587567239999771 25.71273972094059 20.642040967941284 16.220800966024399 15.495182648301123
leaf_count=61 260 120 127 476 67 78 151 87 201 267 103 83 65 62
internal_value=0 -0.0027796 0.00113757 -0.00106573 -0.00833907 0.005049 0.00920797 0.00129824 -0.0106509 0.0043882 0.00727633 0.0173306 0.00302221 0
internal_weight=551.3 353.718 206.331 150.654 147.386 197.582 89.7844 107.798 115.147 86.0625 55.6774 35.8596 53.9247 32.2398
internal_count=2208 1416 826 603 590 792 360 432 461 345 223 144 216 129
is_linear=0
shrinkage=0.02


Tree=11
num_leaves=14
num_cat=0
split_feature=39 32 27 26 18 32 31 35 19 1 37 20 5
split_gain=18.8665 20.7539 10.0699 8.7594 8.7115 8.38807 6.97828 9.89569 8.71646 6.43175 6.14888 3.66969 2.35586
threshold=0.97611351950000014 0.42500000000000004 -23.858599764999997 0.012575731000000001 3.5000000000000004 0.66500000000000015 43.833165505000004 40.419961810000011 5.3423245165000006 0.0017747995 13.138465360000001 81.358583205000016 75.000000000000014
decision_type=2 2 2 2 2 2 2 2 2 2 2 2 2
left_child=6 3 11 9 -5 -4 7 -1 10 -2 -8 -3 -9
right_child=1 2 5 4 -6 -7 8 12 -10 -11 -12 -13 -14
leaf_value=0.017044380424203642 -3.4862340012282211e-05 0.012838223560332623 -0.0056010595328373882 -0.008442919414363495 0.0048455661810643536 0.0036346593462312556 0.012300834416711962 0 -0.0092589069933931133 -0.015911223827663593 0.00043098472814437718 0.00022843853710039644 0.0088779160628745628
leaf_weight=35.819541752338409 15.241153255105017 32.698790863156319 79.221348136663437 46.232082575559616 29.740356281399727 72.420250728726387 24.928023397922516 37.703944176435471 21.738321900367737 60.882614344358444 61.114494174718857 17.220390155911446 16.214756548404694
leaf_count=144 61 131 317 185 119 290 100 151 87 244 245 69 65
internal_value=3.82892e-07 -0.00272491 0.00140218 -0.0082712 -0.00299362 -0.00107024 0.00495864 0.00905507 0.00126295 -0.0130708 0.00429836 0.00904986 0.00297012
internal_weight=551.176 353.657 201.561 152.096 75.9724 151.642 197.519 89.7382 107.781 76.1238 86.0425 49.9192 53.9187
internal_count=2208 1416 807 609 304 607 792 360 432 305 345 200 216
is_linear=0
shrinkage=0.02


Tree=12
num_leaves=14
num_cat=0
split_feature=39 32 17 26 26 27 31 35 19 39 13 20 24
split_gain=18.1742 19.994 10.3062 8.90541 8.43708 7.05339 6.72645 9.52021 8.40677 6.18814 4.76397 2.87059 2.74479
threshold=0.97611351950000014 0.42500000000000004 -4.5665879019999993 0.019977669500000003 0.012575731000000001 199.27769225 43.833165505000004 40.419961810000011 5.3423245165000006 0.99578484050000016 -0.017742676999999995 81.358583205000016 1284652.5520000004
decision_type=2 2 2 2 2 2 2 2 2 2 2 2 2
left_child=6 4 11 -4 9 -6 7 -1 10 -2 -8 -3 -9
right_child=1 2 3 -5 5 -7 8 12 -10 -11 -12 -13 -14
leaf_value=0.016740722308593275 -0.016048310134124527 0.012373800560561858 -0.0083508879191646918 0.0019451113913430676 -0.0063057671946871521 0.0075234355260932334 0.0071760478596390662 -7.523921961696539e-05 -0.0090886343968216866 -0.0014103434349827845 -0.0026131544859300361 0.0013911243591186021 0.0084669714722821632
leaf_weight=35.776589468121529 57.353952944278717 33.180914640426636 46.73037725687027 101.65863719582558 59.471694275736809 16.492981404066086 62.053390339016914 33.954791411757469 21.740119799971581 18.726508125662804 23.97214762866497 19.966812700033188 19.957329958677292
leaf_count=144 230 133 187 407 238 66 249 136 87 75 96 80 80
internal_value=3.50474e-06 -0.00267081 0.00137845 -0.00123223 -0.00811618 -0.00293076 0.00487144 0.00889547 0.00123915 -0.0128299 0.00422356 0.00881052 0.00291899
internal_weight=551.036 353.582 201.537 148.389 152.045 75.9647 197.454 89.6887 107.766 76.0805 86.0255 53.1477 53.9121
internal_count=2208 1416 807 594 609 304 792 360 432 305 345 213 216
is_linear=0
shrinkage=0.02


Tree=13
num_leaves=15
num_cat=0
split_feature=39 32 17 26 26 18 31 35 12 39 35 40 18 40
split_gain=17.4701 19.2563 9.93712 8.56901 8.13489 8.36085 6.49414 9.17526 8.2297 5.93513 4.61367 4.05762 3.83993 2.78469
threshold=0.97611351950000014 0.42500000000000004 -4.5665879019999993 0.019977669500000003 0.012575731000000001 3.5000000000000004 43.833165505000004 40.419961810000011 1.0000000180025095e-35 0.99578484050000016 28.598222925000005 23.206753425000002 3.5000000000000004 20.077884490000002
decision_type=2 2 2 2 2 2 2 2 2 2 2 2 2 2
left_child=6 4 12 -4 9 -6 7 13 11 -2 -10 -8 -3 -1
right_child=1 2 3 -5 5 -7 8 -9 10 -11 -12 -13 -14 -15
leaf_value=0.0065088779507037247 -0.015750660029797425 0.002304789347354444 -0.0081916794552024039 0.0019070594247326961 -0.0082119301823309638 0.004805654650891682 0.010528880992703129 0.0028598520474579186 -0.010308744426806134 -0.0013849082821682848 0.0015264874446712924 0 0.0141702679053949 0.021671944066826324
leaf_weight=15.185015663504599 57.30730801820755 27.700588941574097 46.724753901362419 101.65327802300453 46.222882479429245 29.738857761025429 33.392570495605469 53.904650986194611 25.725402623414993 18.725768059492111 19.464158982038498 29.162078708410263 25.427977249026299 20.544422209262848
leaf_count=61 230 111 187 407 185 119 134 216 103 75 78 117 102 83
internal_value=3.56886e-06 -0.00261788 0.00135451 -0.00120672 -0.00796332 -0.0028665 0.00477801 0.00873382 0.00120568 -0.0125951 -0.00493858 0.0059696 0.00865459 0.0164444
internal_weight=550.88 353.501 201.507 148.378 151.995 75.9617 197.378 89.6341 107.744 76.0331 45.1896 62.5546 53.1286 35.7294
internal_count=2208 1416 807 594 609 304 792 360 432 305 181 251 213 144
is_linear=0
shrinkage=0.02


Tree=14
num_leaves=12
num_cat=0
split_feature=39 22 38 8 33 6 5 19 26 13 35
split_gain=16.8493 17.1721 10.159 7.81147 6.87167 6.4298 5.65186 8.11984 8.0837 6.08939 2.29204
threshold=0.97611351950000014 0.41500000000000004 3.5000000000000004 -0.26456296699999998 26.489775080000005 8.224511822000002 -82.142857139999975 5.3423245165000006 0.032349488000000003 -0.017742676999999995 31.702937610000003
decision_type=2 2 2 2 2 2 2 2 2 2 2
left_child=6 2 3 -2 5 -3 -1 9 -9 -8 -6
right_child=1 4 -4 -5 10 -7 7 8 -10 -11 -12
leaf_value=-0.0036784340432669299 0.0021809919324625583 0.0074350234792476735 0.0035303973883616768 -0.011915699101853574 0 -0.00022487390958213945 0.011645129064461666 -0.0060562450642332732 0.0099111823452438085 0.0010563326744981514 -0.010433485388446215
leaf_weight=23.947241455316544 14.967008620500563 69.870292276144028 23.217461407184601 109.00159306824207 15.483793988823889 99.883864358067513 86.103705003857613 34.900268822908401 17.172984138131142 35.179729074239731 20.979401826858521
leaf_count=96 60 280 93 437 62 400 346 140 69 141 84
internal_value=7.7652e-06 -0.00256628 -0.00775293 -0.0100474 0.0010785 0.00286134 0.00469814 0.00599808 -0.000248739 0.00880291 -0.00641869
internal_weight=550.707 353.403 147.186 123.969 206.217 169.754 197.304 173.357 52.0733 121.283 36.4632
internal_count=2208 1416 590 497 826 680 792 696 209 487 146
is_linear=0
shrinkage=0.02


Tree=15
num_leaves=14
num_cat=0
split_feature=13 22 17 1 9 30 26 6 20 19 33 20 29
split_gain=15.8346 15.0142 10.6618 9.22899 9.05838 8.90038 8.83937 8.10265 6.31928 5.98766 4.80116 3.92975 3.03833
threshold=-0.016887021999999998 0.67500000000000016 26.078132180000001 0.0054398140000000003 37.721012695000006 -0.00022767699999999997 0.013204353500000002 12.279676510000002 35.863848380000007 7.9708873115000012 24.402487545000003 58.793270430000007 79.894910065000019
decision_type=2 2 2 2 2 2 2 2 2 2 2 2 2
left_child=3 4 12 5 6 -1 -2 -7 -4 10 -5 -6 -3
right_child=1 2 8 9 11 7 -8 -9 -10 -11 -12 -13 -14
leaf_value=0.012492864090172879 -0.010290302672046722 0.0061024484725378794 0.007947863747874321 0.0029323681259912056 0.007660226796484617 0.0059137178174569283 -0.0023401608534681729 -0.0094253283224025215 -0.0065904424787105809 0 0.016774841894444996 -0.0017138437451475242 0.018944857977800253
leaf_weight=15.923999279737471 106.90516693890095 30.918315961956978 15.477095767855642 19.157742381095886 28.214765772223473 18.662969693541527 135.61265915632248 34.93463733792305 33.20818255841732 16.672500744462013 42.49207878112793 36.700507298111916 15.698941528797148
leaf_count=64 429 124 62 77 113 75 543 140 133 67 171 147 63
internal_value=7.61304e-06 -0.00201248 0.00475891 0.00559736 -0.0041934 0 -0.00598199 -0.00370387 -0.00144286 0.010218 0.0130148 0.00216879 0.0114401
internal_weight=550.58 402.736 95.3025 147.844 307.433 69.5216 242.518 53.5976 48.6853 78.3223 61.6498 64.9153 46.6173
internal_count=2208 1614 382 594 1232 279 972 215 195 315 248 260 187
is_linear=0
shrinkage=0.02


Tree=16
num_leaves=14
num_cat=0
split_feature=39 32 17 38 26 40 36 24 21 13 18 10 21
split_gain=15.7291 17.5684 9.52226 8.19892 7.97413 5.88447 5.79327 5.58817 5.59644 4.55508 3.71432 3.5482 3.44274
threshold=0.97611351950000014 0.42500000000000004 -4.5665879019999993 3.5000000000000004 0.021431986000000004 24.695181525000006 635.91557965000015 2747996.9435000005 -8939610104.9999981 -0.028749666999999996 3.5000000000000004 9.5000000000000018 61929399882.000008
decision_type=2 2 2 2 2 2 2 2 2 2 2 2 2
left_child=6 3 10 5 -4 -2 11 8 -8 -9 -3 -1 -13
right_child=1 2 4 -5 -6 -7 7 9 -10 -11 -12 12 -14
leaf_value=0.014789583636079746 -0.012115427737778411 0.0022142031795534109 -0.0075261571259691087 0.0023455454591884977 0.0020120143951158844 -0.0014434228009147525 0.006798868277929926 0 -0.0062865339676970748 0.013314563554993216 0.013893566175837549 0.0073714973928209662 -0.0022875734089515638
leaf_weight=24.866193160414696 95.197792544960976 27.690662235021591 50.954412594437599 23.964534386992455 97.379744634032249 32.677830964326859 14.950388774275778 21.15838198363781 45.887280210852623 18.924303635954857 25.40314294397831 56.459165170788765 14.921998605132101
leaf_count=100 382 111 204 96 390 131 60 85 184 76 102 227 60
internal_value=1.21603e-05 -0.00247382 0.00131682 -0.00758415 -0.00118795 -0.00960648 0.00454685 0.000932998 -0.00263857 0.00669696 0.00846681 0.00803646 0.00507244
internal_weight=550.436 353.268 201.428 151.84 148.334 127.876 197.168 100.92 60.8377 40.0827 53.0938 96.2474 71.3812
internal_count=2208 1416 807 609 594 513 792 405 244 161 213 387 287
is_linear=0
shrinkage=0.02


Tree=17
num_leaves=13
num_cat=0
split_feature=39 22 38 8 33 31 31 19 22 40 9 40
split_gain=15.1416 15.5976 9.44275 7.51624 6.60889 7.36565 6.41339 7.55529 4.98675 3.7227 4.24128 2.99098
threshold=0.97611351950000014 0.41500000000000004 3.5000000000000004 -0.26456296699999998 26.489775080000005 41.355463610000008 43.833165505000004 5.3423245165000006 0.24500000000000002 17.316063410000002 26.533532670000003 24.145600180000006
decision_type=2 2 2 2 2 2 2 2 2 2 2 2
left_child=6 2 3 -2 5 -3 9 8 -8 -1 -11 -6
right_child=1 4 -4 -5 11 -7 7 -9 -10 10 -12 -13
leaf_value=0 0.0023873016359277793 0.0098765972352342964 0.0034868486430041585 -0.011426786843297518 0 0.00020425593566640102 -0.0042333047021214125 -0.0088608025996483493 0.0064681731268549361 0.018785388141720826 0.0064552348152408191 -0.010887358976294573
leaf_weight=16.189906239509583 14.958464071154593 41.925193771719933 23.215128242969513 108.86711913347244 15.477869838476179 127.75056837499142 19.453398257493973 21.733708083629608 66.429552838206291 18.588783711194992 54.714256003499031 20.982325240969658
leaf_count=65 60 168 93 437 62 512 78 87 267 75 220 84
internal_value=1.58898e-05 -0.00242279 -0.00737012 -0.00958764 0.00104705 0.00279791 0.00446636 0.000925915 0.00377542 0.00839189 0.0102635 -0.00630273
internal_weight=550.286 353.177 147.041 123.826 206.136 169.676 197.11 107.617 85.883 89.4929 73.303 36.4602
internal_count=2208 1416 590 497 826 680 792 432 345 360 295 146
is_linear=0
shrinkage=0.02


Tree=18
num_leaves=13
num_cat=0
split_feature=13 22 17 9 40 19 32 3 30 12 37 29
split_gain=14.5013 13.9083 10.1684 8.61528 9.32758 8.04842 7.98535 7.88808 6.29545 4.86316 4.02086 2.92703
threshold=-0.016887021999999998 0.67500000000000016 26.078132180000001 37.721012695000006 22.683485790000002 5.3423245165000006 0.49500000000000005 0.016468608500000006 -0.00032539949999999999 0.14797508050000002 76.463771310000013 79.894910065000019
decision_type=2 2 2 2 2 2 2 2 2 2 2 2
left_child=5 3 11 7 -5 8 -7 -2 -1 -10 -4 -3
right_child=1 2 10 4 -6 6 -8 -9 9 -11 -12 -13
leaf_value=0.016939456236648207 0.0058592364361609748 0.0058905829966968493 0.0034769934912124113 0.011996168414517292 -0.0031149267019235588 -0.011833201250696129 0.006387307061926124 -0.0068380419126686277 0.0092993049139978284 0 -0.0073745323550422851 0.018503008694984228
leaf_weight=24.326595798134804 18.209353342652321 30.897469222545624 25.207436680793762 23.201476290822029 41.693272322416306 17.462184861302376 15.889307782053946 224.12148675322533 46.41670635342598 43.569434255361557 23.472326442599297 15.672193989157675
leaf_count=98 73 124 101 93 167 70 64 899 187 175 94 63
internal_value=1.80185e-05 -0.00191376 0.00460185 -0.00401518 0.00218582 0.00537215 -0.00271659 -0.00576193 0.00791017 0.00493656 -0.00144528 0.011134
internal_weight=550.139 402.475 95.2494 307.226 64.8947 147.664 33.3515 242.331 114.313 89.9861 48.6798 46.5697
internal_count=2208 1614 382 1232 260 594 134 972 460 362 195 187
is_linear=0
shrinkage=0.02


Tree=19
num_leaves=14
num_cat=0
split_feature=39 6 9 26 3 31 35 37 26 9 40 40 31
split_gain=14.1689 14.1769 9.55241 10.7775 7.3342 6.22701 8.84302 6.94839 6.54519 5.25154 4.4566 2.67486 2.31878
threshold=0.97611351950000014 10.288489165000003 37.721012695000006 0.012975113500000001 0.019528979500000005 43.833165505000004 40.419961810000011 13.138465360000001 0.040109597000000004 40.03014055500001 22.683485790000002 20.077884490000002 31.231722020000003
decision_type=2 2 2 2 2 2 2 2 2 2 2 2 2
left_child=5 4 3 -3 -2 6 11 -7 -9 -6 -4 -1 -8
right_child=1 2 10 -5 9 7 12 8 -10 -11 -12 -13 -14
leaf_value=0.0060786719956910078 0.015138690044592522 -0.012575288013020519 0.0093987018158042009 -0.0023138024918666002 0.0027289880797117401 0.0090759412466699628 0.0076699196236163451 -0.005060551842945793 0.0086047512610655016 -0.0087142932687478587 -0.0023040919353788632 0.020887323233192135 -0.00020849866702177798
leaf_weight=15.151116251945494 14.955235525965689 86.513212218880653 18.962711066007614 88.88384935259819 98.518587410449982 28.58554895222187 19.44447173178196 63.802135348320007 15.160224139690397 16.735067442059517 28.467017322778702 20.425877034664154 34.392421707510948
leaf_count=61 60 348 76 356 395 115 78 256 61 67 114 83 138
internal_value=2.35642e-05 -0.00233445 -0.00541102 -0.00757265 0.00278144 0.00433158 0.00819965 0.000842161 -0.00204213 0.000776531 0.00216112 0.0157722 0.0024516
internal_weight=549.997 353.036 222.827 175.397 130.209 196.962 89.4139 107.548 78.9624 115.254 47.4297 35.577 53.8369
internal_count=2208 1416 894 704 522 792 360 432 317 462 190 144 216
is_linear=0
shrinkage=0.02


Tree=20
num_leaves=12
num_cat=0
split_feature=13 32 1 30 6 10 3 11 17 33 11
split_gain=13.5596 12.5016 8.6899 8.38562 7.56528 7.1091 6.89447 6.8186 5.95287 3.72335 4.0538
threshold=-0.016887021999999998 0.63500000000000012 0.0054398140000000003 -0.00022767699999999997 12.279676510000002 6.5000000000000009 0.015114128000000003 0.88463478800000017 24.98098723 24.377836725000005 0.15655451450000005
decision_type=2 2 2 2 2 2 2 2 2 2 2
left_child=2 6 3 -1 -5 -3 -2 -8 -7 -4 -11
right_child=1 5 9 4 -6 8 7 -9 -10 10 -12
leaf_value=0.011940461568143403 0.0071551887483922039 0.013295662352290618 0.0016900778984795051 0.0054742689806719569 -0.0093307245653909618 0.006089569892548303 -0.0067455826291970234 0.00013775594979304726 -0.0040097422257203601 0.016743943189185238 0.0035918114448105737
leaf_weight=15.877412453293799 17.455990195274353 22.683449119329453 23.086933106184006 18.624757811427116 34.909356459975243 43.818648487329483 201.85746335983276 72.287059992551804 44.187255561351776 34.678134828805923 20.348105221986771
leaf_count=64 70 91 93 75 140 176 810 290 177 140 82
internal_value=2.73493e-05 -0.0018395 0.0052084 0 -0.00380821 0.00374481 -0.00403846 -0.00487029 0.000820134 0.00969635 0.0125277
internal_weight=549.815 402.29 147.525 69.4115 53.5341 110.689 291.601 274.145 88.0059 78.1132 55.0262
internal_count=2208 1614 594 279 215 444 1170 1100 353 315 222
is_linear=0
shrinkage=0.02


Tree=21
num_leaves=15
num_cat=0
split_feature=39 32 17 26 18 26 1 36 4 30 11 18 1 6
split_gain=13.3022 15.3681 8.92054 7.42518 7.82161 7.25054 6.01337 5.34776 5.14723 6.28053 5.22261 3.60214 2.75755 3.50475
threshold=0.97611351950000014 0.42500000000000004 -4.5665879019999993 0.012575731000000001 3.5000000000000004 0.019977669500000003 0.0017747995 635.91557965000015 0.062584804500000021 -7.8649999999999987e-05 -0.61482664599999992 3.5000000000000004 0.0025133250000000003 17.033825190000005
decision_type=2 2 2 2 2 2 2 2 2 2 2 2 2 2
left_child=7 3 11 6 -5 -4 -2 12 9 -9 -10 -3 -1 -14
right_child=1 2 5 4 -6 -7 -8 8 10 -11 -12 -13 13 -15
leaf_value=0 0 0.0020612906968286698 -0.0075648546743582049 -0.0073983436160762221 0.0052240263231979481 0.0017215790034791692 -0.01420389463425991 0.012466094066292082 0.0020497647811493838 0 -0.012209804749571512 0.013556887278074952 0.011303827689200407 0.00033677490854075394
leaf_weight=15.394375547766684 15.205253303050993 27.669801622629166 46.669508129358292 46.148467108607292 29.737148076295853 101.5839758515358 60.492497622966766 21.605091139674187 16.187053665518761 45.065636903047562 17.930110156536102 25.365232020616531 61.476290911436081 19.145555004477501
leaf_count=62 61 111 187 185 119 407 244 87 65 181 72 102 248 77
internal_value=3.3795e-05 -0.00225003 0.00129026 -0.00703702 -0.00218812 -0.00113042 -0.0114591 0.00421076 0.000736463 0.0041031 -0.00515167 0.00821559 0.00756423 0.00901271
internal_weight=549.676 352.872 201.289 151.583 75.8856 148.253 75.6978 196.804 100.788 66.6707 34.1172 53.035 96.0162 80.6218
internal_count=2208 1416 807 609 304 594 305 792 405 268 137 213 387 325
is_linear=0
shrinkage=0.02


Tree=22
num_leaves=14
num_cat=0
split_feature=39 32 17 21 18 31 12 32 37 10 21 18 6
split_gain=12.7965 14.8042 8.60703 6.5374 8.75333 6.0327 7.14377 6.01086 4.44468 3.75256 5.04493 3.4616 3.19265
threshold=0.97611351950000014 0.42500000000000004 -4.5665879019999993 -10783807758.499998 4.5000000000000009 43.833165505000004 1.0000000180025095e-35 0.63500000000000012 17.235223830000002 9.5000000000000018 26211606538.000004 3.5000000000000004 16.685204635000002
decision_type=2 2 2 2 2 2 2 2 2 2 2 2 2
left_child=5 3 11 -2 -5 9 8 -4 -7 -1 -11 -3 -8
right_child=1 2 7 4 -6 6 12 -9 -10 10 -12 -13 -14
leaf_value=0.015671093617746483 0.0027652612969191531 0.0020230183575787692 -0.0053859966584847794 -0.011988975013708911 -0.00034915010329942913 0.012048516558670562 0 0.002501457705687066 0.00055476520189208988 0.0079695564934425742 -0.0039029836982596594 0.013317549262780438 -0.011106337223759014
leaf_weight=20.30572634935379 20.137965276837349 27.667266830801964 69.898713976144791 90.255129665136337 41.097634807229042 22.039721444249153 27.154718220233917 78.33672060072422 40.286597698926926 53.593082696199417 15.381854340434073 25.340852603316307 17.970330059528351
leaf_count=82 81 111 280 363 165 89 109 314 162 216 62 102 72
internal_value=3.5172e-05 -0.00220456 0.00126864 -0.00690514 -0.00855694 0.00413334 0.000700415 -0.00110684 0.00517832 0.00793998 0.00500474 0.00807391 -0.0050173
internal_weight=549.466 352.734 201.244 151.491 131.353 196.732 107.451 148.235 62.3263 89.2807 68.9749 53.0081 45.125
internal_count=2208 1416 807 609 528 792 432 594 251 360 278 213 181
is_linear=0
shrinkage=0.02


Tree=23
num_leaves=11
num_cat=0
split_feature=13 22 0 9 9 26 5 11 20 34
split_gain=12.3515 11.9806 9.60807 8.39062 7.89274 7.55794 6.891 9.46241 3.85381 2.43869
threshold=-0.016887021999999998 0.67500000000000016 -0.41134989149999995 35.559982045000005 37.721012695000006 0.013204353500000002 -82.142857139999975 0.13010408600000004 58.793270430000007 1095000000000.0001
decision_type=2 2 2 2 2 2 2 2 2 2
left_child=2 4 6 9 5 -2 -1 -8 -6 -3
right_child=1 3 -4 -5 8 -7 7 -9 -10 -11
leaf_value=-0.0081511812332568396 -0.0093678014328372351 0.0128220644569433 0.017810395867872534 -0.0050296555780214233 0.0076664718816708026 -0.0019996415453780668 0.0095115912484845886 -0.0018638759556769016 -0.0016099840195041072 0.0039437268501260406
leaf_weight=16.931649625301361 106.48555697500706 26.873509585857391 18.790041536092758 24.457399219274521 28.191124364733696 135.49007128179073 65.176724657416344 46.419934153556824 36.653522297739983 43.804528087377548
leaf_count=68 429 108 76 98 113 543 263 187 147 176
internal_value=3.71596e-05 -0.00174323 0.00498715 0.00430108 -0.00369786 -0.00537432 0.00271507 0.00465426 0.00223246 0.00785462
internal_weight=549.274 401.956 147.318 95.1354 306.82 241.976 128.528 111.597 64.8446 70.678
internal_count=2208 1614 594 382 1232 972 518 450 260 284
is_linear=0
shrinkage=0.02


Tree=24
num_leaves=12
num_cat=0
split_feature=39 26 26 29 25 4 13 10 25 39 4
split_gain=12.1021 9.8352 8.15995 8.2861 6.1718 6.16027 5.957 4.77867 5.39469 3.37865 2.63013
threshold=0.98962529300000013 0.0091115580000000022 0.038518465500000008 66.300352825000019 139.26719480000003 0.07853810750000001 0.0030322655000000003 25.500000000000004 127.97290920000002 0.99515374600000006 0.089915366500000024
decision_type=2 2 2 2 2 2 2 2 2 2 2
left_child=2 9 3 5 -5 -1 10 8 -3 -2 -4
right_child=1 7 6 4 -6 -7 -8 -9 -10 -11 -12
leaf_value=0.0044920644527164447 -0.019733407001716389 -0.0054230400460447119 0.01778028929873491 -0.0077516477349475581 0.0031654598860459951 -0.0048235489618945367 0 0.0058974656783801508 0.0037010491230743338 -0.0043292147004034198 0.0049692056591194448
leaf_weight=175.91509686410427 17.322458639740944 105.42019180953503 22.784207969903946 61.172258257865906 26.374046266078949 30.120386317372322 20.920599266886711 24.426135778427124 29.909560322761536 15.900431826710699 18.837604150176048
leaf_count=708 70 423 92 246 106 121 84 98 120 64 76
internal_value=3.67145e-05 -0.00393577 0.00225515 0.00075918 -0.00424219 0.00300079 0.00872642 -0.00166051 -0.00323634 -0.0135932 0.0129343
internal_weight=549.103 192.979 356.124 293.582 87.5463 206.035 62.5424 159.756 135.33 33.2229 41.6218
internal_count=2208 775 1433 1181 352 829 252 641 543 134 168
is_linear=0
shrinkage=0.02


Tree=25
num_leaves=14
num_cat=0
split_feature=39 32 3 15 26 18 31 35 37 26 17 31 0
split_gain=11.6575 13.8394 8.52799 7.46994 6.94164 7.30097 5.94173 8.62631 6.44412 6.01104 5.87359 2.21938 0.284121
threshold=0.97611351950000014 0.42500000000000004 0.016468608500000006 -0.91450471099999986 0.012575731000000001 3.5000000000000004 43.833165505000004 40.419961810000011 13.138465360000001 0.040109597000000004 -11.864287934999998 31.231722020000003 -0.56474114549999987
decision_type=2 2 2 2 2 2 2 2 2 2 2 2 2
left_child=6 4 -3 -4 10 -6 7 12 -8 -10 -2 -9 -1
right_child=1 2 3 -5 5 -7 8 11 9 -11 -12 -13 -14
leaf_value=0.0085897196799600926 -0.0041261830554787677 0.013044412907555656 -0.0055877153625893813 0.0028040269882576656 -0.0070121897012734337 0.0051888481548668331 0.0085153711644515746 0.0072208195985619993 -0.0051114882477421306 0.007968127717122497 -0.016423065894730773 -0.00052870253241934801 0.019250193985221185
leaf_weight=17.677911877632141 36.90898834168911 19.923447400331497 63.593367338180542 117.63651540875435 46.103237092494965 29.735124081373215 28.490782499313354 19.411007016897202 63.744742631912231 15.108255073428152 38.578104317188263 34.348225295543671 17.744390547275543
leaf_count=72 149 80 255 472 185 119 115 78 256 61 156 138 72
internal_value=3.58056e-05 -0.00210077 0.00125484 -6.03234e-05 -0.00664993 -0.00196099 0.00395117 0.00772633 0.000547883 -0.00222296 -0.0109304 0.00206939 0.0152078
internal_weight=549.004 352.479 201.153 181.23 151.325 75.8384 196.525 89.1815 107.344 78.853 75.4871 53.7592 35.4223
internal_count=2208 1416 807 727 609 304 792 360 432 317 305 216 144
is_linear=0
shrinkage=0.02


Tree=26
num_leaves=14
num_cat=0
split_feature=39 22 22 39 28 36 23 25 38 31 8 9 9
split_gain=11.4395 9.3487 7.72597 10.2676 7.21954 7.01178 6.88748 6.4785 6.12722 4.02984 3.91319 3.75401 3.81131
threshold=0.98962529300000013 0.54500000000000015 0.28500000000000009 0.96992116700000008 -0.51536223099999989 222.48544175000004 1.0029998400000004 -49.08557145999999 1.5000000000000002 43.415556795000008 -0.037460791999999993 29.777106320000005 20.673484605000002
decision_type=2 2 2 2 2 2 2 2 2 2 2 2 2
left_child=2 4 3 9 -2 10 -7 -5 -6 -1 -4 12 -3
right_child=1 11 5 7 8 6 -8 -9 -10 -11 -12 -13 -14
leaf_value=0.0089147663580957503 0.0020181970681675465 -0.00028870346676939561 0.0027469179090383552 0 -0.013860309237917017 0.0046957805608502249 -0.0035896618554254068 -0.013740861678335247 -0.0028804629177681773 -0.00076635234527731985 0.01525686783701405 -0.0035191663865103413 0.010443569173259133
leaf_weight=28.029881909489632 23.147338643670082 19.670557856559753 22.382586628198624 24.584159806370735 56.642093434929848 134.23017141222954 52.549017712473869 31.528658330440521 41.295255109667778 31.864521652460098 30.75761242210865 27.952794164419174 24.1645477861166
leaf_count=113 93 79 90 99 228 541 211 127 166 128 124 112 97
internal_value=3.82873e-05 -0.00382388 0.0021967 -0.00190151 -0.00720444 0.0042603 0.00224545 -0.00802145 -0.00958108 0.00358283 0.0106412 0.00164778 0.00538877
internal_weight=548.799 192.873 355.927 116.007 121.085 239.919 186.779 56.1128 97.9373 59.8944 53.1402 71.7879 43.8351
internal_count=2208 775 1433 467 487 966 752 226 394 241 214 288 176
is_linear=0
shrinkage=0.02


Tree=27
num_leaves=14
num_cat=0
split_feature=39 26 2 39 37 30 30 2 11 9 9 12 39
split_gain=11.008 9.20493 7.78185 7.0317 6.25493 10.9053 5.49301 4.39711 6.01149 5.43667 4.20495 3.68172 3.29295
threshold=0.98962529300000013 0.0091115580000000022 33.500000000000007 0.96992116700000008 35.514795205000006 -0.00012945249999999999 6.0950000000000009e-06 60.500000000000007 1.2993229560000001 29.777106320000005 40.569359015000011 0.27618869400000007 0.99515374600000006
decision_type=2 2 2 2 2 2 2 2 2 2 2 2 2
left_child=2 12 3 10 6 -6 -4 8 -3 -9 -1 -5 -2
right_child=1 7 4 11 5 -7 -8 9 -10 -11 -12 -13 -14
leaf_value=0.0055386846540003377 -0.019155276519819429 -0.0066772657768588888 0.013763585790646028 -0.00036057186393997161 -0.0057195683190329151 0.0058140798812485643 0.002456770438183627 0.0075321261554592012 0.004826354136998565 -0.0040679611585376354 -0.0047727432641495081 -0.010611689828288525 -0.0040066300517832007
leaf_weight=53.927140310406685 17.260263502597809 80.182651028037071 43.041703596711159 30.03401243686676 47.516095623373985 90.997018754482269 37.653163120150566 35.341805264353752 19.6959408223629 24.463854148983955 18.393350958824158 34.256770938634872 15.876507014036177
leaf_count=217 70 322 174 121 191 366 152 142 79 98 74 138 64
internal_value=3.62774e-05 -0.00375213 0.00215463 -0.00147077 0.00449729 0.0016901 0.00891656 -0.00154891 -0.00416224 0.00248536 0.0025892 -0.00627985 -0.0131076
internal_weight=548.64 192.821 355.819 136.611 219.208 138.513 80.6949 159.684 99.8786 59.8057 72.3205 64.2908 33.1368
internal_count=2208 775 1433 550 883 557 326 641 401 240 291 259 134
is_linear=0
shrinkage=0.02


Tree=28
num_leaves=13
num_cat=0
split_feature=22 13 9 9 40 3 1 36 0 17 25 40
split_gain=10.7357 10.8757 7.81205 7.44093 8.55497 7.17768 6.24161 4.82242 3.02571 2.54371 5.3437 2.01642
threshold=0.67500000000000016 -0.016887021999999998 35.744166175000011 37.721012695000006 22.683485790000002 0.016468608500000006 0.013696247000000002 726.59721525000009 0.032441695000000006 39.0638997 94.068982335000015 18.987614470000004
decision_type=2 2 2 2 2 2 2 2 2 2 2 2
left_child=1 6 9 5 -5 -3 7 -1 -4 11 -11 -2
right_child=2 3 8 4 -6 -7 -8 -9 -10 10 -12 -13
leaf_value=0.0057796103397938225 0.0063594955518024212 0.0059928146450432896 0.0026873639459400246 0.011693125596354362 -0.0027656116019036925 -0.0061239393852909052 0.011628934453231782 -0.0030770969916070791 -0.0084614939528775621 0.010099763046643237 -0.0045548440767588924 0.016537948013482417
leaf_weight=42.318407028913498 33.943360984325409 18.176726773381233 15.346828505396845 23.168185770511627 41.645439594984055 223.44182172417641 27.415870547294617 51.184619680047035 16.480797752737999 18.352660313248634 15.693186625838278 21.309534624218941
leaf_count=171 137 73 62 93 167 899 111 206 66 74 63 86
internal_value=3.22608e-05 -0.0014243 0.00527331 -0.00345648 0.00229876 -0.0050886 0.00353537 0.000759022 -0.00265339 0.00831382 0.00291205 0.011075
internal_weight=548.477 427.351 121.126 306.432 64.8136 241.619 120.919 93.503 31.8276 89.2987 34.0458 55.2529
internal_count=2208 1720 488 1232 260 972 488 377 128 360 137 223
is_linear=0
shrinkage=0.02


Tree=29
num_leaves=13
num_cat=0
split_feature=22 13 31 9 9 3 30 33 20 13 37 26
split_gain=10.3368 10.457 8.10832 7.53566 7.15033 6.91919 5.74913 5.71264 3.69259 2.91187 2.72252 3.70635
threshold=0.67500000000000016 -0.016887021999999998 43.833165505000004 35.744166175000011 37.721012695000006 0.016468608500000006 -0.00018013099999999996 25.267314825000003 58.793270430000007 0.0009574080000000002 34.567224335000006 0.042903983000000007
decision_type=2 2 2 2 2 2 2 2 2 2 2 2
left_child=1 2 7 10 5 -3 -4 -1 -6 -5 -2 -12
right_child=3 4 6 9 8 -7 -8 -9 -10 -11 11 -13
leaf_value=0.0026568124774402099 0.0163683077762155 0.005884412914178321 0.0076950569258156945 0.0026286012679568988 0.0075699409704082241 -0.0060040218498879595 -0.0048557349429152385 0.016644635737269146 -0.0014999405465785328 -0.0082980531729304162 0.0012008296535814733 0.010782277094793451
leaf_weight=32.664098888635635 15.015605151653288 18.178172767162323 18.092348843812943 15.343174353241922 28.173886269330978 223.3870005607605 47.949945092201233 22.16916885972023 36.627878025174141 16.484052494168282 41.470870301127434 32.75035260617733
leaf_count=132 61 73 73 62 113 899 193 90 147 66 167 132
internal_value=3.64282e-05 -0.00139214 0.00347059 0.00518114 -0.00338563 -0.00498631 -0.000998378 0.00905074 0.00225256 -0.00259535 0.00817001 0.00586305
internal_weight=548.307 427.242 120.876 121.064 306.367 241.565 66.0423 54.8333 64.8018 31.8272 89.2368 74.2212
internal_count=2208 1720 488 488 1232 972 266 222 260 128 360 299
is_linear=0
shrinkage=0.02


Tree=30
num_leaves=11
num_cat=0
split_feature=6 23 19 16 33 5 17 31 31 3
split_gain=10.3697 10.3095 8.58588 7.82437 10.2816 7.77001 6.11529 5.8341 6.65353 7.73444
threshold=6.310166928000001 0.98311297800000019 5.3423245165000006 95.296442760000005 26.489775080000005 -82.142857139999975 -13.303552609999999 52.527602835000003 41.721443905000008 0.035856021500000008
decision_type=2 2 2 2 2 2 2 2 2 2
left_child=7 2 5 6 -5 -2 -3 8 -1 -10
right_child=1 3 -4 4 -6 -7 -8 -9 9 -11
leaf_value=0.010861979217118825 -0.0041718238946451529 -0.00058779490490664537 -0.005661513173844117 0.0032756374175507263 -0.012957132933647047 0.0090572111503429021 -0.0078741890323108538 0.015272083845067945 -0.011007653884817127 0.0063589515079633466
leaf_weight=22.803440451622009 18.882465273141861 79.940699979662895 27.309295296669006 109.66579478979111 15.95693166553974 82.986482918262482 133.07927469909191 21.561577200889587 18.61295759677887 17.33522167801857
leaf_count=92 76 322 110 441 64 336 535 87 75 70
internal_value=4.23353e-05 -0.00106851 0.00363389 -0.0029318 0.000886255 0.00637941 -0.00526372 0.0066247 0.00272365 -0.00221219
internal_weight=548.134 467.821 129.178 338.643 125.623 101.869 213.02 80.3132 58.7516 35.9482
internal_count=2208 1884 522 1362 505 412 857 324 237 145
is_linear=0
shrinkage=0.02


Tree=31
num_leaves=12
num_cat=0
split_feature=23 26 30 33 1 30 2 9 7 19 33
split_gain=9.51894 9.9885 8.6426 8.41831 7.80982 7.96664 7.54536 7.05942 7.6484 5.21964 4.46419
threshold=0.98311297800000019 0.014253725000000002 -0.00084638699999999988 23.301859660000002 0.0054398140000000003 -0.00022767699999999997 42.500000000000007 37.721012695000006 1.0098943785000001 7.9708873115000012 24.402487545000003
decision_type=2 2 2 2 2 2 2 2 2 2 2
left_child=4 7 -3 -4 5 -1 -7 8 -2 10 -6
right_child=1 2 3 -5 9 6 -8 -9 -10 -11 -12
leaf_value=0.01111713370971381 0 -0.010346608967291067 0.010910290311382083 0.00031470387487096105 0.0017623545192947657 -0.010076023123417212 0.0044676910313725515 0.00314706900204696 -0.010828306059304571 -0.00015358775222636063 0.014929229164571707
leaf_weight=15.789549484848974 33.031750589609146 22.680515453219414 34.324952989816666 199.27620421350002 19.036089703440666 33.12006863951683 20.266607627272606 25.4113739579916 86.48711933195591 16.581887036561966 41.998231068253517
leaf_count=64 133 91 138 800 77 133 82 102 350 67 171
internal_value=4.02532e-05 -0.0015186 0.000790991 0.00203589 0.00439846 -0.000233526 -0.00423189 -0.00569397 -0.00775914 0.00868013 0.0113261
internal_weight=548.004 401.212 256.282 233.601 146.792 69.1762 53.3867 144.93 119.519 77.6162 61.0343
internal_count=2208 1614 1029 938 594 279 215 585 483 315 248
is_linear=0
shrinkage=0.02


Tree=32
num_leaves=11
num_cat=0
split_feature=6 23 19 30 16 18 30 21 16 4
split_gain=9.87411 9.56286 8.12327 9.64347 7.44679 7.99735 5.82113 5.11871 4.36629 2.54255
threshold=6.310166928000001 0.98311297800000019 5.3423245165000006 -1.0000000180025095e-35 95.296442760000005 3.5000000000000004 -0.00015918399999999996 -10783807758.499998 99.130912105000007 0.045498028000000003
decision_type=2 2 2 2 2 2 2 2 2 2
left_child=6 2 3 -2 7 -6 -1 -3 9 -8
right_child=1 4 -4 -5 5 -7 8 -9 -10 -11
leaf_value=-0.0021945798544566963 0.012361424272537745 0.0010556086145666554 -0.005542551631574957 0 -0.0032313485559454748 0.0067575814877742502 0.0038423649003862317 -0.0065634319316157609 0.00025405856995996159 0.016808151990448068
leaf_weight=19.090336516499519 49.051764577627182 38.027170285582542 27.309664011001587 52.671723172068596 72.357332170009613 53.242866799235344 15.356496706604956 174.89724752306938 18.863326713442802 26.936389714479446
leaf_count=77 199 153 110 213 291 214 62 704 76 109
internal_value=4.25959e-05 -0.00104067 0.00348852 0.00616604 -0.00283611 0.000885843 0.00646925 -0.0051125 0.00947425 0.0129379
internal_weight=547.804 467.558 129.033 101.723 338.525 125.6 80.2465 212.924 61.1562 42.2929
internal_count=2208 1884 522 412 1362 505 324 857 247 171
is_linear=0
shrinkage=0.02


Tree=33
num_leaves=15
num_cat=0
split_feature=39 6 16 6 22 39 14 37 30 25 6 12 8 8
split_gain=9.79472 8.65472 9.35329 7.0508 6.93299 5.32416 5.16343 4.79474 10.5878 5.37269 4.19048 3.62196 3.48188 3.27976
threshold=0.98962529300000013 10.288489165000003 99.489861690000012 14.446301830000001 0.30500000000000005 0.96992116700000008 -2.7659083964999995 35.514795205000006 -0.00012945249999999999 -102.10544574999999 15.474016850000003 -0.062619457999999989 -0.06106520549999999 0.0018157100000000001
decision_type=2 2 2 2 2 2 2 2 2 2 2 2 2 2
left_child=3 11 4 7 -3 13 -7 9 -9 -1 -4 12 -2 -5
right_child=1 2 10 5 -6 6 -8 8 -10 -11 -12 -13 -14 -15
leaf_value=0.00096353983448461706 0.0052755903694097243 -0.002160920610912749 0.0080110647130237061 0.0065863105099304301 -0.014564282287938074 0.0036315781304983052 -0.0084879412588175704 -0.0055297891571979155 0.0059382234010795691 0.012394538450942114 -0.0050968941130047872 0.0080045798552551978 -0.0053348603903550975 -0.001367942130924562
leaf_weight=31.13376958668232 16.945191398262978 33.906347304582596 18.672741338610649 34.687253892421722 54.118626371026039 15.128067016601561 51.54779177904129 46.722535952925682 88.625410988926888 47.838089287281036 15.116771996021269 23.35596652328968 30.403237000107765 39.462197154760361
leaf_count=126 68 137 75 140 218 61 208 188 357 194 61 94 122 159
internal_value=4.45286e-05 -0.00352925 -0.00675648 0.00204674 -0.0101629 -0.00131204 -0.00542124 0.0043379 0.00181094 0.00827011 0.00163088 0.00178867 -0.00107237 0.00216569
internal_weight=547.664 192.519 121.814 355.145 88.025 140.825 66.6759 214.32 135.348 78.9719 33.7895 70.7044 47.3484 74.1495
internal_count=2208 775 491 1433 355 568 269 865 545 320 136 284 190 299
is_linear=0
shrinkage=0.02


Tree=34
num_leaves=11
num_cat=0
split_feature=6 23 19 30 16 33 30 21 16 4
split_gain=9.3528 8.93466 7.79151 9.35281 7.03761 9.91535 5.53 4.87396 4.18015 2.45519
threshold=6.310166928000001 0.98311297800000019 5.3423245165000006 -1.0000000180025095e-35 95.296442760000005 26.489775080000005 -0.00015918399999999996 -10783807758.499998 99.130912105000007 0.045498028000000003
decision_type=2 2 2 2 2 2 2 2 2 2
left_child=6 2 3 -2 7 -6 -1 -3 9 -8
right_child=1 4 -4 -5 5 -7 8 -9 -10 -11
leaf_value=-0.0021199663768281317 0.01210323598120946 0.0010496610016536877 -0.0054691114207323158 0 0.0032187564205236776 -0.012723462771137169 0.0036833020285633412 -0.0063770637175471845 0.00020016374647640052 0.016435217054514905
leaf_weight=19.092416495084763 48.971503585577011 38.019507572054863 27.308101832866669 52.646795570850372 109.62491966784 15.951167300343512 15.343236938118933 174.80796502530575 18.857706516981125 26.874713346362114
leaf_count=77 199 153 110 213 441 64 62 704 76 109
internal_value=4.42564e-05 -0.00100906 0.00336856 0.00599626 -0.00274561 0.000869226 0.00630296 -0.00495983 0.0092368 0.0126293
internal_weight=547.498 467.33 128.926 101.618 338.404 125.576 80.1681 212.827 61.0757 42.218
internal_count=2208 1884 522 412 1362 505 324 857 247 171
is_linear=0
shrinkage=0.02


Tree=35
num_leaves=10
num_cat=0
split_feature=6 23 19 5 3 36 28 2 9
split_gain=9.02164 8.58571 7.51012 7.35824 7.22759 8.40239 5.81616 3.55339 1.50132
threshold=6.310166928000001 0.98311297800000019 5.3423245165000006 -82.142857139999975 0.016468608500000006 870.24603980000018 0.84425447100000006 82.500000000000014 23.588473650000005
decision_type=2 2 2 2 2 2 2 2 2
left_child=6 2 3 -2 -3 -6 7 8 -1
right_child=1 4 -4 -5 5 -7 -8 -9 -10
leaf_value=0.0048454843519344882 -0.0043709783781621303 0.0070589715808272559 -0.0053662330622508874 0.0085088444824864325 -0.0013112596728670481 -0.0085979366884748453 -0.002827090957379937 0.00093148756604793373 0.01589052375707458
leaf_weight=16.786315590143204 18.859219759702682 24.876479953527451 27.313293725252151 82.69432021677494 220.86266289651394 92.628502249717712 17.83250130712986 20.249804824590683 25.248589783906937
leaf_count=68 76 100 110 336 889 373 72 82 102
internal_value=4.50231e-05 -0.000988731 0.00330239 0.00588561 -0.00269156 -0.00356853 0.00619456 0.00909623 0.0123544
internal_weight=547.352 467.234 128.867 101.554 338.368 313.491 80.1172 62.2847 42.0349
internal_count=2208 1884 522 412 1362 1262 324 252 170
is_linear=0
shrinkage=0.02


Tree=36
num_leaves=13
num_cat=0
split_feature=22 13 31 3 28 30 30 0 28 0 19 12
split_gain=8.68022 8.13602 7.93431 6.49429 6.08221 5.7725 5.26861 5.26519 4.20997 4.1538 2.91013 2.59928
threshold=0.67500000000000016 -0.016887021999999998 43.833165505000004 0.016468608500000006 -0.95770988099999987 0.00011568800000000001 -0.00018013099999999996 -0.60655743549999996 0.41018788250000005 0.055172837000000009 1.2790887610000001 -0.51808609299999986
decision_type=2 2 2 2 2 2 2 2 2 2 2 2
left_child=1 2 7 -3 -5 8 -4 -1 11 -7 -10 -2
right_child=5 3 6 4 -6 9 -8 -9 10 -11 -12 -13
leaf_value=0.0026415658783949703 0 0.0064788486669183666 0.0069103996184800799 0.0065799110183545851 -0.0047175784470177406 0.019103781593029313 -0.0050779256649672345 0.016220076987183082 0.0012815141749955297 0.0032397812059625948 -0.0084556518853242165 0.0094000800192255481
leaf_weight=33.767210856080055 15.850384935736654 23.143362060189247 17.995681449770927 17.380817323923111 265.45447365939617 15.251223459839819 47.855914101004601 20.87413290143013 25.231535866856575 18.365887552499771 17.376884251832962 28.658886536955833
leaf_count=137 64 93 73 70 1069 62 193 85 102 74 70 116
internal_value=4.45009e-05 -0.00126216 0.00302479 -0.00302395 -0.00391178 0.00476832 -0.00139992 0.00857151 0.00167973 0.011667 -0.00244229 0.00599107
internal_weight=547.206 426.472 120.493 305.979 282.835 120.735 65.8516 54.6413 87.1177 33.6171 42.6084 44.5093
internal_count=2208 1720 488 1232 1139 488 266 222 352 136 172 180
is_linear=0
shrinkage=0.02


Tree=37
num_leaves=11
num_cat=0
split_feature=6 23 19 30 26 40 30 7 33 7
split_gain=8.47439 7.95297 7.21735 8.93465 5.3428 9.01652 5.26231 4.58003 2.67447 2.12116
threshold=6.310166928000001 0.98311297800000019 5.3423245165000006 -1.0000000180025095e-35 0.018202275000000004 29.285491135000004 -0.00015918399999999996 1.0256917265000001 26.950603845000003 1.0200676200000003
decision_type=2 2 2 2 2 2 2 2 2 2
left_child=6 2 3 -2 7 -6 -1 -3 9 -8
right_child=1 4 -4 -5 5 -7 8 -9 -10 -11
leaf_value=-0.0021836968675669529 0.011696996683094232 -0.0017349171719772195 -0.0053125379480885434 0 0.0019456723195718784 -0.013396702843886108 0.0036033561346870335 -0.0083340529068077606 0.0012247708322760886 0.015474336344483199
leaf_weight=19.08404153585434 48.837948366999626 104.88525971770287 27.30758398771286 52.59991866350174 134.80675671994686 15.218814700841902 16.248375192284584 83.351776450872421 19.046949952840805 25.654893323779106
leaf_count=77 199 423 110 213 541 61 66 337 77 104
internal_value=5.0852e-05 -0.000949905 0.0031798 0.00571785 -0.00258993 0.000101995 0.00601496 -0.00481906 0.00888757 0.0117006
internal_weight=547.042 467.008 128.745 101.438 338.263 150.026 80.0343 188.237 60.9502 41.9033
internal_count=2208 1884 522 412 1362 602 324 760 247 170
is_linear=0
shrinkage=0.02


Tree=38
num_leaves=12
num_cat=0
split_feature=6 13 31 25 16 18 31 31 27 0 16
split_gain=8.18188 7.64837 7.18795 6.68764 6.63515 7.70598 5.6556 6.47266 4.89067 4.11865 2.57221
threshold=6.310166928000001 -0.016887021999999998 43.833165505000004 25.027077965000004 95.296442760000005 3.5000000000000004 52.527602835000003 41.721443905000008 -25.584528069999994 -0.60655743549999996 73.440467895000026
decision_type=2 2 2 2 2 2 2 2 2 2 2
left_child=6 2 9 -4 8 -6 7 -1 -3 -2 -9
right_child=1 4 3 -5 5 -7 -8 10 -10 -11 -12
leaf_value=0.010190180323360125 0.003022340038203496 -0.0014211488200373335 0.0021509472791506525 -0.011802674962379536 -0.003072799671121939 0.0067282627451037092 0.014399935599623739 0.0012201038777547746 -0.0077717189981331113 0.015060188824548579 -0.0084872813872679063
leaf_weight=22.713887974619865 34.950991228222847 107.56218872964382 56.266263544559479 15.653836101293562 72.311923667788506 53.218297332525253 21.4415183365345 19.977340996265411 105.10258297622204 21.810145154595375 15.85185758769512
leaf_count=92 142 434 228 63 291 214 87 81 423 89 64
internal_value=4.92426e-05 -0.000933442 0.0031162 -0.000852743 -0.00254236 0.00096587 0.00591204 0.00209999 -0.00469604 0.00834333 -0.00276768
internal_weight=546.861 466.876 128.681 71.9201 338.195 125.53 79.9846 58.5431 212.665 56.7611 35.8292
internal_count=2208 1884 522 291 1362 505 324 237 857 231 145
is_linear=0
shrinkage=0.02


Tree=39
num_leaves=13
num_cat=0
split_feature=32 0 10 31 26 9 24 31 19 22 4 26
split_gain=7.92954 8.52465 7.28356 5.72913 5.71847 5.63565 4.87226 4.7942 4.353 3.46434 3.35006 0.517018
threshold=0.6150000000000001 0.31673296850000004 6.5000000000000009 43.108480050000004 0.008998098500000001 21.67729263 2747996.9435000005 42.238786895000011 3.0048247985000005 0.72500000000000009 0.036988579500000007 0.039566322500000008
decision_type=2 2 2 2 2 2 2 2 2 2 2 2
left_child=1 3 11 10 -3 -6 7 -4 -5 -8 -1 -2
right_child=2 4 6 8 5 -7 9 -9 -10 -11 -12 -13
leaf_value=0.0089464458964030932 0.0058926417816099743 -0.012771521984560512 0.0061455603228298171 0.00034548049992626619 0.0067620266171837945 -0.0050309652242054234 0.01316161216298414 -0.0045584593721641449 -0.0066842254974326873 0.0012281253817554658 0.0010048392247558981 0.016609254078021787
leaf_weight=38.733002990484238 14.86299902200699 32.172013759613037 20.515591114759445 115.02228811383247 16.866288304328918 84.9875128865242 17.77966471016407 56.514083027839661 45.947220474481583 28.679412215948105 59.849294602870941 14.778310015797613
leaf_count=157 60 131 83 464 68 342 72 228 185 116 242 60
internal_value=5.04964e-05 -0.00141561 0.00391729 0.000636597 -0.00548782 -0.00279293 0.00151127 -0.00137117 -0.00159577 0.00656245 0.00443979 0.0125798
internal_weight=546.708 393.578 153.13 259.552 134.026 101.854 123.489 77.0297 160.97 46.4591 98.5823 29.6413
internal_count=2208 1589 619 1048 541 410 499 311 649 188 399 120
is_linear=0
shrinkage=0.02


Tree=40
num_leaves=15
num_cat=0
split_feature=39 6 16 22 2 39 14 37 30 25 6 27 31 36
split_gain=8.62431 7.5074 8.61 6.84096 6.53745 5.54976 6.15319 5.37865 9.9034 6.37713 4.03254 3.8384 2.93321 2.90401
threshold=0.98962529300000013 10.288489165000003 99.489861690000012 0.30500000000000005 33.500000000000007 0.96992116700000008 -2.7659083964999995 35.514795205000006 -0.00012945249999999999 -102.10544574999999 15.474016850000003 -6.2026257449999989 36.39516578500001 877.13513970000008
decision_type=2 2 2 2 2 2 2 2 2 2 2 2 2 2
left_child=4 11 3 -3 5 12 -7 9 -9 -6 -4 -2 -1 -13
right_child=1 2 10 -5 7 6 -8 8 -10 -11 -12 13 -14 -15
leaf_value=0.0085836571794186429 0.0095728287732051373 -0.0016820703079897868 0.0079713353392603086 -0.01394882538784715 0.00039572299143548969 0.0043305392704072933 -0.0091306010051118835 -0.0055801713229075697 0.0054257759126240925 0.012600406203839815 -0.0048706406692117102 0.0020273037981785062 0 -0.0074125561942898948
leaf_weight=18.825090378522873 16.595918327569962 33.822216987609863 18.666003555059433 53.989610344171524 31.294566690921783 14.855079010128973 49.19379511475563 47.425089940428734 90.676722690463066 48.893132671713829 15.094437688589094 37.319332614541054 53.227747887372971 16.689569130539894
leaf_count=76 67 137 75 218 127 60 199 191 366 199 61 150 215 67
internal_value=5.46834e-05 -0.00329895 -0.00631023 -0.00958944 0.00193769 -0.00138242 -0.00566911 0.00409231 0.0014778 0.00820621 0.00171907 0.00164163 0.0022082 -0.000693198
internal_weight=546.568 192.177 121.572 87.8118 354.391 136.102 64.0489 218.29 138.102 80.1877 33.7604 70.6048 72.0528 54.0089
internal_count=2208 775 491 355 1433 550 259 883 557 326 136 284 291 217
is_linear=0
shrinkage=0.02


Tree=41
num_leaves=11
num_cat=0
split_feature=39 26 15 2 37 20 40 36 6 39
split_gain=8.30227 7.82883 6.50318 4.95634 6.88079 5.43424 4.34835 12.1351 5.39902 3.35256
threshold=0.98962529300000013 0.0091115580000000022 -2.7779425449999997 20.500000000000004 31.224231505000002 36.391905920000006 21.241479280000004 870.24603980000018 8.115864246500001 0.99515374600000006
decision_type=2 2 2 2 2 2 2 2 2 2
left_child=2 9 -1 5 -5 -4 7 -3 -8 -2
right_child=1 6 3 4 -6 -7 8 -9 -10 -11
leaf_value=-0.0066130734590553472 -0.01789903392952737 0.0072912406060051714 -0.010412534799120542 0.007820433097416821 0.0012261946327926567 0.0038286585497297873 0.0022360971491234586 -0.0084207859455919919 -0.0083461573395753972 -0.00298362624023992
leaf_weight=29.504257559776306 17.086169824004173 55.387817338109016 20.550287306308746 103.10389097034931 184.81543071568012 16.29599004983902 25.135991007089615 27.273719921708107 51.442675650119781 15.777792975306509
leaf_count=119 70 223 83 419 746 66 101 110 207 64
internal_value=5.43892e-05 -0.00323593 0.00190287 0.00277347 0.00369423 -0.00372639 -0.00119971 0.00179445 -0.00464964 -0.0118938
internal_weight=546.374 192.104 354.27 324.766 287.919 36.8463 159.24 82.6615 76.5787 32.864
internal_count=2208 775 1433 1314 1165 149 641 333 308 134
is_linear=0
shrinkage=0.02


Tree=42
num_leaves=14
num_cat=0
split_feature=39 6 16 22 6 1 13 31 10 9 6 13 4
split_gain=7.99934 7.09083 8.22606 6.59905 6.07052 4.734 5.9884 4.61059 7.04491 4.14896 3.85827 3.55036 2.74659
threshold=0.98962529300000013 10.288489165000003 99.489861690000012 0.30500000000000005 14.446301830000001 0.0029810420000000006 0.0030322655000000003 56.265855660000007 6.5000000000000009 29.777106320000005 15.474016850000003 0.030232979000000004 0.045165552000000005
decision_type=2 2 2 2 2 2 2 2 2 2 2 2 2
left_child=4 9 3 -3 5 12 -7 8 -6 11 -4 -2 -1
right_child=1 2 10 -5 7 6 -8 -9 -10 -11 -12 -13 -14
leaf_value=-0.0076531889437600822 0 -0.0015510689128187653 0.0078455218519939158 -0.013603320500040633 0.0098461910957762921 0.0079337005922523046 0 -0.0098989444811269454 -0.0020892952883378867 -0.003773113728004152 -0.0047047171194999661 0.011744188715673991 0.0028035414729212569
leaf_weight=18.056732594966888 23.824308648705482 33.792984530329704 18.664920344948769 53.912283092737198 22.534591317176819 117.5352359265089 63.103666380047798 19.075793072581291 98.877396613359451 28.16815522313118 15.080613881349562 18.588517606258392 15.016151279211043
leaf_count=73 96 137 75 218 91 477 254 77 400 113 61 75 61
internal_value=4.94929e-05 -0.00318031 -0.00611047 -0.00932064 0.00186472 0.00399622 0.00529912 -0.00124796 8.75896e-05 0.0016156 0.00172798 0.00565355 -0.00244612
internal_weight=546.231 192.032 121.451 87.7053 354.2 213.712 180.639 140.488 121.412 70.581 33.7455 42.4128 33.0729
internal_count=2208 775 491 355 1433 865 731 568 491 284 136 171 134
is_linear=0
shrinkage=0.02


Tree=43
num_leaves=14
num_cat=0
split_feature=39 6 16 27 6 1 13 19 10 6 27 36 4
split_gain=7.69148 6.83554 7.92462 6.29977 5.84268 4.55468 5.75163 4.52454 5.07701 3.7242 3.71843 2.70458 2.65233
threshold=0.98962529300000013 10.288489165000003 99.489861690000012 -141.69218549999997 14.446301830000001 0.0029810420000000006 0.0030322655000000003 -34.276430039999994 6.5000000000000009 15.474016850000003 -6.2026257449999989 877.13513970000008 0.045165552000000005
decision_type=2 2 2 2 2 2 2 2 2 2 2 2 2
left_child=4 10 3 -3 5 12 -7 -6 -9 -4 -2 -12 -1
right_child=1 2 9 -5 7 6 -8 8 -10 -11 11 -13 -14
leaf_value=-0.0075124075303021941 0.0093994832070719708 0 0.0077030259703296565 -0.012221787000470601 0.0076914944037292238 0.0077826355200573119 0 0.0043736673901853132 -0.0049191718501376668 -0.0046232276073040054 0.0019042504126865745 -0.0071944732435129926 0.0027547623574913837
leaf_weight=18.064609244465828 16.581021934747696 22.510363504290581 18.666968300938606 65.134273737668991 16.771196991205215 117.45990692079067 63.103666380047798 27.003894180059433 96.711838290095329 15.074808344244955 37.297945871949196 16.689589664340019 15.011862397193907
leaf_count=73 67 91 75 264 68 477 254 109 391 61 150 67 61
internal_value=4.71496e-05 -0.0031199 -0.00599859 -0.00915171 0.00182789 0.00392001 0.00519918 -0.00122361 -0.00269439 0.00168591 0.00158503 -0.000707812 -0.00239106
internal_weight=546.082 191.955 121.386 87.6446 354.127 213.64 180.564 140.487 123.716 33.7418 70.5686 53.9875 33.0765
internal_count=2208 775 491 355 1433 865 731 568 500 136 284 217 134
is_linear=0
shrinkage=0.02


Tree=44
num_leaves=11
num_cat=0
split_feature=6 13 19 30 28 33 24 20 2 33
split_gain=7.15197 6.62858 6.76141 8.70394 5.40509 4.91622 8.69552 4.02289 3.42063 5.2905
threshold=6.310166928000001 -0.016887021999999998 5.6609366285000009 -0.00032539949999999999 0.84425447100000006 24.684661260000002 17715044.945000004 80.810260430000014 82.500000000000014 24.805488170000004
decision_type=2 2 2 2 2 2 2 2 2 2
left_child=4 2 3 -2 8 6 -3 -7 9 -1
right_child=1 5 -4 -5 -6 7 -8 -9 -10 -11
leaf_value=0.0018796392746563805 0.016061563832061251 -0.0024571982295100094 -0.0054100692914329437 0.0018347486094134771 -0.0031423758675728853 -0.0026589666257792167 0.0081270140337506569 -0.010065898438266711 0.00041998898009368437 0.017619976812226538
leaf_weight=18.417664185166359 21.903462171554565 126.49722424149513 26.762990385293961 79.751093104481697 17.789091303944588 129.35567805171013 38.914960116147995 42.947568848729134 20.173657238483429 23.393901154398918
leaf_count=75 90 511 108 324 72 521 157 173 82 95
internal_value=4.8039e-05 -0.00086861 0.00290076 0.0053439 0.00553897 -0.00236944 0 -0.00471424 0.00836334 0.0115453
internal_weight=545.907 466.133 128.418 101.655 79.7743 337.715 165.412 172.303 61.9852 41.8116
internal_count=2208 1884 522 414 324 1362 668 694 252 170
is_linear=0
shrinkage=0.02


Tree=45
num_leaves=12
num_cat=0
split_feature=39 26 26 29 40 4 30 10 3 39 17
split_gain=7.29461 7.37187 6.12323 7.19538 6.77488 5.33303 4.95478 4.59277 4.19009 3.2484 3.07573
threshold=0.98962529300000013 0.0091115580000000022 0.038518465500000008 66.300352825000019 22.037031755000005 0.07853810750000001 -0.00027019349999999996 25.500000000000004 0.019427238500000003 0.99515374600000006 30.545364000000003
decision_type=2 2 2 2 2 2 2 2 2 2 2
left_child=2 9 3 5 -5 -1 -4 8 -3 -2 -8
right_child=1 7 6 4 -6 -7 10 -9 -10 -11 -12
leaf_value=0.0039858127727760428 -0.01735648227630554 0.0050777709713401347 -0.00035320688120291701 0.00039822839320804364 -0.010308851705583435 -0.0046963049561986204 0.016155349515328023 0.0063911543328013711 -0.0041922932868941757 -0.0027066675335666152 0.0036200536661247598
leaf_weight=174.83145235478878 16.99928030371666 19.872191354632378 18.213088735938072 49.041637614369392 38.142388686537743 29.992953822016716 22.604289397597313 24.336840227246284 114.87107585370541 15.747778505086897 21.105886861681938
leaf_count=708 70 80 74 198 154 121 92 98 463 64 86
internal_value=4.87399e-05 -0.00303554 0.00178424 0.000479825 -0.00418792 0.00258465 0.00741508 -0.00105893 -0.0026246 -0.0114484 0.0109633
internal_weight=545.759 191.827 353.932 292.008 87.184 204.824 61.9233 159.08 134.743 32.7471 43.7102
internal_count=2208 775 1433 1181 352 829 252 641 543 134 178
is_linear=0
shrinkage=0.02


Tree=46
num_leaves=10
num_cat=0
split_feature=39 26 15 10 12 12 39 37 39
split_gain=7.01868 7.14981 6.10449 4.41899 4.24233 6.68415 6.41717 4.23073 3.13102
threshold=0.98962529300000013 0.0091115580000000022 -2.8640135764999992 25.500000000000004 -0.76876893149999981 0.042104989000000002 0.97914285050000005 97.229299525000002 0.99515374600000006
decision_type=2 2 2 2 2 2 2 2 2
left_child=2 8 -1 7 6 -6 -4 -3 -2
right_child=1 3 4 -5 5 -7 -8 -9 -10
leaf_value=-0.0078064925187531766 -0.017088941820778632 -0.00093541518069427539 0.0026068844846159058 0.0062727832567853982 0.0076158769492689106 0.00079426604122025926 -0.0084619807167247707 -0.011338864778466356 -0.002659360227325192
leaf_weight=22.047850221395493 16.951897487044334 117.36382381618023 55.504511475563049 24.33789798617363 105.40814658999443 140.87963296473026 30.018751382827759 17.369494497776031 15.742983967065809
leaf_count=89 70 473 226 98 427 570 121 70 64
internal_value=4.67548e-05 -0.00297846 0.00174993 -0.00103104 0.00248781 0.00383221 -0.00115437 -0.00256911 -0.0112712
internal_weight=545.625 191.766 353.859 159.071 331.811 246.288 85.5233 134.733 32.6949
internal_count=2208 775 1433 641 1344 997 347 543 134
is_linear=0
shrinkage=0.02


Tree=47
num_leaves=14
num_cat=0
split_feature=39 32 38 16 2 31 39 24 17 37 0 3 12
split_gain=6.76812 6.43525 7.43223 6.41287 5.52028 5.30914 5.20055 5.14511 4.92694 8.54011 6.15704 3.66245 3.57788
threshold=0.98962529300000013 0.42500000000000004 3.5000000000000004 95.296442760000005 33.500000000000007 41.355463610000008 0.96992116700000008 572016.06715000013 30.545364000000003 39.541419740000002 -0.43027308549999993 0.046240879500000005 0.27618869400000007
decision_type=2 2 2 2 2 2 2 2 2 2 2 2 2
left_child=4 2 3 -2 6 -3 11 -7 10 -10 -6 -1 -8
right_child=1 5 -4 -5 8 7 12 -9 9 -11 -12 -13 -14
leaf_value=-0.0023371177382276679 -0.014948650324589918 0.0074746265423403955 0.0036675136251380549 -0.0013154508349411973 0.00030925939804199719 -0.0062488818196427031 0 0.0037570913808600771 0.00859383393155831 -0.0057237190225666026 0.0089747016155710575 0.0062386180569558658 -0.0097336104081032007
leaf_weight=32.473932012915611 40.378914952278137 28.101686373353004 16.849966570734978 26.21018011868 58.827531471848488 50.685332149267197 29.929463341832161 29.484445750713348 23.442371532320976 45.371421217918396 90.163314029574394 39.522670820355415 34.052455693483353
leaf_count=131 165 113 68 106 240 204 121 119 96 183 364 160 138
internal_value=4.13643e-05 -0.00292922 -0.00703992 -0.0100689 0.00171471 0.000127543 -0.00132912 -0.00232366 0.00370082 -0.000458854 0.00573511 0.00214164 -0.0054843
internal_weight=545.494 191.711 83.4391 66.5891 353.783 108.271 135.979 80.1698 217.805 68.8138 148.991 71.9966 63.9819
internal_count=2208 775 339 271 1433 436 550 323 883 279 604 291 259
is_linear=0
shrinkage=0.02


Tree=48
num_leaves=12
num_cat=0
split_feature=6 13 31 38 39 1 31 31 1 37 16
split_gain=6.67453 6.1044 9.15379 6.35284 6.91986 6.0787 5.67787 6.05274 4.48896 2.71375 2.50681
threshold=6.310166928000001 0.0115499125 54.693367750000007 1.5000000000000002 0.97868516200000011 0.011280260000000002 52.527602835000003 41.721443905000008 0.012517001500000001 95.064013490000022 73.440467895000026
decision_type=2 2 2 2 2 2 2 2 2 2 2
left_child=6 2 5 4 -3 -2 7 -1 -4 -5 -9
right_child=1 3 8 9 -6 -7 -8 10 -10 -11 -12
leaf_value=0.0094531356696085297 0 0.0036396646015739715 -0.0018786547671589173 0.0041051280471504845 -0.0095059817352584272 0.0065043204943841674 0.013827634603687237 0.00079400201861525997 -0.014214440236809045 -0.004727797754225398 -0.0087349037200317101
leaf_weight=22.592138797044754 153.70818184316158 16.173559248447418 46.238236263394356 39.115784645080566 82.415857285261154 93.040952280163765 21.332013636827469 19.907626986503601 17.113205820322037 17.853489190340042 15.819248706102369
leaf_count=92 622 65 187 158 334 377 87 81 69 72 64
internal_value=4.0044e-05 -0.000844478 0.000725598 -0.00407079 -0.00712113 0.00252771 0.00535014 0.001562 -0.00585001 0.000931371 -0.0031345
internal_weight=545.31 465.659 310.101 155.559 98.5894 246.749 79.651 58.319 63.3514 56.9693 35.7269
internal_count=2208 1884 1255 629 399 999 324 237 256 230 145
is_linear=0
shrinkage=0.02


Tree=49
num_leaves=11
num_cat=0
split_feature=6 23 0 5 31 31 36 40 27 26
split_gain=6.44258 5.94385 6.77908 6.81994 5.47811 5.83404 5.09571 11.5283 6.79798 2.99742
threshold=6.310166928000001 0.98311297800000019 -0.41134989149999995 -82.142857139999975 52.527602835000003 41.721443905000008 870.24603980000018 21.417203825000005 -21.118338689999998 0.052132094000000004
decision_type=2 2 2 2 2 2 2 2 2 2
left_child=4 2 3 -2 5 -1 7 -3 -8 -7
right_child=1 6 -4 -5 -6 9 8 -9 -10 -11
leaf_value=0.0092890744886611337 -0.010232354370814581 0.003933163089041381 0.014362049042241346 0.0029715477210232061 0.013596605030192093 -0.0086102644783521958 -0.00071103109252829784 -0.0049190936880641155 -0.011160254269777334 0.0018660117662057166
leaf_weight=22.566910192370415 16.356918156147003 113.72836641967297 15.58493050932884 96.284959763288498 21.294948861002922 18.04103110730648 57.570310100913048 116.68126684427261 49.366395816206932 17.695670083165169
leaf_count=92 66 459 64 392 87 73 233 471 199 72
internal_value=3.95951e-05 -0.000828671 0.00273968 0.00073467 0.00525904 0.00153221 -0.00225211 -0.000467389 -0.00583475 -0.0030688
internal_weight=545.172 465.573 128.227 112.642 79.5986 58.3036 337.346 230.41 106.937 35.7367
internal_count=2208 1884 522 458 324 237 1362 930 432 145
is_linear=0
shrinkage=0.02


Tree=50
num_leaves=10
num_cat=0
split_feature=2 35 28 3 13 9 2 1 36
split_gain=6.35316 8.46738 6.58032 7.38612 9.63406 5.14779 5.33552 5.12925 4.06846
threshold=44.500000000000007 22.187201645000005 -0.31656758149999992 0.016468608500000006 -0.020503789999999997 44.771235350000005 20.500000000000004 0.018490739500000002 464.25011875000001
decision_type=2 2 2 2 2 2 2 2 2
left_child=1 7 -2 -4 -5 6 -3 8 -1
right_child=2 5 3 4 -6 -7 -8 -9 -10
leaf_value=-0.0026898410338558566 0.011556110729894957 -0.0065301524821729405 0.012270150326747218 0.0081617882265472824 -0.0020403176586064487 0.0099619050419014823 0.0016370298024121425 0.0020132767065468267 -0.012466658316185439
leaf_weight=37.155291303992271 25.743637219071388 42.199254468083382 19.589854910969734 44.414720445871353 180.97806124389172 18.857815265655518 109.26246291399002 18.558099508285522 48.271538615226746
leaf_count=151 104 171 79 183 730 76 443 75 196
internal_value=3.95924e-05 -0.00206061 0.00224039 0.00109483 0 0.000587836 -0.00056358 -0.0065165 -0.00860193
internal_weight=545.031 274.304 270.726 244.983 225.393 170.32 151.462 103.985 85.4268
internal_count=2208 1112 1096 992 913 690 614 422 347
is_linear=0
shrinkage=0.02


Tree=51
num_leaves=13
num_cat=0
split_feature=22 9 39 9 38 40 24 40 0 17 25 40
split_gain=6.26734 7.08287 5.99599 7.15592 6.79095 5.51737 4.93214 4.84713 2.33282 2.24736 4.89721 2.40735
threshold=0.67500000000000016 35.744166175000011 0.97611351950000014 37.721012695000006 1.5000000000000002 17.316063410000002 1284652.5520000004 21.615960015000002 0.032441695000000006 39.0638997 94.068982335000015 18.987614470000004
decision_type=2 2 2 2 2 2 2 2 2 2 2 2
left_child=2 9 5 4 -4 -1 -7 -5 -3 11 -11 -2
right_child=1 8 3 7 -6 6 -8 -9 -10 10 -12 -13
leaf_value=-0.0069629469541857385 0.0048374986000805451 0.0011016263343658127 -0.0070642256154566253 0.011773255747486928 0.00018086688391852492 0.00065339178328521839 0.009026669303903374 -0.00028706542006829192 -0.0084617391230023802 0.0090098578926745294 -0.0051294537011491179 0.015202546481220323
leaf_weight=20.513652130961418 33.561804503202438 15.158216878771784 142.91569504141808 16.424014553427696 72.158883988857269 92.634258538484573 42.877794444561005 37.318450108170509 16.45371775329113 18.163830548524857 15.629147827625273 21.08744952082634
leaf_count=83 137 62 579 66 292 376 174 150 66 74 63 86
internal_value=4.11471e-05 0.00407209 -0.00106482 -0.00289746 -0.00456205 0.00196277 0.003541 0.00333002 -0.0034883 0.00701291 0.00199048 0.00958562
internal_weight=544.897 120.054 424.843 268.817 215.075 156.026 135.512 53.7425 31.6119 88.4422 33.793 54.6493
internal_count=2208 488 1720 1087 871 633 550 216 128 360 137 223
is_linear=0
shrinkage=0.02


Tree=52
num_leaves=12
num_cat=0
split_feature=6 21 34 24 31 31 3 32 27 12 7
split_gain=6.07162 5.90727 5.96468 9.86686 5.27229 5.65882 7.36722 3.85267 3.16113 4.99425 1.83675
threshold=6.310166928000001 -10783807758.499998 -15648231801.499998 375971.77915000007 52.527602835000003 41.721443905000008 0.035856021500000008 0.32500000000000007 -40.332124919999991 -0.40780279949999992 1.0241483720000002
decision_type=2 2 2 2 2 2 2 2 2 2 2
left_child=4 8 7 -4 5 -1 -7 -3 10 -10 -2
right_child=1 2 3 -5 -6 6 -8 -9 9 -11 -12
leaf_value=0.0091091786660756364 0.012112421930024125 -0.0018938383539369411 -0.0054702168493095385 0.0011861049829391187 0.013305024044200784 -0.011588467962319911 0.0053278680806377226 0.0095692407964661531 0.0070203629725272675 -0.0075281874983564537 0.0011518608821895395
leaf_weight=22.529735371470451 20.976783603429794 14.795100286602972 207.48309451341629 146.73408605158329 21.236380115151405 18.537547469139099 17.179891467094421 26.415600761771202 17.447511002421379 16.33692729473114 15.039950802922247
leaf_count=92 85 60 840 594 87 75 70 107 71 66 61
internal_value=4.35645e-05 -0.000798277 -0.00178497 -0.00266552 0.00511509 0.00145459 -0.00307048 0.00509384 0.00440685 0 0.00836295
internal_weight=544.713 465.229 395.428 354.217 79.4836 58.2472 35.7174 41.2107 69.8012 33.7844 36.0167
internal_count=2208 1884 1601 1434 324 237 145 167 283 137 146
is_linear=0
shrinkage=0.02


Tree=53
num_leaves=12
num_cat=0
split_feature=39 26 26 21 2 13 10 37 39 1 12
split_gain=6.05629 6.63129 5.5263 5.42611 5.92161 4.808 4.19482 4.21136 3.0714 3.01042 1.34544
threshold=0.98962529300000013 0.0091115580000000022 0.038518465500000008 -7715908098.999999 20.500000000000004 0.0030322655000000003 25.500000000000004 97.229299525000002 0.99515374600000006 0.0055548975000000011 -0.73462047749999992
decision_type=2 2 2 2 2 2 2 2 2 2 2
left_child=2 8 3 9 -5 10 7 -3 -2 -1 -4
right_child=1 6 5 4 -6 -7 -8 -9 -10 -11 -12
leaf_value=-0.000640511969288993 -0.016518065097141068 -0.00076611356001705846 0.0038994686139693707 -0.0092383672682198829 0.000131084285066395 0 0.0062368724463193548 -0.011128836892505701 -0.0023009828396368128 0.0077961406021664608 0.014235739694719623
leaf_weight=18.526397988200188 16.828783735632896 117.19027568399906 16.805532649159431 28.647850766777992 194.37674310803413 20.785387128591537 24.301019445061684 17.34419384598732 15.696107298135756 50.002520367503166 24.095378369092941
leaf_count=75 70 473 69 116 787 84 98 70 64 203 99
internal_value=4.72831e-05 -0.00276318 0.00163308 0.000391334 -0.00105497 0.0069914 -0.000886344 -0.00239201 -0.0107671 0.00527828 0.0108347
internal_weight=544.6 191.36 353.24 291.554 223.025 61.6863 158.835 134.534 32.5249 68.5289 40.9009
internal_count=2208 775 1433 1181 903 252 641 543 134 278 168
is_linear=0
shrinkage=0.02


Tree=54
num_leaves=8
num_cat=0
split_feature=36 24 21 6 29 24 36
split_gain=6.09205 7.30663 8.26266 13.7641 5.77552 4.51551 3.43564
threshold=140.23796560000002 2747996.9435000005 -7715908098.999999 17.735662130000005 47.043343800000009 167082235.85000005 727.56355915000006
decision_type=2 2 2 2 2 2 2
left_child=-1 2 4 -4 -2 6 -3
right_child=1 5 3 -5 -6 -7 -8
leaf_value=0.01060262920790201 0.0081118903246033321 0.008830805956531412 -0.0017221883655002465 -0.015244812129914921 -0.0041075141933865876 -0.0059572742798207033 0.0018628530069634416
leaf_weight=19.137634888291359 46.750919967889786 47.208962976932526 269.15193471312523 32.940356150269508 18.751041948795319 15.747212275862692 94.76907967031002
leaf_count=78 190 192 1090 134 76 64 384
internal_value=4.35604e-05 -0.000341938 -0.00191942 -0.00335304 0.00429953 0.00318733 0.00440915
internal_weight=544.457 525.32 367.594 302.092 65.502 157.725 141.978
internal_count=2208 2130 1490 1224 266 640 576
is_linear=0
shrinkage=0.02


Tree=55
num_leaves=9
num_cat=0
split_feature=36 24 34 16 16 33 33 31
split_gain=5.87619 7.02959 6.74609 7.28604 7.2328 4.64944 11.2254 3.54577
threshold=140.23796560000002 2747996.9435000005 -15648231801.499998 2.5944608900000001 71.688591735000003 24.737049020000004 25.255951665000005 36.087311315000001
decision_type=2 2 2 2 2 2 2 2
left_child=-1 2 4 -4 -2 7 -7 -3
right_child=1 5 3 -5 -6 6 -8 -9
leaf_value=0.010415483048528983 -0.0014114881382473025 0.014268272422266411 0.0016115668260001208 -0.0048503822242906116 0.01372929414227235 -0.013284270721130935 0.0037939102673996473 0.0034767808721435887
leaf_weight=19.127904400229454 24.881516575813293 18.236170634627342 92.92619501054287 230.23585763573647 19.505328759551048 18.062807694077492 63.976089477539062 57.418229877948761
leaf_count=78 101 74 377 933 79 73 260 233
internal_value=4.21355e-05 -0.000335777 -0.00188376 -0.00293224 0.00511589 0.00312541 0 0.00663606
internal_weight=544.37 525.242 367.549 323.162 44.3868 157.693 82.0389 75.6544
internal_count=2208 2130 1490 1310 180 640 333 307
is_linear=0
shrinkage=0.02


Tree=56
num_leaves=8
num_cat=0
split_feature=36 24 21 10 29 24 35
split_gain=5.66409 6.75933 7.875 8.52415 5.56033 4.35228 4.53239
threshold=140.23796560000002 2747996.9435000005 -7715908098.999999 6.5000000000000009 47.043343800000009 167082235.85000005 7.088304420500001
decision_type=2 2 2 2 2 2 2
left_child=-1 2 4 -4 -2 6 -3
right_child=1 5 3 -5 -6 -7 -8
leaf_value=0.010232051182629927 0.0079689967749077308 0.013410321318520296 0.0030548940748142584 -0.0049889411817382236 -0.0040111070651762913 -0.005904165069785282 0.0025962466070877121
leaf_weight=19.117357596755028 46.740899801254272 17.957567408680916 62.673773467540741 239.37573519349098 18.750939890742302 15.748543694615362 123.95562298595905
leaf_count=78 190 73 254 970 76 64 503
internal_value=4.4803e-05 -0.000325486 -0.00184406 -0.00324499 0.00422543 0.0030681 0.00427097
internal_weight=544.32 525.203 367.541 302.05 65.4918 157.662 141.913
internal_count=2208 2130 1490 1224 266 640 576
is_linear=0
shrinkage=0.02


Tree=57
num_leaves=11
num_cat=0
split_feature=39 32 38 16 15 31 15 23 0 0
split_gain=5.87654 5.76645 6.89785 6.22668 5.68941 4.88095 5.81632 4.01166 8.54978 6.79736
threshold=0.98962529300000013 0.42500000000000004 3.5000000000000004 95.296442760000005 -2.8640135764999992 41.355463610000008 -0.87577274649999992 1.0029998400000004 -0.38843792799999993 0.20593900950000002
decision_type=2 2 2 2 2 2 2 2 2 2
left_child=4 2 3 -2 -1 -3 -7 8 -6 -9
right_child=1 5 -4 -5 7 6 -8 9 -10 -11
leaf_value=-0.0076221048583530243 -0.014370902678840095 0.0072172124921930352 0.0036615897755021805 -0.00096368289071484649 0.00049162214005287418 -0.0087213647754334732 0.0018385511135651979 -0.010030918067651979 0.0083969027068299378 0.0019057968183083822
leaf_weight=22.007529303431511 40.159936711192131 28.046697571873665 16.841084405779839 26.148445948958397 143.73748685419559 31.470084026455879 48.57158736884594 23.314119949936867 92.976336091756821 71.003153637051582
leaf_count=89 165 113 68 106 586 127 196 94 377 287
internal_value=4.62862e-05 -0.00272249 -0.00662381 -0.00955963 0.00160932 0.000162842 -0.00218092 0.00232519 0.00372477 -0.000984192
internal_weight=544.276 191.238 83.1495 66.3084 353.039 108.088 80.0417 331.031 236.714 94.3173
internal_count=2208 775 339 271 1433 436 323 1344 963 381
is_linear=0
shrinkage=0.02


Tree=58
num_leaves=12
num_cat=0
split_feature=32 10 27 40 12 12 7 24 13 22 37
split_gain=5.60313 7.17568 6.08808 8.54118 6.47256 14.989 6.60108 4.132 3.87894 3.43171 0.574381
threshold=0.6150000000000001 6.5000000000000009 -212.19211829999998 22.858890985000006 0.042104989000000002 -0.68734901299999984 1.0047631420000003 2747996.9435000005 0.0030322655000000003 0.72500000000000009 71.244376840000015
decision_type=2 2 2 2 2 2 2 2 2 2 2
left_child=2 10 3 -1 5 -4 -6 8 -3 -9 -2
right_child=1 7 4 -5 6 -7 -8 9 -10 -11 -12
leaf_value=0.015271939474250585 0.015894951708780351 0.0023569947410527255 -0.0050915595375877433 -0.0016007848583757132 0.0038807392663963102 0.0061644730230025627 -0.0066829371054782953 0.012151496567764038 -0.0062233023139365773 0.00042376790055408841 0.0053358827437415312
leaf_weight=18.521582260727882 14.635400980710985 38.492593020200729 93.41253724694252 23.76336096227169 24.468391224741936 91.372511029243469 140.33020904660225 17.624697908759117 38.219049826264381 28.498065888881683 14.790840908885
leaf_count=75 60 157 379 96 99 370 570 72 154 116 60
internal_value=4.40216e-05 0.00330967 -0.00118443 0.0056941 -0.00210099 0.000373658 -0.00496687 0.000933549 -0.00171327 0.00563961 0.0119013
internal_weight=544.129 152.261 391.869 42.2849 349.584 184.785 164.799 122.834 76.7116 46.1228 29.4262
internal_count=2208 619 1589 171 1418 749 669 499 311 188 120
is_linear=0
shrinkage=0.02


Tree=59
num_leaves=13
num_cat=0
split_feature=2 35 37 10 33 29 10 19 29 0 15 4
split_gain=5.57548 7.82645 6.68834 6.52246 4.74614 4.66412 4.49662 4.11527 4.10432 3.88258 6.53799 2.42567
threshold=44.500000000000007 22.187201645000005 35.514795205000006 5.5000000000000009 24.060002525000005 59.728391780000003 6.5000000000000009 -33.162973629999989 23.630293110000004 0.62802912700000013 2.0592494310000005 0.03138042550000001
decision_type=2 2 2 2 2 2 2 2 2 2 2 2
left_child=1 9 8 -3 5 -4 -6 -5 -2 10 -1 -10
right_child=2 3 4 7 6 -7 -8 -9 11 -11 -12 -13
leaf_value=-0.00039778139256627673 0 0.0095443950424669161 -0.0022025130427339636 0.0076589412471831896 0.004653436543561801 0.009647432298089724 -0.003395136750524207 -0.0023157743583171429 0.0024752814430105737 -0.014177029249657698 -0.013724135141915932 0.014451773787437212
leaf_weight=65.498904168605804 23.797156453132629 25.930421501398087 16.378420352935791 16.458677023649216 32.522736325860023 33.803384855389595 119.38386256992817 127.6653096973896 15.723658636212347 19.80428172647953 18.457022175192833 28.595305129885674
leaf_count=266 97 105 66 67 132 137 482 518 64 81 75 118
internal_value=4.84297e-05 -0.00191813 0.00211419 0.000625833 0.000163981 0.00546037 -0.00150393 -0.000950574 0.00744514 -0.00620956 -0.00381131 0.0109248
internal_weight=544.019 273.815 270.205 170.054 202.088 50.1818 151.907 144.124 68.1161 103.76 83.9559 44.319
internal_count=2208 1112 1096 690 817 203 614 585 279 422 341 182
is_linear=0
shrinkage=0.02


Tree=60
num_leaves=12
num_cat=0
split_feature=39 26 26 36 20 13 38 40 36 33 39
split_gain=5.52436 6.227 5.10365 8.81433 5.07399 4.53251 4.24238 3.84704 11.2782 4.99548 2.93677
threshold=0.98962529300000013 0.0091115580000000022 0.038518465500000008 150.79015415000003 82.101453280000015 0.0030322655000000003 -1.0000000180025095e-35 21.241479280000004 870.24603980000018 26.463584045000005 0.99515374600000006
decision_type=2 2 2 2 2 2 2 2 2 2 2
left_child=2 10 3 -1 -5 6 -4 8 -3 -9 -2
right_child=1 7 5 4 -6 -7 -8 9 -10 -11 -12
leaf_value=0.011688654919640771 -0.016047678984156429 0.0073007034149033014 0.0030635768496326435 0.00066300352229156027 -0.0061344152215667726 -1.915252971154612e-05 0.017464855123519373 -0.00067058123692212575 -0.0078541489320233769 -0.012616837628646557 -0.0021242586309616401
leaf_weight=23.335130885243416 16.720012590289116 55.235967203974724 22.583547949790955 215.83302608132362 52.161684513092041 20.772471219301224 18.161490350961685 57.655458852648735 27.155315339565277 18.599557772278786 15.666341722011564
leaf_count=95 70 223 93 875 211 84 75 233 110 75 64
internal_value=4.82327e-05 -0.00263672 0.0015649 0.000369234 -0.000621591 0.00672248 0.0104674 -0.000815658 0.00200107 -0.00408798 -0.0104094
internal_weight=543.88 191.033 352.847 291.33 267.995 61.5175 40.745 158.646 82.3913 76.255 32.3864
internal_count=2208 775 1433 1181 1086 252 168 641 333 308 134
is_linear=0
shrinkage=0.02


Tree=61
num_leaves=11
num_cat=0
split_feature=39 10 15 22 36 12 12 39 8 15
split_gain=5.35123 5.7224 5.41298 5.34613 5.70682 3.95427 6.02041 5.84924 2.86857 2.33602
threshold=0.98962529300000013 25.500000000000004 -2.8640135764999992 0.54500000000000015 865.51748065000004 -0.76876893149999981 0.042104989000000002 0.97914285050000005 -0.06106520549999999 -0.99196863899999987
decision_type=2 2 2 2 2 2 2 2 2 2
left_child=2 3 -1 4 -2 7 -7 -4 -5 -3
right_child=1 9 5 8 -6 6 -8 -9 -10 -11
leaf_value=-0.0074652709960586171 -0.003262426906775293 0 0.002303138131297431 0.0058337908488415215 -0.01420959257311462 0.007138716658500739 0.00065137834934161898 -0.0082582806233058928 -0.0027578898230285233 0.0098460952571214153
leaf_weight=21.997602120041847 68.800126507878304 14.758239015936853 55.311524242162704 22.557882592082024 30.161621794104576 105.00492124259472 140.49942120909691 29.952210292220116 39.169215574860573 15.514274463057516
leaf_count=89 280 60 226 91 123 427 570 121 158 63
internal_value=4.46962e-05 -0.00259785 0.00153813 -0.00416905 -0.0070124 0.00223827 0.00354216 -0.00128202 0.00015261 0.00486402
internal_weight=543.727 190.961 352.766 160.689 98.9617 330.768 245.504 85.2637 61.7271 30.2725
internal_count=2208 775 1433 652 403 1344 997 347 249 123
is_linear=0
shrinkage=0.02


Tree=62
num_leaves=9
num_cat=0
split_feature=36 24 21 10 29 33 33 14
split_gain=5.27373 6.34124 7.5646 7.95636 5.40846 4.46599 10.8177 5.12916
threshold=140.23796560000002 2747996.9435000005 -7715908098.999999 6.5000000000000009 47.043343800000009 24.737049020000004 25.255951665000005 -1.2350915649999996
decision_type=2 2 2 2 2 2 2 2
left_child=-1 2 4 -4 -2 7 -7 -3
right_child=1 5 3 -5 -6 6 -8 -9
leaf_value=0.0098845834806994982 0.0078602248779223345 -0.0009433660160023989 0.0029224067457406977 -0.0048483228737546168 -0.0039550390271041484 -0.013128232331612963 0.0036376751885374681 0.0096768241687804953
leaf_weight=19.067932412028313 46.678244233131409 21.705024093389511 62.572257325053215 239.09435541927814 18.729354858398438 18.050787359476089 63.85872557759285 53.815585598349571
leaf_count=78 190 88 254 970 76 73 260 219
internal_value=4.17612e-05 -0.000314269 -0.00178707 -0.00316201 0.00416328 0.00297369 -4.36034e-05 0.00642094
internal_weight=543.572 524.504 367.074 301.667 65.4076 157.43 81.9095 75.5206
internal_count=2208 2130 1490 1224 266 640 333 307
is_linear=0
shrinkage=0.02


Tree=63
num_leaves=13
num_cat=0
split_feature=2 35 24 13 28 9 2 40 11 33 0 33
split_gain=5.27164 7.48121 7.4479 6.70517 7.62326 4.91092 5.0223 4.05819 3.81437 6.01803 3.66376 3.42839
threshold=44.500000000000007 22.187201645000005 21660.852850000003 0.0030322655000000003 -0.066149350499999995 44.771235350000005 20.500000000000004 17.173934050000003 -0.82673289149999996 23.488504310000003 0.62802912700000013 23.563040605000001
decision_type=2 2 2 2 2 2 2 2 2 2 2 2
left_child=1 10 8 7 -5 6 -3 -4 -2 -10 11 -1
right_child=2 5 3 4 -6 -7 -8 -9 9 -11 -12 -13
leaf_value=0.0014621033919962646 0.0062141688586941921 -0.0063117818944725262 0 0.011612310643380901 -0.0019524970242094297 0.0097730625686241433 0.0016237824546883721 0.01237676648081348 0.0063723902274012015 -0.00573142488666647 -0.013835386538321774 -0.0065343129054253411
leaf_weight=27.265818804502487 17.186556309461594 42.070549234747887 16.181289404630661 19.274770870804787 68.586450397968292 18.833114981651306 109.0459066182375 50.37579171359539 17.307636648416519 81.001389130949974 19.745426326990128 56.624947637319565
leaf_count=111 70 171 66 78 277 76 443 207 70 328 81 230
internal_value=4.17565e-05 -0.00187015 0.00205273 0.00493303 0.000992969 0.000615029 -0.000508432 0.00966183 -0.00164646 -0.00331656 -0.00606933 -0.00372897
internal_weight=543.5 273.586 269.914 154.418 87.8612 169.95 151.116 66.5571 115.496 98.309 103.636 83.8908
internal_count=2208 1112 1096 628 355 690 614 273 468 398 422 341
is_linear=0
shrinkage=0.02


Tree=64
num_leaves=9
num_cat=0
split_feature=36 24 14 29 12 39 31 39
split_gain=5.09787 5.95279 7.0086 9.14224 7.23892 4.38989 5.7405 5.27172
threshold=140.23796560000002 2747996.9435000005 -2.1906723834999995 74.816737810000021 -0.65156408299999991 0.97843278600000005 52.939809445000002 0.96887459850000013
decision_type=2 2 2 2 2 2 2 2
left_child=-1 2 3 -2 -4 7 -7 -3
right_child=1 5 4 -5 -6 6 -8 -9
leaf_value=0.0097245958916875163 0.0048767195164516894 0.0025583463918495346 -0.0093682069653987579 -0.010186677348773581 -0.0014744483332705747 -0.0022481590179186774 0.010478243461134365 0.015806166769287488
leaf_weight=19.052141174674034 95.159480258822441 47.772747382521629 63.912280365824699 16.794525697827339 191.11236479878426 76.810914292931557 15.285833209753035 17.45182304084301
leaf_count=78 386 196 260 68 776 311 62 71
internal_value=4.33035e-05 -0.000306114 -0.00173411 0.00230238 -0.00358804 0.00287934 0 0.0067653
internal_weight=543.352 524.3 366.979 111.954 255.025 157.321 92.0967 65.2246
internal_count=2208 2130 1490 454 1036 640 373 267
is_linear=0
shrinkage=0.02


Tree=65
num_leaves=12
num_cat=0
split_feature=2 35 37 3 4 10 9 1 35 19 1
split_gain=5.09039 7.16786 6.27405 8.09867 7.19787 6.1969 4.83688 4.59202 3.33277 2.83063 3.14833
threshold=44.500000000000007 22.187201645000005 35.514795205000006 0.016468608500000006 0.060392732500000011 5.5000000000000009 44.771235350000005 0.018490739500000002 5.5977438425000008 -11.218795334999998 0.0068879225000000009
decision_type=2 2 2 2 2 2 2 2 2 2 2
left_child=1 7 9 -4 -5 -3 -7 8 -1 -2 -11
right_child=2 5 3 4 -6 6 -8 -9 -10 10 -12
leaf_value=0 0 0.0092927969296716425 0.013394932827985378 -0.0038552669541983974 0.0042679105897532408 -0.0023553963285629122 0.0088401041312572651 0.0020896376166784315 -0.0097718448117481271 0.0034074307890068047 0.014820747253886928
leaf_weight=15.699688643217085 16.771395564079285 25.921653762459755 15.09084641933441 123.16194204986095 63.618434339761734 128.8868760317564 15.111357897520064 18.527867466211319 69.352531939744949 27.352189034223557 23.800421670079231
leaf_count=64 69 105 61 498 258 524 61 75 283 112 98
internal_value=4.39313e-05 -0.00183434 0.00202107 0.000129747 -0.000966621 0.000595894 -0.000938534 -0.00594626 -0.00793434 0.00719158 0.00945197
internal_weight=543.295 273.5 269.795 201.871 186.78 169.92 143.998 103.58 85.0522 67.924 51.1526
internal_count=2208 1112 1096 817 756 690 585 422 347 279 210
is_linear=0
shrinkage=0.02


Tree=66
num_leaves=11
num_cat=0
split_feature=39 15 32 38 16 31 15 33 28 20
split_gain=5.02681 5.12866 5.10266 6.49926 5.93085 4.54324 5.49266 3.86892 7.15495 5.51929
threshold=0.98962529300000013 -2.8640135764999992 0.42500000000000004 3.5000000000000004 95.296442760000005 41.355463610000008 -0.87577274649999992 23.563040605000001 -0.25010541649999996 81.358583205000016
decision_type=2 2 2 2 2 2 2 2 2 2
left_child=1 -1 3 4 -2 -4 -7 8 -3 -9
right_child=2 7 5 -5 -6 6 -8 9 -10 -11
leaf_value=-0.0072633779074708906 -0.013769838211676327 0.013934214105798299 0.0070036247281746091 0.0037696459955146849 -0.00068611955254357124 -0.0084347689674013834 0.001833370765856418 0.0025420681478681372 0 -0.0044196533559224555
leaf_weight=21.984062671661377 39.905176863074303 27.306256845593452 28.00900836288929 16.820941314101219 26.084613755345345 31.405412226915359 48.509262502193451 216.15225610136986 32.7498379945755 54.230606153607368
leaf_count=89 165 111 113 68 106 127 196 880 133 220
internal_value=4.84746e-05 0.00149755 -0.002513 -0.00619436 -0.00906455 0.000191106 -0.00206513 0.00218077 0.00675091 0.00105013
internal_weight=543.157 352.423 190.734 82.8107 65.9898 107.924 79.9147 330.439 60.0561 270.383
internal_count=2208 1433 775 339 271 436 323 1344 244 1100
is_linear=0
shrinkage=0.02


