tree
version=v4
num_class=1
num_tree_per_iteration=1
label_index=0
max_feature_idx=37
objective=binary sigmoid:1
feature_names=BOP PF_K_UpShadow vol_current vol_fear_interaction AROON_osc_14 divergence_rank_diff Close_to_Low_Ratio Vol_ROC ADXR_14 momentum_ppo_hist HT_SINE_leadsine PF_K_Body momentum_pvo_hist trend_stc MACD_Signal next_weekday MACDFIX_Hist FastD_RSI_14 ADI fng_norm Close_to_Open_Ratio emd_energy_imf2 CCI_14 daily_range_pct trend_kst TRIX_30 SlowK_5 PF_Open_Gap CHOP_14 fng_lag_2 trend_mass_index volume_obv DX_14 volume_nvi FastK_5 pattern_sentiment_score Close_to_High_Ratio HT_DCPERIOD
feature_infos=[-0.99905232300000002:1] [0:0.133423705] [0.0062361459999999997:0.16898508700000001] [0.0035490309999999998:0.74712394699999995] [-100:100] [1.140915729:22.644265749999999] [1:1.3994094420000001] [-0.661532711:2.6598134] [12.545391800000001:57.33581255] [-7.3373252170000001:7.0136178930000002] [-0.99998176900000002:0.99999998400000001] [-0.423088507:0.25951294600000002] [-11.93819315:18.919650399999998] [9.6300000000000006e-11:100] [-288.6906224:391.71936959999999] [0:6] [-216.0690592:98.803199090000007] [-2.37e-13:100] [-113000000000:280000000000] [0.050000000000000003:0.94999999999999996] [0.576911493:1.2595129460000001] [0:299721401.89999998] [-412.7571342:343.92259139999999] [0.001646631:0.27797235999999997] [-440.27100330000002:827.42919900000004] [-1.245818029:1.750968576] [0.55531300400000005:99.03479609] [-0.025305867999999999:0.057890219] [14.789547260000001:73.426798849999997] [0.050000000000000003:0.94999999999999996] [19.693238439999998:30.76154833] [-39702432399:1790000000000] [0.024246117000000001:91.811549439999993] [127.0442688:1610.499585] [0:100] [-6:9] [0.57570233999999998:1] [12.72634965:42.703761229999998]
tree_sizes=1591 1310 1701 1395 1517 1510 1312 1416 1423 1510 1303 1413 1309 1515 1611 1612 1694 1526 1641 1730 1634 1486 1688 1556 1310 1213 1758 1311 1715 1525 1407 1645 1646 1702 1401 1616 1430 1715 1412 1537 1636 1527 1738 1634 1206 1194 1517 1511 1530 1537 1099

Tree=0
num_leaves=14
num_cat=0
split_feature=36 19 8 30 5 10 15 25 37 5 16 37 1
split_gain=27.0319 26.0474 8.81074 7.07683 8.24502 7.03943 6.82977 4.6581 4.65721 5.48427 4.18523 3.13691 1.58719
threshold=0.97611351950000014 0.41500000000000004 37.721012695000006 26.489775080000005 8.224511822000002 0.026902840000000001 4.5000000000000009 0.84425447100000006 18.020323770000001 13.554684635000003 5.201465036000001 24.145600180000006 0.0053245800000000015
decision_type=2 2 2 2 2 2 2 2 2 2 2 2 2
left_child=5 2 6 4 -3 7 -2 10 -7 -10 -1 -5 -4
right_child=1 3 12 11 -6 8 -8 -9 9 -11 -12 -13 -14
leaf_value=0.050459369263778968 0.020617382078893149 0.04442283996704309 0.040303521783581681 0.036235848454045025 0.03572133124191066 0.028535407747827292 0.032192513169012199 0.036235848454045025 0.048050206687038376 0.036235848454045025 0.039629172684102321 0.025136112882989357 0.031948872374978871
leaf_weight=60.979980826377869 78.474237620830536 69.977027177810669 14.995077252387999 15.494913160800932 99.96718168258667 14.995077252387999 36.737939268350601 18.993764519691467 21.243026107549667 54.232196062803268 27.490974962711334 20.993108153343201 17.244338840246201
leaf_count=244 314 280 60 62 400 60 147 76 85 217 110 84 69
internal_value=0.0362358 0.0329299 0.0265546 0.037437 0.0392415 0.0421204 0.0240058 0.0455731 0.0376895 0.0399182 0.0474645 0.0298326 0.0362358
internal_weight=551.819 353.884 147.452 206.432 169.944 197.935 115.212 107.465 90.4703 75.4752 88.471 36.488 32.2394
internal_count=2208 1416 590 826 680 792 461 430 362 302 354 146 129
is_linear=0
shrinkage=1


Tree=1
num_leaves=11
num_cat=0
split_feature=11 1 2 27 1 1 16 9 25 30
split_gain=24.5301 11.0171 10.0843 9.71418 8.00012 8.0043 6.34107 6.30109 5.23305 3.8972
threshold=-0.016887021999999998 0.0054398140000000003 0.016468608500000006 -0.00022767699999999997 0.0100372085 0.012367040000000001 5.3423245165000006 0.71289992300000005 -0.35912213799999998 24.402487545000003
decision_type=2 2 2 2 2 2 2 2 2 2
left_child=1 3 -2 -1 7 -6 9 -4 -5 -3
right_child=2 6 4 8 5 -7 -8 -9 -10 -11
leaf_value=0.013714296973599939 0.0085929564113362885 0.0050912730336089007 -0.0083548284581729509 -0.012431767589589591 0.0084186669289494174 -0.0023553182090544048 0.00071141093330516437 -0.00033534573842669286 0.00043340176566369687 0.018729527649320503
leaf_weight=15.992896243929861 27.241590663790703 18.491384521126747 144.70803192257881 14.994464978575705 32.240268692374229 138.20177589356899 19.24274043738842 60.981575921177864 38.732431173324585 40.980705872178078
leaf_count=64 109 74 579 60 129 553 77 244 155 164
internal_value=0 0.00689728 -0.00255945 0.00074097 -0.00346124 -0.000127361 0.0119488 -0.00609968 -0.00311551 0.015118
internal_weight=551.808 148.435 403.373 69.7198 376.132 170.442 78.7148 205.69 53.7269 59.4721
internal_count=2208 594 1614 279 1505 682 315 823 215 238
is_linear=0
shrinkage=0.02


Tree=2
num_leaves=15
num_cat=0
split_feature=36 19 8 14 23 23 33 21 16 25 3 11 32 9
split_gain=25.2984 25.0141 8.47425 8.42457 11.5787 7.53095 6.88963 6.52 6.14063 5.18792 4.91475 4.3758 2.65416 1.53638
threshold=0.97611351950000014 0.41500000000000004 37.721012695000006 -4.5665879019999993 0.015480577000000002 0.012975113500000001 635.91557965000015 2747996.9435000005 5.6609366285000009 0.88333822100000015 0.060392732500000011 -0.028749666999999996 12.415494835000002 0.69207417750000011
decision_type=2 2 2 2 2 2 2 2 2 2 2 2 2 2
left_child=6 2 5 12 -5 -2 9 8 -8 10 -1 -9 -3 -4
right_child=1 3 13 4 -6 -7 7 11 -10 -11 -12 -13 -14 -15
leaf_value=0.006916219007955967 -0.016530146568317888 0.014965127558544039 -0.0042821662718742319 -0.01156153319267437 0.0016236226325578714 -0.0052137087141174623 0.0014860580716571728 0.00044945989852911584 -0.011863169765825863 0 0.018795079394921251 0.014452387842882681 0.0040104885948767073 0.0039343847442683587
leaf_weight=51.467284664511681 64.991752579808235 15.243942394852636 16.745960846543312 31.741600707173347 118.96066865324974 50.242944940924644 44.223882749676704 21.23784926533699 16.74406398832798 17.741623774170876 27.484032273292542 18.990323975682259 40.485836029052734 15.494882032275198
leaf_count=206 260 61 67 127 476 201 177 85 67 71 110 76 162 62
internal_value=0 -0.00319316 -0.00944104 0.00122216 -0.00113757 -0.0119398 0.00569827 0.00174553 -0.00212287 0.00951323 0.0116607 0.00790479 0.00776803 0
internal_weight=551.797 353.908 147.476 206.432 150.702 115.235 197.889 101.196 60.9679 96.6929 78.9513 40.2282 55.7298 32.2408
internal_count=2208 1416 590 826 603 461 792 405 244 387 316 161 223 129
is_linear=0
shrinkage=0.02


Tree=3
num_leaves=12
num_cat=0
split_feature=36 23 2 28 32 16 34 24 12 11 21
split_gain=24.3654 22.3668 9.29333 7.69154 11.5735 9.89092 6.26328 5.65854 6.42824 5.4394 3.01074
threshold=0.97611351950000014 0.018202275000000004 0.016760410000000003 43.833165505000004 40.419961810000011 5.3423245165000006 13.138465360000001 313.44614765000006 -2.8554383969999995 -0.0083001204999999991 1284652.5520000004
decision_type=2 2 2 2 2 2 2 2 2 2 2
left_child=3 2 -2 4 -1 6 -5 8 -3 -4 -6
right_child=1 7 9 5 10 -7 -8 -9 -10 -11 -12
leaf_value=0.018514683372943517 0.0044620460725004014 0.011094924080708429 -0.00033188888267556878 0.013026430750811689 0 -0.0095037071601266482 0.00098687522069370584 -0.0067933198600295822 0.00093856404697103852 -0.011392499890348911 0.0091260403910095288
leaf_weight=35.973889723420143 17.492821604013443 31.239901781082153 24.99642077088356 24.978159755468369 33.977851986885071 21.741763964295387 61.200246751308441 23.494866296648979 124.70332872867584 131.98239509761333 19.987602412700653
leaf_count=144 70 125 100 100 136 87 245 94 499 528 80
internal_value=0 -0.00312961 -0.00820742 0.0055967 0.00990206 0.00171183 0.00491957 0.00173348 0.00321453 -0.00978341 0.00334696
internal_weight=551.769 353.91 174.472 197.86 89.9393 107.92 86.1784 179.438 155.943 156.979 53.9655
internal_count=2208 1416 698 792 360 432 345 718 624 628 216
is_linear=0
shrinkage=0.02


Tree=4
num_leaves=13
num_cat=0
split_feature=19 0 23 1 34 14 26 16 13 32 5 7
split_gain=20.3678 16.6027 12.0789 12.0033 7.14471 8.51243 7.3015 7.0668 5.42475 4.74041 4.46459 4.3392
threshold=0.67500000000000016 -0.20128483499999997 0.013538156000000001 0.0054398140000000003 34.567224335000006 26.078132180000001 79.894910065000019 3.1344345360000005 50.202212330000002 38.989108390000005 6.310166928000001 0.33282736350000003
decision_type=2 2 2 2 2 2 2 2 2 2 2 2
left_child=1 3 8 9 -2 6 -6 -5 -3 -1 -7 -4
right_child=4 2 11 7 5 10 -8 -9 -10 -11 -12 -13
leaf_value=-0.0056212984233999039 0.017143719034220028 -0.014460154570502403 -0.0028065224528363952 0.011031295839729194 0.0031377630407201746 0.0033851065945959729 0.02073772366233775 -0.00013903105385504292 -0.0042887245915954782 0.0041863205147481923 -0.0078652454218242612 0.0073391913678977662
leaf_weight=63.466201484203339 22.72916604578495 60.991190448403358 125.45973254740238 64.686056554317474 27.983635053038597 34.233783841133118 16.489179015159607 28.983591094613075 45.242205590009689 24.237861111760139 20.490302592515945 16.742986112833023
leaf_count=254 91 244 502 259 112 137 66 116 181 97 82 67
internal_value=0 -0.00203902 -0.0054051 0.00247124 0.00715926 0.00438026 0.0107053 0.00743523 -0.0104725 -0.00265501 -0.000603562 -0.00138805
internal_weight=551.736 429.81 248.436 181.374 121.926 99.1969 44.4728 93.6696 106.233 87.7041 54.7241 142.203
internal_count=2208 1720 994 726 488 397 178 375 425 351 219 569
is_linear=0
shrinkage=0.02


Tree=5
num_leaves=13
num_cat=0
split_feature=11 23 1 27 27 30 29 37 29 16 18 30
split_gain=21.7807 20.1844 10.1813 9.55364 9.35477 8.80002 8.39958 8.75529 6.41604 5.81259 5.68352 4.6992
threshold=-0.016887021999999998 0.014253725000000002 0.0054398140000000003 -0.00084638699999999988 -0.00022767699999999997 23.301859660000002 0.43500000000000005 17.757639640000004 0.43500000000000005 7.9708873115000012 -10783807758.499998 24.402487545000003
decision_type=2 2 2 2 2 2 2 2 2 2 2 2
left_child=2 6 4 -3 -1 -5 10 -8 -6 11 -2 -4
right_child=1 3 9 5 8 -7 7 -9 -10 -11 -12 -13
leaf_value=0.013344119472829638 -0.00097013421687944072 -0.010783719890450454 0.0039255167031210731 0.011276853612918225 -0.0086789322389653131 0.00045883747550550934 0.0099834381227758649 -0.0074604818221398394 0.004672279732522191 0 -0.013832141079556343 0.017896990029158167
leaf_weight=15.982657119631765 20.995600923895836 22.740078046917915 19.225599706172943 34.480786919593811 32.985506743192673 199.91330519318581 16.245627343654633 28.495604023337364 20.730801194906235 16.7392907589674 80.488148882985115 42.674446702003479
leaf_count=64 84 91 77 138 132 800 65 114 83 67 322 171
internal_value=0 -0.00239642 0.00651665 0.000915525 0.000593182 0.00221678 -0.00828912 -0.000542515 -0.00318456 0.0113738 -0.0114346 0.0141292
internal_weight=551.697 403.359 148.338 257.134 69.699 234.394 146.225 44.7412 53.7163 78.6393 101.484 61.9
internal_count=2208 1614 594 1029 279 938 585 179 215 315 406 248
is_linear=0
shrinkage=0.02


Tree=6
num_leaves=11
num_cat=0
split_feature=11 19 8 23 8 23 3 27 3 31
split_gain=21.0029 19.7049 10.9708 11.3819 9.29018 7.66167 9.04006 4.78167 3.57743 2.35859
threshold=-0.016887021999999998 0.67500000000000016 37.721012695000006 0.013204353500000002 35.559982045000005 0.037080752000000008 0.078060387000000023 -0.00033519049999999998 0.053682718500000011 1135000000000.0002
decision_type=2 2 2 2 2 2 2 2 2 2
left_child=5 2 3 -2 9 6 7 -1 -4 -3
right_child=1 4 8 -5 -6 -7 -8 -9 -10 -11
leaf_value=0.015292696221453288 -0.011674190646437693 0.013473481700306423 0.006860096201633548 -0.0026933931040520405 -0.0044167016240360072 0.016201947615886191 -0.0073950154753123706 0.0038502783718233039 -0.0019871884347175944 0.0046180549965672158
leaf_weight=19.464900121092796 107.2265280932188 31.722985610365868 32.241654992103577 135.70454624295235 24.490945681929588 25.704674571752548 19.97715625166893 83.148251548409462 32.7398701608181 39.220815628767014
leaf_count=78 429 127 129 543 98 103 80 333 131 157
internal_value=0 -0.00234967 -0.00484058 -0.00680201 0.00541617 0.00640373 0.00396162 0.00646286 0.00217771 0.00911285
internal_weight=551.642 403.347 307.913 242.931 95.4347 148.295 122.59 102.613 64.9815 70.9438
internal_count=2208 1614 1232 972 382 594 491 411 260 284
is_linear=0
shrinkage=0.02


Tree=7
num_leaves=12
num_cat=0
split_feature=20 19 14 8 0 16 27 21 17 17 17
split_gain=20.2211 18.9608 10.9088 10.5483 10.1273 8.39701 6.88365 6.70597 6.28769 4.09921 2.04176
threshold=0.98311297800000019 0.67500000000000016 26.078132180000001 37.721012695000006 -0.41134989149999995 5.3423245165000006 -1.0000000180025095e-35 18862410.175000004 35.863848380000007 58.793270430000007 69.107399995000023
decision_type=2 2 2 2 2 2 2 2 2 2 2
left_child=4 3 10 7 5 6 -1 -2 -4 -5 -3
right_child=1 2 8 9 -6 -7 -8 -9 -10 -11 -12
leaf_value=0.012049952848409196 -0.008498519371519242 0.005621211456693565 0.0084114148243067087 0.0077414993697955473 0.019488331112184364 -0.0052672991599564071 0.001225145053994368 -0.0002780404770235859 -0.0061316230433592547 -0.0018424070153246969 0.016682556220345337
leaf_weight=47.907235190272331 185.94800367951393 23.226655289530754 15.491273894906042 28.241577088832855 18.96167416870594 27.230509579181671 54.157781362533569 56.980276897549629 33.234668269753456 36.737893655896187 23.465699449181557
leaf_count=192 744 93 62 113 76 109 217 228 133 147 94
internal_value=0 -0.00230238 0.00531438 -0.00474636 0.00628738 0.00393171 0.00663221 -0.00667003 -0.000964385 0.00213116 0.0120478
internal_weight=551.583 403.326 95.4183 307.908 148.257 129.296 102.065 242.928 48.7259 64.9795 46.6924
internal_count=2208 1614 382 1232 594 518 409 972 195 260 187
is_linear=0
shrinkage=0.02


Tree=8
num_leaves=12
num_cat=0
split_feature=11 19 14 0 16 27 17 9 12 11 26
split_gain=19.4568 18.2736 10.5207 9.77345 8.0959 6.61555 6.06244 5.81303 6.87434 4.61702 2.74903
threshold=-0.016887021999999998 0.67500000000000016 26.078132180000001 -0.41134989149999995 5.3423245165000006 -1.0000000180025095e-35 35.863848380000007 1.2993229560000001 -2.8554383969999995 0.013830951500000003 79.894910065000019
decision_type=2 2 2 2 2 2 2 2 2 2 2
left_child=3 7 10 4 5 -1 -4 8 -2 -9 -3
right_child=1 2 6 -5 -6 -7 -8 9 -10 -11 -12
leaf_value=0.011824679217299714 -0.00012718076171477484 0.0065883492182758543 0.008263843278806457 0.019151522207439774 -0.0051686314324588612 0.0012015688619028029 -0.0060153168992320965 0.007777863224013669 -0.0079082280811340177 -0.0034382491003064879 0.019142692944810438
leaf_weight=47.881879150867462 66.98135732114315 30.960537254810333 15.488295555114744 18.94458244740963 27.233473211526871 54.155279740691185 33.238346442580223 22.492228671908379 185.69165652990341 32.740394055843353 15.711408853530882
leaf_count=192 268 124 62 76 109 217 133 90 743 131 63
internal_value=0 -0.00225332 0.00522338 0.00617338 0.00385627 0.00651029 -0.000935392 -0.00465313 -0.00594127 0.000891993 0.0118384
internal_weight=551.519 403.304 95.3986 148.215 129.271 102.037 48.7266 307.906 252.673 55.2326 46.6719
internal_count=2208 1614 382 594 518 409 195 1232 1011 221 187
is_linear=0
shrinkage=0.02


Tree=9
num_leaves=13
num_cat=0
split_feature=19 0 1 23 8 8 8 27 35 0 34 23
split_gain=17.516 14.0339 11.1099 11.0303 8.31738 7.86517 7.659 6.63808 6.08953 3.64066 2.93969 3.70418
threshold=0.67500000000000016 -0.20128483499999997 0.0054398140000000003 0.017711184000000005 35.744166175000011 24.023917195000006 38.623573770000007 -1.0000000180025095e-35 1.5000000000000002 0.032441695000000006 34.567224335000006 0.042903983000000007
decision_type=2 2 2 2 2 2 2 2 2 2 2 2
left_child=1 2 7 6 10 -4 -3 -1 -5 -6 -2 -12
right_child=4 3 5 8 9 -7 -8 -9 -10 -11 11 -13
leaf_value=0.0025738068645293089 0.01842538794978657 -0.010646605432173526 0.015948461889666078 -0.0041777398615647646 0.0044180814344123402 0.0028066078677651284 0.00035614941568537549 -0.0079987253114656483 0.0054538144376588826 -0.0080306997329394718 0.0025005237803672133 0.012301350593776003
leaf_weight=42.942670181393623 15.20173306763172 118.45187884569168 26.944974973797798 57.484068661928177 15.471929073333742 66.61651012301445 27.494359612464905 44.72939570248127 44.98762583732605 16.495598658919334 41.682052865624428 32.9426249563694
leaf_count=172 61 474 108 230 62 267 110 179 180 66 167 132
internal_value=0 -0.00187197 0.0022709 -0.00496828 0.0066617 0.00705522 -0.00846185 -0.00265525 0 -0.00151145 0.00975774 0.00729621
internal_weight=551.445 429.651 181.234 248.418 121.794 93.5615 145.946 87.6721 102.472 31.9675 89.8264 74.6247
internal_count=2208 1720 726 994 488 375 584 351 410 128 360 299
is_linear=0
shrinkage=0.02


Tree=10
num_leaves=11
num_cat=0
split_feature=20 23 8 23 5 27 18 24 8 5
split_gain=18.3 17.5521 8.50717 7.27503 7.15261 6.89499 6.8143 6.14799 5.07406 2.70521
threshold=0.98311297800000019 0.017711184000000005 37.721012695000006 0.037080752000000008 9.9819447560000025 -0.00084638699999999988 -15909363066.999998 313.44614765000006 37.084003215000003 15.701996155000002
decision_type=2 2 2 2 2 2 2 2 2 2
left_child=3 2 4 6 -2 -3 -1 -7 -8 -4
right_child=1 5 9 -5 -6 7 8 -9 -10 -11
leaf_value=0.013632227277797849 0.0022823595554392916 -0.0088507449352998487 0.0075086698442187599 0.015542953947475884 -0.010129646962129389 0.0044405754289086807 0.0038544042419307225 -0.0053947310684380554 -0.0061106340191490272 -0.002676281783685377
leaf_weight=20.69036328792572 17.739284992218018 19.491154000163078 16.744476526975632 25.654250472784042 137.92758211493492 166.59123452007771 77.079518407583237 26.491932705044746 24.707742273807526 18.247442111372948
leaf_count=83 71 78 67 103 552 667 309 106 99 73
internal_value=0 -0.00217426 -0.0065702 0.00599974 -0.00857736 0.00169975 0.00362253 0.00294713 0.00117166 0.00179926
internal_weight=551.365 403.233 190.659 148.132 155.667 212.574 122.478 193.083 101.787 34.9919
internal_count=2208 1614 763 594 623 851 491 773 408 140
is_linear=0
shrinkage=0.02


Tree=11
num_leaves=12
num_cat=0
split_feature=36 5 8 23 24 4 16 21 20 14 0
split_gain=19.6715 18.5635 11.1879 12.7044 7.35996 6.1675 7.63823 10.4693 5.56739 4.05119 2.79293
threshold=0.97611351950000014 10.288489165000003 37.721012695000006 0.012975113500000001 231.45763595000003 -82.142857139999975 5.3423245165000006 1284652.5520000004 0.98225732300000013 42.282428310000007 0.65579021250000002
decision_type=2 2 2 2 2 2 2 2 2 2 2
left_child=5 4 3 -3 9 -1 8 -8 -7 -2 -4
right_child=1 2 10 -5 -6 6 7 -9 -10 -11 -12
leaf_value=-0.0037057372667688971 0.007632780190798139 -0.014038968608758751 0.0058227130144097375 -0.0029119952028968305 -0.006733871861061177 0.011862255117689218 -0.0079297856350483299 0.0093975284259012973 0.0016175800357512071 -0.0004200661873615942 -0.0034103471750132714
leaf_weight=23.948398619890213 79.372017979621887 86.914239808917046 29.490032345056534 88.978513464331627 21.743046820163727 86.188560783863068 28.476913616061211 23.71858611702919 35.21928459405899 29.231489822268486 17.995220512151718
leaf_count=96 318 348 118 356 87 346 114 95 141 117 72
internal_value=4.41991e-07 -0.00278287 -0.00629177 -0.00861864 0.00308352 0.00506224 0.00641409 0 0.00912681 0.00531606 0.00192313
internal_weight=551.276 353.725 223.378 175.893 130.347 197.552 173.603 52.1955 121.408 108.604 47.4853
internal_count=2208 1416 894 704 522 792 696 209 487 435 190
is_linear=0
shrinkage=0.02


Tree=12
num_leaves=11
num_cat=0
split_feature=20 23 0 2 16 32 29 24 35 17
split_gain=16.9564 16.2973 9.46815 8.00473 7.51643 6.26127 5.43014 7.69303 6.4152 5.24028
threshold=0.98311297800000019 0.017711184000000005 -0.41134989149999995 0.016760410000000003 5.3423245165000006 30.836703460000006 0.6150000000000001 258.62870850000007 1.5000000000000002 31.483047070000001
decision_type=2 2 2 2 2 2 2 2 2 2
left_child=2 3 4 -2 9 -5 8 -8 -3 -1
right_child=1 6 -4 5 -6 -7 7 -9 -10 -11
leaf_value=0.00087960576839360828 0.005542191646895356 -0.0052363688532221179 0.018544375790082963 -0.010780306940658511 -0.0051842446443300513 -0.0024896103311362171 0.0078848458175109579 -0.0041949794939910483 0.0045679115743337793 0.010409659575529567
leaf_weight=49.584548965096474 17.238494962453842 67.227894529700279 18.898664474487305 104.65922547876835 27.228220477700233 68.693049803376198 80.841367229819298 24.491144329309464 39.980187147855759 52.315391555428505
leaf_count=199 69 269 76 419 109 275 324 98 160 210
internal_value=0 -0.00209284 0.00577767 -0.00633049 0.00350232 -0.00767494 0.00163755 0.00486397 -0.00138031 0.00607102
internal_weight=551.158 403.131 148.027 190.591 129.128 173.352 212.541 105.333 107.208 101.9
internal_count=2208 1614 594 763 518 694 851 422 429 409
is_linear=0
shrinkage=0.02


Tree=13
num_leaves=13
num_cat=0
split_feature=36 29 14 35 28 32 16 29 8 15 13 21
split_gain=18.4755 21.4937 11.6078 9.0681 7.81491 11.0578 8.18319 7.54847 6.11969 4.15668 4.11123 2.77005
threshold=0.97611351950000014 0.42500000000000004 -4.5665879019999993 3.5000000000000004 43.833165505000004 40.419961810000011 5.3423245165000006 0.63500000000000012 37.721012695000006 3.5000000000000004 53.956044845000008 1284652.5520000004
decision_type=2 2 2 2 2 2 2 2 2 2 2 2
left_child=4 3 9 8 5 -1 10 -4 -2 -3 -6 -7
right_child=1 2 7 -5 6 11 -8 -9 -10 -11 -12 -13
leaf_value=0.01764123984423651 -0.012605997524320922 0.0027591826347600728 -0.0060544675485017024 0.0021330979613246683 0.00091502248603290959 -0.00017406900962665408 -0.0091722977305829251 0.002789436790625351 -0.00068716942820474375 0.015140790412472871 0.011048728744799837 0.0084230767155814412
leaf_weight=35.878798276185989 102.88031113147736 27.707723885774612 69.960514947772026 23.974576100707054 63.525911554694176 33.932220965623856 21.737398102879524 78.378394663333893 25.244715362787247 25.468823686242104 22.412493914365768 19.947581976652145
leaf_count=144 412 111 280 96 255 136 87 314 101 102 90 80
internal_value=0 -0.00269685 0.00150552 -0.00834159 0.00490787 0.009229 0.00102081 -0.0012736 -0.010458 0.00938567 0.00397647 0.00283844
internal_weight=551.049 353.615 201.515 152.1 197.434 89.7586 107.676 148.339 128.125 53.1765 85.9384 53.8798
internal_count=2208 1416 807 609 792 360 432 594 513 213 345 216
is_linear=0
shrinkage=0.02


Tree=14
num_leaves=14
num_cat=0
split_feature=36 19 35 7 24 33 6 21 18 11 7 22 34
split_gain=17.7732 19.0681 10.4251 8.07788 7.25111 6.25471 5.74508 5.72127 5.34711 4.53928 3.7998 2.84322 3.98382
threshold=0.97611351950000014 0.41500000000000004 3.5000000000000004 -0.26456296699999998 -23.858599764999997 635.91557965000015 1.0074067465000003 2747996.9435000005 -8939610104.9999981 -0.028749666999999996 0.09159331150000001 -115.28064244999999 32.73526823000001
decision_type=2 2 2 2 2 2 2 2 2 2 2 2 2
left_child=5 2 3 -2 10 11 -6 8 -7 -9 -3 -1 -13
right_child=1 4 -4 -5 6 7 -8 9 -10 -11 -12 12 -14
leaf_value=4.3582268679903186e-05 0.002029507168127196 0.0026989026954736084 0.0033338242678521441 -0.012316437757291028 0.0081849022773641238 0.0066686432800070463 -0.0025476101416243508 0 -0.0061172740301554404 0.013496610621838661 0.01501866124028332 0.016400332044151034 0.0057048498413002349
leaf_weight=17.927921921014786 14.981045752763746 34.699120432138443 23.226386830210686 109.11124449968338 20.97613288462162 14.945766180753706 133.34341108798981 21.181666925549507 45.914992585778236 18.937574312090874 17.223164722323418 27.866034239530563 50.602528989315033
leaf_count=72 60 139 93 437 84 60 534 85 184 76 69 112 203
internal_value=3.35608e-06 -0.00264068 -0.00810301 -0.0104212 0.00120537 0.00481891 -0.000874778 0.00106824 -0.00254696 0.00688785 0.00756187 0.0084431 0.0100648
internal_weight=550.937 353.561 147.319 124.092 206.242 197.376 154.32 100.98 60.8608 40.1192 51.9223 96.3965 78.4686
internal_count=2208 1416 590 497 826 792 618 405 244 161 208 387 315
is_linear=0
shrinkage=0.02


Tree=15
num_leaves=14
num_cat=0
split_feature=11 19 14 1 8 27 2 19 17 16 17 26 33
split_gain=15.4646 15.0848 9.50431 9.16138 8.86485 8.51423 7.49652 6.65254 5.84211 5.08373 3.94973 2.76123 2.26548
threshold=-0.016887021999999998 0.67500000000000016 26.078132180000001 0.0054398140000000003 37.721012695000006 -0.00022767699999999997 0.016468608500000006 0.41500000000000004 35.863848380000007 7.9708873115000012 58.793270430000007 79.894910065000019 866.06029250000017
decision_type=2 2 2 2 2 2 2 2 2 2 2 2 2
left_child=3 4 11 5 6 -1 -2 -7 -4 12 -6 -3 -5
right_child=1 2 8 9 10 7 -8 -9 -10 -11 -12 -13 -14
leaf_value=0.012191273986763528 0.0053628201328712252 0.0059525282654231274 0.0079944484196413125 0.015185651482569028 0.0076287986120028104 -0.0095634283223488166 -0.0069822236932739036 0.0038667789066818797 -0.0060118154314859939 0 -0.0017716634330595428 0.018328513544245671 0.0037876733314957329
leaf_weight=15.922489762306212 18.238719165325165 30.909104064106941 15.477269724011419 45.42472268640995 28.233735725283623 31.213667765259743 224.47762727737427 22.427899673581123 33.232010155916214 16.712089821696281 36.731021508574486 15.663492321968077 16.176935389637947
leaf_count=64 73 124 62 183 113 125 899 90 133 67 147 63 65
internal_value=1.17189e-05 -0.00198339 0.00480614 0.00553571 -0.004168 0 -0.00593659 -0.00365157 -0.00102717 0.0101398 0.00212095 0.0111099 0.0127202
internal_weight=550.841 402.963 95.2819 147.878 307.681 69.5641 242.716 53.6416 48.7093 78.3137 64.9648 46.5726 61.6017
internal_count=2208 1614 382 594 1232 279 972 215 195 315 260 187 248
is_linear=0
shrinkage=0.02


Tree=16
num_leaves=15
num_cat=0
split_feature=36 29 24 23 29 28 32 16 24 36 34 37 4 26
split_gain=16.6534 19.7424 10.4701 8.81453 7.79792 7.60059 10.5752 7.63231 7.05622 6.97067 5.98017 3.43526 2.70252 2.60218
threshold=0.97611351950000014 0.42500000000000004 -23.858599764999997 0.012575731000000001 0.66500000000000015 43.833165505000004 40.419961810000011 5.3423245165000006 199.27769225 0.99578484050000016 13.138465360000001 20.077884490000002 75.000000000000014 43.928526430000012
decision_type=2 2 2 2 2 2 2 2 2 2 2 2 2 2
left_child=5 3 13 9 -4 6 11 10 -5 -2 -7 -1 -8 -3
right_child=1 2 4 8 -6 7 12 -9 -10 -11 -12 -13 -14 -15
leaf_value=0.0065735095989262905 -0.016150325197848182 0.015501457392860985 -0.0054113411569532135 -0.0060666873799703194 0.0034935897534945429 0.011588155201760764 0 -0.0089884782819401043 0.0077837121514476998 -0.00083889252909437719 0 0.022817564305649993 0.0090296453468145278 0.0044013622930698876
leaf_weight=15.173807859420775 57.350563049316406 18.221467614173889 79.193795025348663 59.457762017846107 72.353979140520096 24.85982409119606 37.637962982058525 21.73498272895813 16.492712244391441 18.702643826603889 60.989821404218674 20.641493514180183 16.210188180208206 31.679425179958344
leaf_count=61 230 73 317 238 290 100 151 87 66 75 245 83 65 127
internal_value=1.86529e-05 -0.00253961 0.00148486 -0.00795306 -0.00103945 0.0046827 0.00894226 0.000851762 -0.00267995 -0.0127592 0.00371864 0.017176 0.00268876 0.0092811
internal_weight=550.7 353.452 201.449 152.004 151.548 197.248 89.6635 107.585 75.9505 76.0532 85.8496 35.8153 53.8482 49.9009
internal_count=2208 1416 807 609 607 792 360 432 304 305 345 144 216 200
is_linear=0
shrinkage=0.02


Tree=17
num_leaves=13
num_cat=0
split_feature=29 0 28 26 23 8 23 0 27 8 1 1
split_gain=14.1758 13.2083 7.92862 9.60519 7.39953 5.75421 4.9857 4.47189 6.31597 5.70813 4.1547 0.44304
threshold=0.6150000000000001 0.31673296850000004 43.833165505000004 61.064045885000006 0.008998098500000001 21.67729263 0.020796688500000004 0.065487465500000022 0.00011568800000000001 28.338520200000001 0.023222412500000005 0.0059207555000000012
decision_type=2 2 2 2 2 2 2 2 2 2 2 2
left_child=1 2 10 -4 11 -6 -2 8 -8 -9 -1 -3
right_child=6 4 3 -5 5 -7 7 9 -10 -11 -12 -13
leaf_value=0.0025577661490337072 -0.0022622923989041453 -0.0077386358366314609 0.0010547354693588341 -0.0093666367860235286 0.005666642792033787 -0.0061428098910045791 0.0055729508894232296 0.0089349730532770465 0.021452904752856012 -0.0017132047981319898 0.01310097407042881 -0.019125388261709106
leaf_weight=85.741997256875038 25.188792616128922 14.955150499939917 107.71556609869003 48.663040444254875 16.973708853125572 85.40617635846138 39.551162108778954 33.631422221660614 16.169930994510651 39.693181604146957 19.181475698947906 17.690878078341484
leaf_count=344 101 60 432 195 68 342 159 135 65 159 77 71
internal_value=2.29487e-05 -0.00194339 0.000619441 -0.00213931 -0.0069856 -0.00392223 0.00516396 0.00677853 0.0111114 0.00301279 0.00488126 -0.0152342
internal_weight=550.562 396.328 261.302 156.379 135.026 102.38 154.234 129.046 55.7211 73.3246 104.923 32.646
internal_count=2208 1589 1048 627 541 410 619 518 224 294 421 131
is_linear=0
shrinkage=0.02


Tree=18
num_leaves=14
num_cat=0
split_feature=36 29 14 35 29 33 8 3 25 3 31 15 17
split_gain=15.6988 18.6558 10.6126 8.27815 6.63007 5.80833 5.70336 5.21923 5.03493 4.84509 4.74944 4.0806 3.9968
threshold=0.97611351950000014 0.42500000000000004 -4.5665879019999993 3.5000000000000004 0.63500000000000012 635.91557965000015 37.721012695000006 0.062584804500000021 0.88333822100000015 0.060392732500000011 1275000000000.0002 3.5000000000000004 54.518023545000013
decision_type=2 2 2 2 2 2 2 2 2 2 2 2 2
left_child=5 3 11 6 -4 8 -2 12 9 -1 -9 -3 -7
right_child=1 2 4 -5 -6 7 -8 10 -10 -11 -12 -13 -14
leaf_value=0.0055933653112624935 -0.011824668815844683 0.0024567645009110095 -0.0056878431714039923 0.0022558483985037569 0.002596640591643347 0.0084773370479186965 -0.00034311081665170962 0.0008057998823701554 -0.00053976334699237381 0.017169260061925099 -0.012813151028201797 0.014673799528129675 -0.00068627268341640802
leaf_weight=51.244041755795479 102.71448621153831 27.682387888431549 69.942959263920784 23.967246368527412 78.330584228038788 37.83930292725563 25.243381902575493 19.191346451640129 17.670645385980606 27.322781622409821 14.962447509169577 25.442395567893982 28.909917548298836
leaf_count=206 412 111 280 96 314 152 101 77 71 110 60 102 116
internal_value=2.33704e-05 -0.00245969 0.00145034 -0.00772443 -0.00120188 0.00455406 -0.00975364 0.000935368 0.00804832 0.0101936 -0.0049861 0.00899064 0.00431305
internal_weight=550.464 353.323 201.398 151.925 148.274 197.14 127.958 100.903 96.2375 78.5668 34.1538 53.1248 66.7492
internal_count=2208 1416 807 609 594 792 513 405 387 316 137 213 268
is_linear=0
shrinkage=0.02


Tree=19
num_leaves=15
num_cat=0
split_feature=36 37 18 18 28 32 34 12 27 37 21 37 37 21
split_gain=15.0861 7.77808 10.3629 7.90606 7.20381 10.2185 6.81726 6.70621 6.64829 5.55807 5.21283 3.39248 3.29926 2.64154
threshold=0.97611351950000014 21.269395960000004 2306577547.0000005 1374570271.0000002 43.833165505000004 40.419961810000011 13.138465360000001 -2.4720794764999994 -0.00024521299999999993 24.531660035000005 42043479.75500001 24.331310940000005 20.077884490000002 1284652.5520000004
decision_type=2 2 2 2 2 2 2 2 2 2 2 2 2 2
left_child=4 2 7 9 5 12 -6 -2 -4 -3 -5 -8 -1 -7
right_child=1 3 8 10 6 13 11 -9 -10 -11 -12 -13 -14 -15
leaf_value=0.0063136474535347891 0.0046086090634240694 -0.0051083137174427048 -0.0041756611366692772 -0.010788388883126741 0.008902753754545906 -0.00046029499727141192 0.00071568077721521797 -0.0078940484300185042 0.0073831079825037475 0.0069458284247351778 0 -0.0074039240755924152 0.022245733363136969 0.0079649163590924839
leaf_weight=15.156567975878714 19.458350047469139 30.67448765039444 22.440150618553162 87.356386065483093 28.56896947324276 33.899033665657043 50.048796728253365 64.590921223163605 80.050212770700455 26.449360907077789 22.217940837144852 28.897489607334137 20.588137403130531 19.917119279503822
leaf_count=61 78 123 90 350 115 136 201 259 321 106 89 116 83 80
internal_value=2.52444e-05 -0.00240838 0.000302074 -0.00552762 0.00446809 0.00861563 0.000736296 -0.00472728 0.00462944 0.000180855 -0.00863275 -0.00211884 0.0167125 0.00247319
internal_weight=550.314 353.238 186.54 166.698 197.076 89.5609 107.515 84.0493 102.49 57.1238 109.574 78.9463 35.7447 53.8162
internal_count=2208 1416 748 668 792 360 432 337 411 229 439 317 144 216
is_linear=0
shrinkage=0.02


Tree=20
num_leaves=14
num_cat=0
split_feature=19 11 28 13 15 13 27 27 0 0 25 16 10
split_gain=13.4559 13.6072 9.30305 7.46215 8.30879 6.18131 5.85685 5.82946 4.88535 4.18953 4.12238 2.97441 2.66903
threshold=0.67500000000000016 -0.016887021999999998 43.833165505000004 95.296442760000005 3.5000000000000004 3.1245346715000006 0.00011568800000000001 -0.00018013099999999996 -0.60655743549999996 0.055172837000000009 0.41018788250000005 1.2790887610000001 -0.51808609299999986
decision_type=2 2 2 2 2 2 2 2 2 2 2 2 2
left_child=1 2 8 5 -5 -3 10 -4 -1 -8 12 -12 -2
right_child=6 3 7 4 -6 -7 9 -9 -10 -11 11 -13 -14
leaf_value=0.0039966029270313008 0 -0.0019708994534331325 0.0078933224336810576 -0.0044520710292239671 0.0062867320085595322 -0.0095053359183750203 0.020428287846365644 -0.0047472701343162929 0.017374381943968144 0.0042244876239715358 0.0024600070623289672 -0.0075261542920740249 0.01035588867397187
leaf_weight=34.065843194723129 15.931355729699133 88.572343379259109 18.130315527319908 64.147173166275024 48.924645662307739 105.79182061553001 15.396741047501562 48.060927212238312 21.077702552080154 18.443603247404099 25.392468422651291 17.447671219706535 28.833939790725708
leaf_count=137 64 355 73 257 196 424 62 193 85 74 102 70 116
internal_value=2.76353e-05 -0.00160434 0.00394328 -0.00386978 4.91666e-05 -0.00622877 0.00588408 -0.00086166 0.00988916 0.0128835 0.00272992 -0.00131535 0.00691959
internal_weight=550.217 428.771 121.335 307.436 113.072 194.364 121.446 66.1912 55.1435 33.8403 87.6054 42.8401 44.7653
internal_count=2208 1720 488 1232 453 779 488 266 222 136 352 172 180
is_linear=0
shrinkage=0.02


Tree=21
num_leaves=13
num_cat=0
split_feature=36 19 35 7 2 23 28 10 34 19 0 1
split_gain=14.1845 16.1886 9.54786 7.66407 6.89618 7.92004 6.75126 8.17871 4.41945 3.67853 2.83102 6.33187
threshold=0.97611351950000014 0.41500000000000004 3.5000000000000004 -0.26456296699999998 0.016468608500000006 0.017403292500000004 43.833165505000004 1.0000000180025095e-35 17.235223830000002 0.27500000000000008 0.040684508000000008 0.014140622500000002
decision_type=2 2 2 2 2 2 2 2 2 2 2 2
left_child=6 2 3 -2 -3 -6 10 8 -8 -9 11 -1
right_child=1 4 -4 -5 5 -7 7 9 -10 -11 -12 -13
leaf_value=0.0043781563789144365 0.0025015697233032323 0.011747308018649854 0.0035531140338803447 -0.011455432040909432 -0.006328301563034257 0.0026094545551390482 0.012371703390230127 -0.011597105294246939 0.00085892898171826887 0 0 0.017479913273495889
leaf_weight=43.956402331590652 14.962765112519262 20.201649606227875 23.214595660567284 108.89910957217216 54.414517879486084 131.45949161052704 22.073524460196495 19.205878749489784 40.31853674352169 25.892938554286957 17.461686924099922 28.042213052511215
leaf_count=177 60 81 93 437 218 527 89 77 162 104 70 113
internal_value=3.19617e-05 -0.00232665 -0.00736785 -0.00959753 0.00121138 0 0.00434258 0.00072314 0.00550035 -0.00541419 0.00836193 0.0100859
internal_weight=550.103 353.152 147.076 123.862 206.076 185.874 196.951 107.491 62.3921 45.0988 89.4603 71.9986
internal_count=2208 1416 590 497 826 745 792 432 251 181 360 290
is_linear=0
shrinkage=0.02


Tree=22
num_leaves=15
num_cat=0
split_feature=36 19 35 14 23 7 10 2 36 32 25 1 37 36
split_gain=13.6533 15.5499 9.29287 6.76917 8.02806 6.72332 5.9025 5.59903 5.33818 5.20598 4.41851 4.20696 4.09433 2.52378
threshold=0.97611351950000014 0.41500000000000004 1.5000000000000002 -4.5665879019999993 0.015480577000000002 -0.21704656099999997 0.026902840000000001 0.049700224000000008 0.96887459850000013 23.424153420000003 0.84425447100000006 0.0042581555000000011 18.528758395000004 0.94872288700000007
decision_type=2 2 2 2 2 2 2 2 2 2 2 2 2 2
left_child=6 2 5 12 -5 -2 10 8 -8 -4 11 -1 -3 -9
right_child=1 3 9 4 -6 -7 7 13 -10 -11 -12 -13 -14 -15
leaf_value=0.00021636930657592518 0 0.011622573830868281 -0.0076193694328642895 -0.0096169934864463163 0.0013612916686063263 -0.01354174937156319 -0.007220717128304379 0.011974000799829403 0.0051347881526611237 0.0041941470264665144 -0.00037483555343042574 0.011642310738649417 0 0
leaf_weight=20.377093896269798 15.204574063420294 31.40007309615612 23.410220056772232 31.680940479040146 118.77981008589268 75.226506352424622 41.070232555270195 16.404623568058017 17.16647969186306 33.177808165550232 18.899337187409401 67.519694969058037 24.187572538852692 15.440008729696272
leaf_count=82 61 126 94 127 476 302 165 66 69 133 76 272 97 62
internal_value=3.6471e-05 -0.002277 -0.0072194 0.00118885 -0.000914943 -0.0111408 0.00426705 0.000241548 -0.00319709 -0.000444954 0.00741182 0.00927966 0.00706457 0.0069383
internal_weight=549.945 353.068 147.019 206.048 150.461 90.4311 196.877 90.0813 58.2367 56.588 106.796 87.8968 55.5876 31.8446
internal_count=2208 1416 590 826 603 363 792 362 234 227 430 354 223 128
is_linear=0
shrinkage=0.02


Tree=23
num_leaves=14
num_cat=0
split_feature=36 29 24 35 29 37 10 2 36 30 13 17 36
split_gain=13.1425 16.4861 9.56855 7.49732 6.65273 5.94751 5.65893 5.3989 5.14588 4.50836 5.40114 3.88293 2.42869
threshold=0.97611351950000014 0.42500000000000004 -23.858599764999997 3.5000000000000004 0.66500000000000015 24.695181525000006 0.026902840000000001 0.049700224000000008 0.96887459850000013 26.989472825000004 99.999250405000012 81.358583205000016 0.94872288700000007
decision_type=2 2 2 2 2 2 2 2 2 2 2 2 2
left_child=6 3 11 5 -4 -2 9 8 -8 10 -1 -3 -9
right_child=1 2 4 -5 -6 -7 7 12 -10 -11 -12 -13 -14
leaf_value=0.012179587077515104 -0.011637275757012604 0.012778488342877137 -0.0050138593171869363 0.0022814564535681664 0.0032087153242591278 -0.0009824409156192935 -0.0070806875043219267 0.01176850597186708 0.0050439046479623705 0 0 0 0
leaf_weight=63.481189012527466 95.0857964605093 32.655184924602509 79.144464939832687 23.962751790881157 72.290609925985336 32.65657465159893 41.084208399057388 16.392296060919765 17.162356272339821 27.33215557038784 15.925832957029341 17.179694473743439 15.440008729696272
leaf_count=256 382 131 317 96 290 131 165 66 69 110 64 69 62
internal_value=3.88229e-05 -0.00223052 0.0014407 -0.00718668 -0.000967637 -0.00912472 0.00419077 0.000244186 -0.00312736 0.00727168 0.00963239 0.00889981 0.00682475
internal_weight=549.793 352.975 201.27 151.705 151.435 127.742 196.818 90.0789 58.2466 106.739 79.407 49.8349 31.8323
internal_count=2208 1416 807 609 607 513 792 362 234 430 320 200 128
is_linear=0
shrinkage=0.02


Tree=24
num_leaves=11
num_cat=0
split_feature=5 33 18 27 23 26 23 18 32 3
split_gain=12.3124 6.56278 8.39838 5.90539 5.87856 5.59741 4.845 3.04724 2.6331 0.810429
threshold=6.310166928000001 190.30976070000003 -10783807758.499998 -0.00015918399999999996 0.012405601 47.043343800000009 0.012712641500000002 35767812036.000008 33.539440565000007 0.052448916000000005
decision_type=2 2 2 2 2 2 2 2 2 2
left_child=3 6 5 -1 -4 -3 -2 -8 9 -5
right_child=1 2 4 8 -6 -7 7 -9 -10 -11
leaf_value=-0.0015158567295801234 -0.0021056460262045295 0.0081802495403589005 -0.0070235602804544339 0.0073192441879049268 -0.0013743014048264602 -0.0038555081197946001 0.013639011031651598 0.00075454200428594234 0.0043956485178083624 0.0191506048167337
leaf_weight=19.159470811486244 20.395932510495186 45.235577598214149 116.87552608549595 16.402245268225673 229.52707181870937 18.939974471926689 22.160316050052643 15.959986507892607 29.590255424380302 15.382409766316412
leaf_count=77 82 182 470 66 921 76 89 64 119 62
internal_value=4.13734e-05 -0.00117076 -0.00210252 0.00720135 -0.00336713 0.00431677 0.00488987 0.00904964 0.0102002 0.0144318
internal_weight=549.629 469.094 410.578 80.5344 346.403 64.1756 58.5162 38.1203 61.3749 31.7847
internal_count=2208 1884 1649 324 1391 258 235 153 247 128
is_linear=0
shrinkage=0.02


Tree=25
num_leaves=10
num_cat=0
split_feature=11 5 0 2 4 16 9 25 16
split_gain=11.8986 11.1144 8.96842 7.8146 7.22718 10.6365 7.00062 5.92137 2.00977
threshold=-0.016887021999999998 6.310166928000001 -0.41134989149999995 0.016468608500000006 -82.142857139999975 5.3423245165000006 0.88463478800000017 0.76529672400000004 1.8941978300000002
decision_type=2 2 2 2 2 2 2 2 2
left_child=2 7 4 -3 -1 -6 -5 8 -2
right_child=1 3 -4 6 5 -7 -8 -9 -10
leaf_value=-0.0084442854193966833 0.015391216968265859 0.0069488958254922571 0.017319582617467959 -0.0059037877630726864 0.0082374178993359429 -0.0054881729539840865 0.00057024433098766872 -0.0031871277402144844 0.0047055369293474807
leaf_weight=16.919973880052567 16.894438877701759 24.938571229577065 18.745512247085571 228.54159632325172 84.517132326960564 27.173452198505402 86.024729132652283 16.96722100675106 28.833994060754776
leaf_count=68 68 100 76 917 341 109 345 68 116
internal_value=4.32866e-05 -0.0017027 0.00490175 -0.00317325 0.00270118 0.00468437 -0.00407773 0.00580329 0.00955194
internal_weight=549.557 402.201 147.356 339.505 128.611 111.691 314.566 62.6957 45.7284
internal_count=2208 1614 594 1362 518 450 1262 252 184
is_linear=0
shrinkage=0.02


Tree=26
num_leaves=15
num_cat=0
split_feature=36 29 14 23 15 23 36 33 3 27 9 25 3 15
split_gain=12.2783 15.473 9.5808 8.30002 9.19584 7.27197 6.60903 5.37524 4.84329 6.14401 4.96236 4.7812 4.76003 3.88497
threshold=0.97611351950000014 0.42500000000000004 -4.5665879019999993 0.012575731000000001 3.5000000000000004 0.021431986000000004 0.99578484050000016 635.91557965000015 0.062584804500000021 -7.8649999999999987e-05 -0.61482664599999992 0.88333822100000015 0.060392732500000011 3.5000000000000004
decision_type=2 2 2 2 2 2 2 2 2 2 2 2 2 2
left_child=7 3 13 6 -5 -4 -2 11 9 -9 -10 12 -1 -3
right_child=1 2 5 4 -6 -7 -8 8 10 -11 -12 -13 -14 -15
leaf_value=0.005007297948946895 -0.014898748252155867 0.0022068358673141835 -0.0071692244174574342 -0.0075281140760553788 0.0062084773569233255 0.0019432372269564053 -9.5392171002405836e-05 0.012154107886630997 0.0018808667504551686 -2.8970773372542915e-05 -0.011992712857469407 -0.00093126256484475731 0.016406688363142203 0.014118085391988895
leaf_weight=51.095916211605072 57.079485207796097 27.648490354418755 50.883469209074974 46.137924194335938 29.70966762304306 97.25500100851059 18.655260547995567 21.573932826519012 16.170161947607994 45.031006425619125 17.943526908755302 17.636406391859055 27.198955520987511 25.393937289714813
leaf_count=206 230 111 204 185 119 390 75 87 65 181 72 71 110 102
internal_value=4.53688e-05 -0.00214729 0.00140723 -0.00695197 -0.00186928 -0.00110736 -0.0116059 0.00406139 0.000585641 0.00386499 -0.00512275 0.00741988 0.00952645 0.00857846
internal_weight=549.413 352.763 201.181 151.582 75.8476 148.138 75.7347 196.65 100.719 66.6049 34.1137 95.9313 78.2949 53.0424
internal_count=2208 1416 807 609 304 594 305 792 405 268 137 387 316 213
is_linear=0
shrinkage=0.02


Tree=27
num_leaves=11
num_cat=0
split_feature=5 11 28 2 33 22 30 28 28 2
split_gain=11.293 11.3986 8.09237 7.44856 8.16488 7.42871 6.10972 5.74096 6.8349 7.9217
threshold=6.310166928000001 -0.016887021999999998 43.833165505000004 0.016468608500000006 870.24603980000018 25.027077965000004 25.267314825000003 52.527602835000003 41.721443905000008 0.035856021500000008
decision_type=2 2 2 2 2 2 2 2 2 2
left_child=7 2 6 -3 -5 -4 -2 8 -1 -10
right_child=1 3 5 4 -6 -7 -8 -9 9 -11
leaf_value=0.011233021101123303 0.0028650396002661087 0.0068096374422985054 0.0027783106643330382 -0.0017203985724969337 -0.0089199348188464967 -0.011960573160705895 0.017010664197359759 0.015513846151397016 -0.010913314706549221 0.0066795735464113626
leaf_weight=22.859297201037407 33.946924597024918 24.928621932864189 56.558386698365211 221.53282952308655 92.895828425884247 15.69045916199684 23.236368149518967 21.588158637285233 18.619354456663132 17.360637500882149
leaf_count=92 137 100 228 889 373 63 94 87 75 70
internal_value=4.57342e-05 -0.00111361 0.00382998 -0.00306909 -0.00395359 -0.000389159 0.00933163 0.0069089 0.00301681 -0.00199328
internal_weight=549.217 468.789 129.432 339.357 314.429 72.2488 57.1833 80.4274 58.8393 35.98
internal_count=2208 1884 522 1362 1262 291 231 324 237 145
is_linear=0
shrinkage=0.02


Tree=28
num_leaves=15
num_cat=0
split_feature=36 29 14 23 15 23 1 28 32 34 23 15 28 1
split_gain=11.5211 14.7454 9.26343 8.0151 8.85179 6.8897 6.71294 6.43852 9.976 6.28531 6.18427 3.71991 2.34625 0.125226
threshold=0.97611351950000014 0.42500000000000004 -4.5665879019999993 0.012575731000000001 3.5000000000000004 0.021431986000000004 0.0017747995 43.833165505000004 40.419961810000011 13.138465360000001 0.040109597000000004 3.5000000000000004 31.231722020000003 0.0079565080000000028
decision_type=2 2 2 2 2 2 2 2 2 2 2 2 2 2
left_child=7 3 11 6 -5 -4 -2 8 13 -9 -11 -3 -10 -1
right_child=1 2 5 4 -6 -7 -8 9 12 10 -12 -13 -14 -15
leaf_value=0.0083680588142763732 0 0.0021881959615824937 -0.0069810553844826349 -0.007332605765641419 0.0061464170882524326 0.001888011826112611 -0.014244390070539794 0.0082973327373120492 0.0071621944326374903 -0.0052459625969073428 0.0080226740378023607 0.013878047068826154 -0.00086716040484753881 0.01912973039529544
leaf_weight=14.829133361577986 15.166512623429297 27.643272027373314 50.863159656524658 46.117240607738495 29.71086360514164 97.237310886383057 60.477607935667038 28.459752649068832 19.387398421764374 63.7319375872612 15.097387984395025 25.371050626039505 34.277100220322609 20.725756242871284
leaf_count=60 61 111 204 185 119 390 244 115 78 256 61 102 138 84
internal_value=4.8439e-05 -0.00207472 0.00139351 -0.00676806 -0.00177207 -0.00107714 -0.011344 0.0039412 0.00786332 0.000412431 -0.00232169 0.00844729 0.00182742 0.0158585
internal_weight=549.095 352.587 201.115 151.472 75.8281 148.1 75.6441 196.508 89.2194 107.289 78.8293 53.0143 53.6645 35.5549
internal_count=2208 1416 807 609 304 594 305 792 360 432 317 213 216 144
is_linear=0
shrinkage=0.02


Tree=29
num_leaves=13
num_cat=0
split_feature=29 0 1 17 17 12 34 17 17 28 29 8
split_gain=10.6978 10.356 6.94654 6.68277 7.23458 5.39413 5.14667 4.65282 4.98647 4.5549 2.45618 2.37451
threshold=0.6150000000000001 0.31673296850000004 0.0063764610000000008 18.870355945000004 58.793270430000007 1.8344783965000002 34.567224335000006 48.092288780000011 35.863848380000007 40.682370765000009 0.71500000000000008 27.007668540000001
decision_type=2 2 2 2 2 2 2 2 2 2 2 2
left_child=1 2 5 -3 -5 -1 10 8 -8 -4 -2 -9
right_child=6 3 9 4 -6 -7 7 11 -10 -11 -12 -13
leaf_value=-0.0053619893271693421 0.0035347599957227943 -0.017151571325843537 0.0085289402038331037 0.0017515532260757311 -0.0080166128600010645 0.0047733772668792033 0.0023500234669845909 0.0086431489038057332 -0.011103425274031152 0.00081977006757761803 0.016987665783401058 0.0011920760754064537
leaf_weight=88.831528559327126 16.119387269020081 18.139474332332611 47.379071772098541 46.532671123743057 69.925950393080711 23.633536353707314 22.924362644553185 38.944092735648155 15.958647325634955 100.68480890989304 16.508948042988777 43.302544206380844
leaf_count=357 65 73 191 187 281 95 92 157 64 405 67 174
internal_value=5.29388e-05 -0.00165279 0.000611932 -0.0061276 -0.00398109 -0.00301122 0.00452967 0.00233137 -0.0029555 0.0035007 0.0115071 0.00507902
internal_weight=548.885 395.127 260.529 134.598 116.459 112.465 153.758 121.13 38.883 148.064 32.6283 82.2466
internal_count=2208 1589 1048 541 468 452 619 487 156 596 132 331
is_linear=0
shrinkage=0.02


Tree=30
num_leaves=12
num_cat=0
split_feature=5 11 13 15 28 22 14 28 28 33 23
split_gain=10.4189 10.4789 7.56389 8.30422 7.55304 7.06253 6.228 5.56257 6.60107 3.81475 3.06494
threshold=6.310166928000001 -0.016887021999999998 95.296442760000005 3.5000000000000004 43.833165505000004 25.027077965000004 -13.303552609999999 52.527602835000003 41.721443905000008 922.87050050000005 0.052132094000000004
decision_type=2 2 2 2 2 2 2 2 2 2 2
left_child=7 4 6 -4 9 -6 -3 8 -1 -2 -10
right_child=1 2 3 -5 5 -7 -8 -9 10 -11 -12
leaf_value=0.010917889982154504 0.011992338586079189 -0.00051810898305291607 -0.0033811494502018194 0.0067952697150362182 0.0027002366760602342 -0.011667918061262399 -0.0078561470836844283 0.015122131270104176 -0.0077988972787723463 0 0.0029068530595021337
leaf_weight=22.825954526662827 41.925821989774704 80.087659269571304 72.495691031217575 53.327732816338539 56.530031993985176 15.696028947830198 133.22631917893887 21.543355584144592 18.131809592247009 15.144588991999624 17.824450358748436
leaf_count=92 170 322 291 214 228 63 535 87 73 61 72
internal_value=5.53107e-05 -0.00105696 -0.00293372 0.000814294 0.00368305 -0.000383031 -0.00522441 0.00665278 0.00282431 0.00900624 -0.00209133
internal_weight=548.759 468.434 339.137 125.823 129.296 72.2261 213.314 80.3256 58.7822 57.0704 35.9563
internal_count=2208 1884 1362 505 522 291 857 324 237 231 145
is_linear=0
shrinkage=0.02


Tree=31
num_leaves=14
num_cat=0
split_feature=36 23 5 36 34 27 22 37 33 5 7 36 33
split_gain=10.7771 9.77264 8.72266 6.39573 5.20611 11.0805 5.1682 4.45421 11.8182 6.40126 3.50207 3.49317 3.14644
threshold=0.98962529300000013 0.0091115580000000022 14.446301830000001 0.96992116700000008 35.514795205000006 -0.00012945249999999999 -102.10544574999999 21.241479280000004 870.24603980000018 8.115864246500001 0.0018157100000000001 0.99515374600000006 797.70162300000004
decision_type=2 2 2 2 2 2 2 2 2 2 2 2 2
left_child=2 11 4 10 6 -6 -1 8 -3 -9 -4 -2 -5
right_child=1 7 3 12 5 -7 -8 9 -10 -11 -12 -13 -14
leaf_value=0.0015424929058993179 -0.01950096619256541 0.0070233712631841781 0.0067968436800526283 -0.0015338106500655624 -0.005444955495314938 0.0062751060767705681 0.012858832103860567 0.0026409245456831764 -0.0084680302215420326 -0.0089226665936578235 -0.0014302491820174256 -0.0040178537307338624 -0.011011308389377458
leaf_weight=31.234479382634163 17.309444010257721 55.535941898822784 34.71671824157238 38.281208425760269 46.755040988326073 88.7407096773386 47.997026145458221 25.176353275775909 27.360177859663963 51.586520791053772 39.486267581582069 15.880638197064398 28.561383441090584
leaf_count=126 70 223 140 154 188 357 194 101 110 207 159 64 115
internal_value=5.58246e-05 -0.0036915 0.00215227 -0.00159447 0.00469764 0.00206507 0.00879175 -0.00142826 0.00159575 -0.00490541 0.0022338 -0.0133104 -0.00607625
internal_weight=548.622 192.849 355.773 141.046 214.727 135.496 79.2315 159.659 82.8961 76.7629 74.203 33.1901 66.8426
internal_count=2208 775 1433 568 865 545 320 641 333 308 299 134 269
is_linear=0
shrinkage=0.02


Tree=32
num_leaves=14
num_cat=0
split_feature=36 23 5 36 12 34 3 22 5 13 8 7 36
split_gain=10.383 9.45705 8.40925 6.16353 5.20473 5.02092 6.44447 4.96355 4.34126 9.26131 4.29489 3.37646 3.35907
threshold=0.98962529300000013 0.0091115580000000022 14.446301830000001 0.96992116700000008 -2.7659083964999995 35.514795205000006 0.060392732500000011 -102.10544574999999 9.0758837565000015 99.489861690000012 29.777106320000005 0.0018157100000000001 0.99515374600000006
decision_type=2 2 2 2 2 2 2 2 2 2 2 2 2
left_child=2 12 5 11 -5 7 -7 -1 10 -10 -3 -4 -2
right_child=1 8 3 4 -6 6 -8 -9 9 -11 -12 -13 -14
leaf_value=0.0015136204919512246 -0.019183547767645078 0.0070615179477997595 0.0066711581161206894 0.0031087388724992111 -0.0090223859368628572 -0.00081061628137149956 0.0082270190026547552 0.01262345696741555 -0.0082216154918399557 0.004293921372968375 -0.0031684317383985018 -0.0014029160724845693 -0.0039475667027418946
leaf_weight=31.231852397322655 17.277349472045898 35.541087418794632 34.701206117868423 15.159815788269041 51.665115132927895 92.009395822882652 43.472170010209084 47.951876997947693 67.714163452386856 31.931016892194748 24.452871963381767 39.489398062229156 15.875786677002905
leaf_count=126 70 143 140 61 208 370 175 194 272 128 98 159 64
internal_value=5.08567e-05 -0.00362723 0.00210957 -0.00156772 -0.00596938 0.00460969 0.00202132 0.00863308 -0.00139931 -0.00400871 0.00260159 0.00218706 -0.0130962
internal_weight=548.473 192.792 355.681 141.016 66.8249 214.665 135.482 79.1837 159.639 99.6452 59.994 74.1906 33.1531
internal_count=2208 775 1433 568 269 865 545 320 641 400 241 299 134
is_linear=0
shrinkage=0.02


Tree=33
num_leaves=15
num_cat=0
split_feature=36 5 13 5 24 36 12 21 4 1 11 28 7 19
split_gain=10.012 8.93783 9.02285 8.09182 6.76093 5.9173 5.02387 4.6815 5.73083 4.33362 6.37812 3.82289 3.19826 2.56241
threshold=0.98962529300000013 10.288489165000003 99.489861690000012 14.446301830000001 -141.69218549999997 0.96992116700000008 -2.7659083964999995 470174.68470000004 53.571428570000002 0.0029810420000000006 0.0030322655000000003 36.39516578500001 -0.06279921749999999 0.33500000000000008
decision_type=2 2 2 2 2 2 2 2 2 2 2 2 2 2
left_child=3 7 4 9 -3 11 -7 12 -9 -1 -11 -5 -2 -4
right_child=1 2 13 5 -6 6 -8 8 -10 10 -12 -13 -14 -15
leaf_value=-0.0015810949218525976 0.0037559346898677756 0 -0.0030886914327944281 0.0093700275132032277 -0.013352661015943125 0.0030534935418057656 -0.0088523966603998062 0.015611927950198886 0 0.0084744239857644493 0.00027416737985014398 -0.00029603413541719024 -0.0070165950348249316 0.0070159533474467529
leaf_weight=33.253562927246094 14.949974253773687 22.61360801756382 17.391101241111755 19.338144898414612 65.55028510093689 15.161580130457876 51.642706513404846 15.136962592601778 16.694404348731041 118.11568242311478 63.227520763874054 54.839506402611732 23.923037335276604 16.45958948135376
leaf_count=134 60 91 70 78 264 61 208 61 67 477 254 221 96 66
internal_value=4.8963e-05 -0.00356288 -0.00683814 0.00207144 -0.0101776 -0.00153412 -0.0058494 0.00184679 0.00746343 0.00452479 0.00575857 0.00214121 -0.00240326 0.00138403
internal_weight=548.298 192.719 122.015 355.579 88.1639 140.982 66.8043 70.7044 31.8314 214.597 181.343 74.1777 38.873 33.8507
internal_count=2208 775 491 1433 355 568 269 284 128 865 731 299 156 136
is_linear=0
shrinkage=0.02


Tree=34
num_leaves=12
num_cat=0
split_feature=5 11 28 13 15 22 27 29 13 33 24
split_gain=9.3813 9.26494 7.23077 7.03016 8.01926 6.79184 5.45746 5.1893 4.34882 3.694 1.54667
threshold=6.310166928000001 -0.016887021999999998 43.833165505000004 95.296442760000005 3.5000000000000004 25.027077965000004 -0.00015918399999999996 0.42500000000000004 99.130912105000007 922.87050050000005 188.09599075000003
decision_type=2 2 2 2 2 2 2 2 2 2 2
left_child=6 2 9 7 -5 -4 -1 -3 10 -2 -8
right_child=1 3 5 4 -6 -7 8 -9 -10 -11 -12
leaf_value=-0.002041458549847277 0.011614104503953879 -0.0079361338273719467 0.0024983181103563758 -0.0032835732830772441 0.0067161972056017059 -0.011579012259411841 0.015876104952064016 -0.0013867249146474545 6.260763234570628e-05 0 0.0044299638862479365
leaf_weight=19.11011004447937 41.818276926875114 112.66436110436916 56.458822906017303 72.453045666217804 53.301070258021355 15.693159148097036 27.361333355307579 100.4272171407938 18.847058281302452 15.131707683205603 14.859401091933249
leaf_count=77 170 454 228 291 214 63 111 403 76 61 60
internal_value=4.78548e-05 -0.00100589 0.00345056 -0.00277278 0.000837083 -0.000523527 0.00631605 -0.00498406 0.00923031 0.00867169 0.0126825
internal_weight=548.126 467.948 129.102 338.846 125.754 72.152 80.1779 213.092 61.0678 56.95 42.2207
internal_count=2208 1884 522 1362 505 291 324 857 247 231 171
is_linear=0
shrinkage=0.02


Tree=35
num_leaves=14
num_cat=0
split_feature=36 23 5 36 34 14 37 33 5 5 1 36 33
split_gain=9.49863 8.92546 7.68406 5.55769 4.79419 6.9196 4.22872 11.3459 5.8662 3.49148 3.36142 3.27914 3.09219
threshold=0.98962529300000013 0.0091115580000000022 14.446301830000001 0.96992116700000008 35.514795205000006 29.476982305000003 21.241479280000004 870.24603980000018 8.115864246500001 13.156838700000002 0.0055548975000000011 0.99515374600000006 797.70162300000004
decision_type=2 2 2 2 2 2 2 2 2 2 2 2 2
left_child=2 11 4 10 9 -6 7 -3 -8 -1 -4 -2 -5
right_child=1 6 3 12 5 -7 8 -9 -10 -11 -12 -13 -14
leaf_value=0.010492678635869109 -0.018684023871181517 0.0069617902836427705 -0.0034952296635104552 -0.0012062756051630878 0.0053150448462157057 -0.0038364412435480167 0.0025019828339677571 -0.0082156888336582055 -0.0085513341769437017 0 0.0050820226148142293 -0.0036756534990366029 -0.010548005700076581
leaf_weight=61.949953019618988 17.219588920474052 55.493309885263443 23.638833418488503 38.244467228651047 86.876245275139809 48.524028778076172 25.16024149954319 27.339230611920357 51.523126125335693 17.113180384039879 50.496255502104759 15.854175254702566 28.515505477786064
leaf_count=251 70 223 95 154 350 195 101 110 207 69 204 64 115
internal_value=4.81037e-05 -0.00347012 0.00201955 -0.00149235 0.00441162 0.00188172 -0.00130343 0.00164105 -0.00469908 0.00834419 0.0020644 -0.0126797 -0.00567807
internal_weight=547.948 192.59 355.358 140.895 214.463 135.4 159.516 82.8325 76.6834 79.0631 74.1351 33.0738 66.76
internal_count=2208 775 1433 568 865 545 641 333 308 320 299 134 269
is_linear=0
shrinkage=0.02


Tree=36
num_leaves=12
num_cat=0
split_feature=36 33 11 0 2 9 10 7 6 33 2
split_gain=9.14721 5.70354 5.15693 6.90897 5.36569 4.96582 4.81915 4.89279 4.5857 6.51551 5.29677
threshold=0.98962529300000013 213.98993375000003 0.0027245830000000005 -0.41134989149999995 0.026964493000000003 1.4281379510000003 0.32776219000000001 -0.019664582999999996 1.0499044225000003 330.50746930000008 0.019001206000000003
decision_type=2 2 2 2 2 2 2 2 2 2 2
left_child=1 6 3 -3 -4 8 7 -1 10 -10 -2
right_child=5 2 4 -5 -6 -7 -8 -9 9 -11 -12
leaf_value=0.0026596748296391541 0.00078834277472639267 -0.00043411230909778584 0.0059181456667992743 0.0067048791708102119 -0.0061420247594262244 0.0035712226696798187 -7.2996129846600408e-05 0.01758473905568133 0.010123300182596572 -0.0052537615074621903 -0.0088597230618903747
leaf_weight=21.338626712560654 24.38226692378521 127.31034573912621 15.6715842038393 86.520794883370399 64.398083373904228 29.622646316885948 18.586478129029274 21.425805240869522 16.159005507826805 25.339450657367706 97.017148688435555
leaf_count=86 98 514 63 349 259 119 75 87 65 102 391
internal_value=4.24118e-05 0.00197804 0.000723723 0.00239718 -0.00345116 -0.00341013 0.00745857 0.0110358 -0.00482888 0.000464249 -0.00677853
internal_weight=547.772 355.252 293.901 213.831 80.0697 192.521 61.3509 42.7644 162.898 41.4985 121.399
internal_count=2208 1433 1185 863 322 775 248 173 656 167 489
is_linear=0
shrinkage=0.02


Tree=37
num_leaves=15
num_cat=0
split_feature=36 29 14 15 18 28 10 3 3 34 15 28 8 12
split_gain=8.92199 12.0061 9.14827 6.23826 7.03364 5.8137 6.73774 4.85982 4.61634 4.03824 3.52551 2.82084 2.79085 2.52058
threshold=0.97611351950000014 0.42500000000000004 -4.5665879019999993 4.5000000000000009 -10434829302.999998 43.833165505000004 1.0000000180025095e-35 0.03138042550000001 0.043347080000000003 17.235223830000002 3.5000000000000004 51.973382705000006 26.533532670000003 -0.88241034299999987
decision_type=2 2 2 2 2 2 2 2 2 2 2 2 2 2
left_child=5 3 10 4 -2 12 9 -4 -5 -7 -3 -8 -1 -14
right_child=1 2 7 8 -6 6 11 -9 -10 -11 -12 -13 13 -15
leaf_value=0.013047475446911084 0.0024001516927815584 0.0021891850296356739 -0.0069165626311910814 -0.0068923317232652669 -0.010920823336194912 0.011063254937864338 0 0.00094231015912433298 0.0053191748190271216 0.00012352146311907892 0.013622320803432997 -0.010541896489721951 0.010744137980764987 0.0012490118672147633
leaf_weight=25.356649816036224 15.601142212748526 27.617009952664375 40.794909954071045 19.802154988050461 88.891123279929161 21.876850977540016 24.36971826851368 107.07625760138035 26.658136278390884 40.148380979895592 25.325167968869209 20.65248803794384 16.28495866060257 47.213444530963898
leaf_count=103 63 111 164 80 359 89 98 430 107 162 102 83 66 191
internal_value=4.42411e-05 -0.00182135 0.001301 -0.00606849 -0.00873641 0.00347974 0.000126456 -0.00115573 0 0.0045195 0.0083191 -0.00543514 0.00720774 0.00424322
internal_weight=547.668 351.766 200.813 150.953 104.492 195.902 107.047 147.871 46.4603 62.0252 52.9422 45.0222 88.8551 63.4984
internal_count=2208 1416 807 609 422 792 432 594 187 251 213 181 360 257
is_linear=0
shrinkage=0.02


Tree=38
num_leaves=12
num_cat=0
split_feature=5 11 1 23 37 8 25 25 5 30 31
split_gain=8.69557 8.25914 6.23474 5.60773 8.51556 7.48967 5.10569 4.95935 3.52061 5.09882 1.16725
threshold=6.310166928000001 -0.016887021999999998 0.013696247000000002 0.012405601 29.353327525000005 37.721012695000006 -0.41445678999999996 0.84425447100000006 4.0785236510000002 24.805488170000004 1225000000000.0002
decision_type=2 2 2 2 2 2 2 2 2 2 2
left_child=7 2 6 5 -5 -3 -2 8 -1 -10 -4
right_child=1 3 10 4 -6 -7 -8 -9 9 -11 -12
leaf_value=0.0005444894764126668 -0.0064932692451808638 -0.0084882234799294395 0.015539239490170045 0.00053261756466544828 -0.012804772359953458 0.0038770074664068437 0.0034380938962621146 -0.0021626520939471896 0.0023064513075264342 0.017829625280123027 0.0040604452609821406
leaf_weight=19.690251693129539 26.053330048918724 97.581682696938515 14.683703228831293 201.28026628494263 18.961682185530663 20.688446044921875 73.43859127163887 17.883201956748962 18.476998776197433 24.000089600682259 14.720745980739592
leaf_count=80 105 395 60 808 76 83 297 72 75 97 60
internal_value=4.8259e-05 -0.000965245 0.0032419 -0.00263558 -0.000630569 -0.00613044 0.000563662 0.00608906 0.00876787 0.0119343 0.011054
internal_weight=547.459 467.408 128.896 338.512 220.242 118.27 99.4919 80.0505 62.1673 42.4771 29.4044
internal_count=2208 1884 522 1362 884 478 402 324 252 172 120
is_linear=0
shrinkage=0.02


Tree=39
num_leaves=13
num_cat=0
split_feature=19 11 8 28 8 23 27 0 17 0 12 9
split_gain=8.42662 7.80017 7.48698 7.38823 7.07139 6.70032 5.50903 4.66371 3.63819 2.68552 2.4888 4.15776
threshold=0.67500000000000016 -0.016887021999999998 37.721012695000006 43.833165505000004 35.744166175000011 0.013204353500000002 -0.00018013099999999996 -0.60655743549999996 58.793270430000007 0.032441695000000006 3.8459962455000007 1.0238150300000002
decision_type=2 2 2 2 2 2 2 2 2 2 2 2
left_child=1 3 5 7 10 -3 -5 -1 -4 -6 11 -2
right_child=4 2 8 6 9 -7 -8 -9 -10 -11 -12 -13
leaf_value=0.0026789484498564863 0.007769316249472016 -0.0083689434825529631 0.0080495515221196256 0.0072080012123289716 0.0021655052664215045 -0.0014376494604721722 -0.0050584454889000966 0.015568426263648301 -0.00089218111223851625 -0.008263043147637034 0.014838529797204741 -0.0029567923694457043
leaf_weight=33.807419568300247 56.764374405145645 105.93644915521145 28.193775072693825 18.033034220337868 15.296984732151033 135.31668655574322 47.899772509932518 20.788172796368599 36.652088165283203 16.476280212402344 17.266991272568703 14.855687722563742
leaf_count=137 230 429 113 73 62 543 193 85 147 66 70 60
internal_value=5.08293e-05 -0.00123529 -0.00296063 0.00296001 0.00470731 -0.00460725 -0.00129565 0.00831694 0.00282084 -0.0028192 0.0076206 0.00525292
internal_weight=547.288 426.627 306.099 120.528 120.66 241.253 65.9328 54.5956 64.8459 31.7733 88.8871 71.6201
internal_count=2208 1720 1232 488 488 972 266 222 260 128 360 290
is_linear=0
shrinkage=0.02


Tree=40
num_leaves=14
num_cat=0
split_feature=36 23 19 36 33 10 26 2 7 5 8 36 32
split_gain=8.3582 8.10601 7.07823 8.5884 6.254 5.82266 5.11263 4.14787 3.72864 3.48661 3.92708 3.26642 3.20097
threshold=0.98962529300000013 0.0091115580000000022 0.28500000000000009 0.96992116700000008 222.48544175000004 -0.66097142799999997 61.608856085000006 0.043691817500000008 -0.037460791999999993 9.0758837565000015 29.777106320000005 0.99515374600000006 34.741144260000006
decision_type=2 2 2 2 2 2 2 2 2 2 2 2 2
left_child=2 11 3 7 8 -6 -5 -1 -4 10 -3 -2 -11
right_child=1 9 4 6 5 -7 -8 -9 -10 12 -12 -13 -14
leaf_value=-0.002777185007065881 -0.018002022523639791 0.0066752483256275032 0.0022663650129519965 -0.0023750956507055669 -0.0027894625203779373 0.0045071371754412098 -0.015785757059138022 0.007286172902369964 0.014429041726129724 -0.0058945566957689776 -0.003106193410969748 -0.0031768584805483349 0.0013649395021034883
leaf_weight=23.82744175195694 17.11463987827301 35.462554201483727 22.300967901945114 37.141587644815445 61.701389119029045 124.6185265481472 18.834474742412567 35.839127063751221 30.539201989769936 69.570180520415306 24.440516665577888 15.804636150598524 29.883979097008705
leaf_count=96 70 143 90 150 249 503 76 145 124 280 98 64 120
internal_value=5.21298e-05 -0.00324835 0.00190498 -0.00202204 0.00388779 0.00198064 -0.0076213 0.00298338 0.00993039 -0.00118007 0.00238991 -0.0120468 -0.00353218
internal_weight=547.079 192.277 354.803 115.643 239.16 186.32 55.9761 59.6666 52.8402 159.357 59.9031 32.9193 99.4542
internal_count=2208 775 1433 467 966 752 226 241 214 641 241 134 400
is_linear=0
shrinkage=0.02


Tree=41
num_leaves=13
num_cat=0
split_feature=19 11 8 28 8 23 30 27 3 34 14 0
split_gain=7.91674 7.27843 7.14047 7.0942 6.71488 6.32722 5.60074 5.30132 3.3076 2.58699 6.2779 2.56397
threshold=0.67500000000000016 -0.016887021999999998 37.721012695000006 43.833165505000004 35.744166175000011 0.013204353500000002 25.267314825000003 -0.00018013099999999996 0.053682718500000011 55.631313100000007 24.98098723 0.032441695000000006
decision_type=2 2 2 2 2 2 2 2 2 2 2 2
left_child=1 3 5 6 9 -3 -1 -5 -4 -2 -11 -6
right_child=4 2 8 7 11 -7 -8 -9 -10 10 -12 -13
leaf_value=0.001854833544689033 0.012814981224529072 -0.0081362114481706247 0.0072348931012772575 0.0070265916150157957 0.0020927351340301928 -0.001391841413337975 0.01559840658486499 -0.0050030932566490251 -0.0012002718569113435 0.0099629725177798594 -0.0021371803991298735 -0.0080815889071216892
leaf_weight=32.514299511909485 27.246186226606369 105.78851762413979 32.163562372326851 18.014018505811691 15.288516744971277 135.29333828389645 21.999394848942757 47.902006432414055 32.671415567398071 34.17779116332531 27.352062240242958 16.478334650397301
leaf_count=132 111 429 129 73 62 543 90 193 131 139 110 66
internal_value=4.76479e-05 -0.00119807 -0.00286612 0.00285336 0.00456447 -0.00447619 0.00811079 -0.00131094 0.00277631 0.00740831 0.00437129 -0.00275874
internal_weight=546.889 426.347 305.917 120.43 120.543 241.082 54.5137 65.916 64.835 88.776 61.5299 31.7669
internal_count=2208 1720 1232 488 488 972 222 266 260 360 249 128
is_linear=0
shrinkage=0.02


Tree=42
num_leaves=15
num_cat=0
split_feature=19 18 15 0 25 23 24 1 9 32 23 18 28 9
split_gain=7.71618 7.63555 7.45625 5.6743 8.0191 7.51923 5.15192 4.85058 4.50409 3.86919 3.79788 3.76256 2.98743 2.5222
threshold=0.41500000000000004 -10783807758.499998 4.5000000000000009 -0.16286119249999995 0.0035476705000000003 0.015369605000000001 -212.19211829999998 0.0067999105000000008 0.25035792500000004 28.812465295000006 0.0069993010000000012 -4044359749.9999995 51.493758835000008 -1.2075977889999998
decision_type=2 2 2 2 2 2 2 2 2 2 2 2 2 2
left_child=1 10 6 7 9 -6 -3 11 -4 -5 -1 -2 -9 -12
right_child=3 2 8 4 5 -7 -8 12 -10 -11 13 -13 -14 -15
leaf_value=-0.0027135015712329803 -0.0058860781642706902 0.0018272693467663702 -0.0029493256162761807 0.00019062809726007199 -0.01248876206432986 -4.2221004857164842e-05 -0.008175327181578226 0.013442413845625084 0.0075600283912317006 0.012210510410945993 0.012991608688787459 0.0046703983099095131 0.0010855276183677879 0.00070283689304483272
leaf_weight=15.811867430806158 15.864543452858923 20.09309233725071 33.675480455160141 24.100732058286667 22.546833425760269 109.09407494962215 125.01437038183212 35.582222282886505 26.323658391833305 24.380978152155876 17.74137249588966 45.25211700797081 15.055001109838484 16.125286608934406
leaf_count=64 64 81 136 97 91 439 506 145 106 98 72 183 61 65
internal_value=4.89702e-05 -0.00244651 -0.00419641 0.0022972 0 -0.00247866 -0.0066483 0.00579535 0.00143404 0.00687577 0.00427409 0.00151361 0.0103294 0.00806351
internal_weight=546.662 254.785 205.107 291.877 180.123 131.641 145.107 111.754 59.9991 48.4817 49.6785 61.1167 50.6372 33.8667
internal_count=2208 1030 829 1178 725 530 587 453 242 195 201 247 206 137
is_linear=0
shrinkage=0.02


Tree=43
num_leaves=14
num_cat=0
split_feature=36 23 19 36 26 37 9 30 2 14 34 0 36
split_gain=7.82264 7.5949 6.57266 8.11577 4.91839 3.96402 9.01676 5.1349 3.90125 3.69265 5.91818 4.80152 3.18983
threshold=0.98962529300000013 0.0091115580000000022 0.28500000000000009 0.96992116700000008 61.608856085000006 21.241479280000004 1.2993229560000001 26.463584045000005 0.043691817500000008 39.0638997 39.027882345000002 -0.39895340299999998 0.99515374600000006
decision_type=2 2 2 2 2 2 2 2 2 2 2 2 2
left_child=2 12 3 8 -5 6 -3 -7 -1 11 -11 -4 -2
right_child=1 5 9 4 -6 7 -8 -9 -10 10 -12 -13 -14
leaf_value=-0.0026426074912761295 -0.017556900721189907 -0.0012422900571101212 0.0011095126214699317 -0.0022372518298847135 -0.015397736044467676 -0.00096422545428586704 0.014884613441530468 -0.013091371348115577 0.0071034907833893357 0.00797826608671829 -0.0046638261144391728 0.0081110170775550491 -0.0029386163859610281
leaf_weight=23.830552324652672 17.037646576762199 67.779518932104111 76.861041933298111 37.11138391494751 18.799496710300446 57.874296173453331 14.915049016475676 18.677703768014908 35.795949876308441 20.168227970600128 42.011375188827515 99.874541342258453 15.778113722801207
leaf_count=96 70 273 312 150 76 233 60 75 145 82 169 403 64
internal_value=5.11065e-05 -0.00314244 0.00184558 -0.00193593 -0.00738665 -0.00113704 0.00171307 -0.00443568 0.00292444 0.00375819 -0.000130842 0.0052245 -0.0116753
internal_weight=546.515 192.062 354.453 115.537 55.9109 159.247 82.6946 76.552 59.6265 238.915 62.1796 176.736 32.8158
internal_count=2208 775 1433 467 226 641 333 308 241 966 251 715 134
is_linear=0
shrinkage=0.02


Tree=44
num_leaves=10
num_cat=0
split_feature=5 11 2 33 27 1 27 13 3
split_gain=7.62614 7.04469 6.83761 7.59345 6.21678 6.85249 5.12216 4.29503 2.63858
threshold=6.310166928000001 -0.016887021999999998 0.016468608500000006 870.24603980000018 -0.00033519049999999998 0.0054398140000000003 -0.00015918399999999996 99.130912105000007 0.045498028000000003
decision_type=2 2 2 2 2 2 2 2 2
left_child=6 4 -3 -4 -2 -6 -1 8 -8
right_child=1 2 3 -5 5 -7 7 -9 -10
leaf_value=-0.0023717765267915899 0.011431426459037082 0.0070383311351760883 -0.0011559045820886881 -0.0080912432085612374 -0.0043217837927639093 0.0057640066249718324 0.0030050647023583312 0 0.01585464755782386
leaf_weight=19.055484563112259 25.716505289077759 24.86536431312561 220.65341372787952 92.424023568630219 51.880582690238953 51.006415545940399 15.263705238699911 18.778514817357063 26.714834913611412
leaf_count=77 105 100 889 373 209 208 62 76 109
internal_value=4.48678e-05 -0.000902319 -0.00244831 -0.00330514 0.00298237 0.000502151 0.00571284 0.00856192 0.0119863
internal_weight=546.359 466.546 337.943 313.077 128.604 102.887 79.8125 60.7571 41.9785
internal_count=2208 1884 1362 1262 522 417 324 247 171
is_linear=0
shrinkage=0.02


Tree=45
num_leaves=10
num_cat=0
split_feature=5 20 16 27 2 33 28 28 2
split_gain=7.34915 6.77991 7.63809 9.12434 6.58873 7.29773 5.6312 6.37441 7.63429
threshold=6.310166928000001 0.98311297800000019 5.3423245165000006 -1.0000000180025095e-35 0.016468608500000006 870.24603980000018 52.527602835000003 41.721443905000008 0.035856021500000008
decision_type=2 2 2 2 2 2 2 2 2
left_child=6 2 3 -2 -3 -6 7 -1 -9
right_child=1 4 -4 -5 5 -7 -8 8 -10
leaf_value=0.0098809609345688384 0.011593618864064664 0.0069086189781831179 -0.0058370920752697474 0 -0.0011330400235723798 -0.007935756059305318 0.014074732175755228 -0.011693482800044341 0.0055396144305551679
leaf_weight=22.667772933840752 48.79731310904026 24.863149046897888 27.245919838547707 52.497099161148071 220.64449119567871 92.389742448925972 21.359844163060188 18.524857327342033 17.204975172877312
leaf_count=92 199 100 110 213 889 373 87 75 70
internal_value=4.63594e-05 -0.000882704 0.00292814 0.00554678 -0.00239994 -0.00324193 0.00561302 0.00182329 -0.00301138
internal_weight=546.195 466.438 128.54 101.294 337.897 313.034 79.7574 58.3976 35.7298
internal_count=2208 1884 522 412 1362 1262 324 237 145
is_linear=0
shrinkage=0.02


Tree=46
num_leaves=13
num_cat=0
split_feature=36 23 19 36 22 33 34 21 2 23 7 36
split_gain=7.34855 7.29381 6.27531 7.62727 6.18628 5.82022 3.97143 6.22185 3.74414 3.63402 3.57424 3.08528
threshold=0.98962529300000013 0.0091115580000000022 0.28500000000000009 0.96992116700000008 -49.08557145999999 222.48544175000004 97.229299525000002 572016.06715000013 0.043691817500000008 0.038101146500000009 -0.037460791999999993 0.99515374600000006
decision_type=2 2 2 2 2 2 2 2 2 2 2 2
left_child=2 11 3 8 -5 10 7 -3 -1 -7 -4 -2
right_child=1 6 5 4 -6 9 -8 -9 -10 -11 -12 -13
leaf_value=-0.0026445745943302489 -0.017216519708509456 -0.0029728968161264742 0.0020041243198986531 0 -0.01280137854185274 0.00017616381322541839 -0.008722923734211999 0.0057141844226110744 0.0069048492833457412 0.0070048548930211028 0.013897994052044461 -0.0028184200992027058
leaf_weight=23.817840561270714 16.974266573786736 87.922092989087105 22.260424360632896 24.468738481402397 31.378677278757095 145.87162230908871 21.351551994681358 49.899224579334259 35.745745643973351 40.163047984242439 30.418445020914078 15.762754097580908
leaf_count=96 70 354 90 99 127 589 86 201 145 163 124 64
internal_value=4.64533e-05 -0.00304881 0.00178773 -0.0019071 -0.00719594 0.00365816 -0.00108245 6.60317e-05 0.00279957 0.0018156 0.00949493 -0.0114211
internal_weight=546.034 191.91 354.125 115.411 55.8474 238.714 159.173 137.821 59.5636 186.035 52.6789 32.737
internal_count=2208 775 1433 467 226 966 641 555 241 752 214 134
is_linear=0
shrinkage=0.02


Tree=47
num_leaves=13
num_cat=0
split_feature=36 23 19 36 22 33 34 9 1 23 7 36
split_gain=7.10184 7.06177 6.05403 7.33546 5.97234 5.61427 3.82762 8.81734 3.58579 3.49662 3.43386 2.9736
threshold=0.98962529300000013 0.0091115580000000022 0.28500000000000009 0.96992116700000008 -49.08557145999999 222.48544175000004 97.229299525000002 1.1490380430000002 0.0052170380000000011 0.038101146500000009 -0.037460791999999993 0.99515374600000006
decision_type=2 2 2 2 2 2 2 2 2 2 2 2
left_child=2 11 3 8 -5 10 7 -3 -1 -7 -4 -2
right_child=1 6 5 4 -6 9 -8 -9 -10 -11 -12 -13
leaf_value=-0.0035875105746648794 -0.016951983068879933 -0.0021650124464210876 0.0019675532841627792 0 -0.01257345222514142 0.00017268952491070674 -0.0085632643277841168 0.010690682018572263 0.006176729304446342 0.0068758272878718689 0.013656282012789048 -0.0027691647579194492
leaf_weight=18.874211624264717 16.926063761115074 113.692737236619 22.257895737886429 24.468738481402397 31.345139026641846 145.87048400938511 21.35193732380867 24.119359597563744 40.670302450656891 40.13619290292263 30.373556807637215 15.75789028406143
leaf_count=76 70 458 90 99 127 589 86 97 165 163 124 64
internal_value=4.43692e-05 -0.00299833 0.00175712 -0.00187085 -0.00706123 0.00359497 -0.00106234 6.2638e-05 0.00274072 0.00178322 0.00933219 -0.0112446
internal_weight=545.845 191.848 353.997 115.358 55.8139 238.638 159.164 137.812 59.5445 186.007 52.6315 32.684
internal_count=2208 775 1433 467 226 966 641 555 241 752 214 134
is_linear=0
shrinkage=0.02


Tree=48
num_leaves=13
num_cat=0
split_feature=29 36 13 16 13 28 37 17 27 30 30 11
split_gain=6.87137 7.70425 6.12036 5.92105 5.8964 5.66786 5.55708 5.38582 4.49238 6.44507 7.8298 4.54046
threshold=0.6150000000000001 0.98962529300000013 99.489861690000012 5.6609366285000009 0.012565824000000001 52.031391595000009 21.351062520000003 82.352516890000018 0.00011568800000000001 26.579340570000003 25.267314825000003 0.0035045805000000004
decision_type=2 2 2 2 2 2 2 2 2 2 2 2
left_child=1 3 4 7 -3 -5 -4 -1 9 10 -2 -10
right_child=8 2 6 5 -6 -7 -8 -9 11 -11 -12 -13
leaf_value=0.0037146556975163492 -0.00018320344371615488 0.002217826546606327 0.0083938859626733996 -0.00041511109124245903 -0.010023571194716486 -0.014645891255135473 -0.0058459560368329302 -0.005482503551509788 0.01562504367493292 -0.0065475681523188382 0.012067563185516557 0.001596134941433934
leaf_weight=172.9740856140852 52.306072443723679 15.519934639334677 20.08349135518074 43.183672472834587 80.966294646263123 14.881867125630377 18.860781729221344 26.452779456973076 20.296973541378975 27.721910744905472 29.597806692123413 22.803132459521294
leaf_count=700 212 63 81 174 328 60 76 107 83 112 120 92
internal_value=4.26479e-05 -0.0013202 -0.0051615 0.000647301 -0.0078464 -0.00476157 0.00106035 0.00235309 0.0036499 0.0012251 0.00418764 0.00904611
internal_weight=545.649 392.923 135.431 257.492 96.4862 58.0655 38.9443 199.427 152.726 109.626 81.9039 43.1001
internal_count=2208 1589 548 1041 391 234 157 807 619 444 332 175
is_linear=0
shrinkage=0.02


Tree=49
num_leaves=13
num_cat=0
split_feature=29 36 13 16 13 3 37 9 27 30 30 11
split_gain=6.62646 7.38396 5.88347 5.71152 5.69371 5.60675 5.35838 4.81591 4.3497 6.20331 7.55621 4.37594
threshold=0.6150000000000001 0.98962529300000013 99.489861690000012 5.6609366285000009 0.012565824000000001 0.047508191500000012 21.351062520000003 0.98162315950000012 0.00011568800000000001 26.579340570000003 25.267314825000003 0.0035045805000000004
decision_type=2 2 2 2 2 2 2 2 2 2 2 2
left_child=1 3 4 7 -3 -5 -4 -1 9 10 -2 -10
right_child=8 2 6 5 -6 -7 -8 -9 11 -11 -12 -13
leaf_value=0.0010502049519165908 -0.00017967157624024723 0.0021782042421756667 0.0082386241425775955 0.001251326367492945 -0.0098360313822009587 -0.010390277302137011 -0.0057418064878695611 0.010976617156757126 0.015368091918846237 -0.0064228910483738978 0.011852868354840737 0.0015669383268055725
leaf_weight=178.18952518701553 52.306922063231468 15.522555872797964 20.090357288718224 27.502724796533585 80.898662090301514 30.550419569015503 18.85516993701458 21.212123855948448 20.257446125149727 27.733533635735512 29.567771896719933 22.800750255584717
leaf_count=721 212 63 81 111 328 123 76 86 83 112 120 92
internal_value=4.03836e-05 -0.0012974 -0.00505929 0.000627224 -0.00769373 -0.00468402 0.00103181 0.00230399 0.00358418 0.00119557 0.00410626 0.00889773
internal_weight=545.488 392.822 135.367 257.455 96.4212 58.0531 38.9455 199.402 152.666 109.608 81.8747 43.0582
internal_count=2208 1589 548 1041 391 234 157 807 619 444 332 175
is_linear=0
shrinkage=0.02


Tree=50
num_leaves=9
num_cat=0
split_feature=5 28 28 33 18 5 26 3
split_gain=6.53263 5.45554 6.03407 5.4301 6.14966 6.43526 5.92987 3.1644
threshold=6.310166928000001 52.527602835000003 41.721443905000008 140.56536295000004 -10783807758.499998 18.052011030000006 47.043343800000009 0.068404864500000009
decision_type=2 2 2 2 2 2 2 2
left_child=1 2 -1 -2 6 -6 -5 -4
right_child=3 -3 7 4 5 -7 -8 -9
leaf_value=0.0094528657972147642 0.010219585377544801 0.013628916136636542 -0.0087353492208220827 0.007929413511616976 -0.0012720257216427592 -0.0093474313991644652 -0.0039353448663944548 0.0020604403913938641
leaf_weight=22.591286778450012 14.774224296212195 21.274105831980705 18.305945307016373 48.275049462914467 336.74301742017269 44.687623620033264 21.307906821370125 17.381482020020485
leaf_count=92 60 87 74 196 1361 181 86 71
internal_value=4.25097e-05 0.0052998 0.00157623 -0.000831459 -0.00128114 -0.00231411 0.00400831 -0.00311629
internal_weight=545.341 79.5528 58.2787 465.788 451.014 381.431 69.583 35.6874
internal_count=2208 324 237 1884 1824 1542 282 145
is_linear=0
shrinkage=0.02


end of trees

feature_importances:
Close_to_High_Ratio=47
daily_range_pct=40
CHOP_14=28
divergence_rank_diff=27
ADXR_14=25
PF_Open_Gap=24
PF_K_Body=22
fng_norm=22
PF_K_UpShadow=21
volume_nvi=21
BOP=20
fng_lag_2=20
MACDFIX_Hist=19
vol_current=18
FastK_5=17
MACD_Signal=16
HT_DCPERIOD=16
vol_fear_interaction=15
trend_stc=15
FastD_RSI_14=15
next_weekday=13
trend_mass_index=13
Vol_ROC=12
momentum_ppo_hist=12
DX_14=12
ADI=11
trend_kst=11
TRIX_30=11
emd_energy_imf2=10
SlowK_5=9
HT_SINE_leadsine=8
momentum_pvo_hist=8
CCI_14=8
pattern_sentiment_score=8
Close_to_Open_Ratio=5
AROON_osc_14=4
volume_obv=3
Close_to_Low_Ratio=2

parameters:
[boosting: gbdt]
[objective: binary]
[metric: auc]
[tree_learner: serial]
[device_type: cpu]
[data_sample_strategy: bagging]
[data: ]
[valid: ]
[num_iterations: 10000]
[learning_rate: 0.02]
[num_leaves: 15]
[num_threads: 0]
[seed: 0]
[deterministic: 0]
[force_col_wise: 0]
[force_row_wise: 0]
[histogram_pool_size: -1]
[max_depth: 4]
[min_data_in_leaf: 60]
[min_sum_hessian_in_leaf: 0.001]
[bagging_fraction: 0.7]
[pos_bagging_fraction: 1]
[neg_bagging_fraction: 1]
[bagging_freq: 0]
[bagging_seed: 3]
[bagging_by_query: 0]
[feature_fraction: 0.6]
[feature_fraction_bynode: 1]
[feature_fraction_seed: 2]
[extra_trees: 0]
[extra_seed: 6]
[early_stopping_round: 0]
[early_stopping_min_delta: 0]
[first_metric_only: 0]
[max_delta_step: 0]
[lambda_l1: 1]
[lambda_l2: 2]
[linear_lambda: 0]
[min_gain_to_split: 0]
[drop_rate: 0.1]
[max_drop: 50]
[skip_drop: 0.5]
[xgboost_dart_mode: 0]
[uniform_drop: 0]
[drop_seed: 4]
[top_rate: 0.2]
[other_rate: 0.1]
[min_data_per_group: 100]
[max_cat_threshold: 32]
[cat_l2: 10]
[cat_smooth: 10]
[max_cat_to_onehot: 4]
[top_k: 20]
[monotone_constraints: ]
[monotone_constraints_method: basic]
[monotone_penalty: 0]
[feature_contri: ]
[forcedsplits_filename: ]
[refit_decay_rate: 0.9]
[cegb_tradeoff: 1]
[cegb_penalty_split: 0]
[cegb_penalty_feature_lazy: ]
[cegb_penalty_feature_coupled: ]
[path_smooth: 0]
[interaction_constraints: ]
[verbosity: -1]
[saved_feature_importance_type: 0]
[use_quantized_grad: 0]
[num_grad_quant_bins: 4]
[quant_train_renew_leaf: 0]
[stochastic_rounding: 1]
[linear_tree: 0]
[max_bin: 255]
[max_bin_by_feature: ]
[min_data_in_bin: 3]
[bin_construct_sample_cnt: 200000]
[data_random_seed: 1]
[is_enable_sparse: 1]
[enable_bundle: 1]
[use_missing: 1]
[zero_as_missing: 0]
[feature_pre_filter: 1]
[pre_partition: 0]
[two_round: 0]
[header: 0]
[label_column: ]
[weight_column: ]
[group_column: ]
[ignore_column: ]
[categorical_feature: ]
[forcedbins_filename: ]
[precise_float_parser: 0]
[parser_config_file: ]
[objective_seed: 5]
[num_class: 1]
[is_unbalance: 0]
[scale_pos_weight: 1]
[sigmoid: 1]
[boost_from_average: 1]
[reg_sqrt: 0]
[alpha: 0.9]
[fair_c: 1]
[poisson_max_delta_step: 0.7]
[tweedie_variance_power: 1.5]
[lambdarank_truncation_level: 30]
[lambdarank_norm: 1]
[label_gain: ]
[lambdarank_position_bias_regularization: 0]
[eval_at: ]
[multi_error_top_k: 1]
[auc_mu_weights: ]
[num_machines: 1]
[local_listen_port: 12400]
[time_out: 120]
[machine_list_filename: ]
[machines: ]
[gpu_platform_id: -1]
[gpu_device_id: -1]
[gpu_use_dp: 0]
[num_gpu: 1]

end of parameters

pandas_categorical:[]
